tree
version=v4
num_class=1
num_tree_per_iteration=1
label_index=0
max_feature_idx=12
objective=regression
feature_names=Column_0 Column_1 Column_2 Column_3 Column_4 Column_5 Column_6 Column_7 Column_8 Column_9 Column_10 Column_11 Column_12
feature_infos=[0.45777281884580623:18.997242001899167] [0.033080674345912997:0.18291071483194704] [0.031236990782039828:0.42414510853404697] [0.0207484125799451:0.41791918797579547] [-0.00046330615270573361:0.22664936990363233] [0.014694421250770607:0.20213783546104597] [-3.0374222820464607:4.1146177396922692] [0.58457099251621447:21.821804638500392] [0.58341183457643531:21.779552134293077] [0.64622213246348803:1.474522608091636] [0.086309528942735358:1.2036817755521738] [0.2794941234920722:427.1821010237299] [-0.00098944264910961555:0.17366626601660951]
tree_sizes=919 563 563 566 566 566 566 563 564 564 563 564 564 567 566 566 565 565 563 565 566 567 566 567 566 567 565 566 566 566 567 566 564 565 645 646 643 646 644 644 645 645 645 643 645 565 643 642 567 644 645 644 564 564 564 562 563 563 565 644 563 565 562 565 563 644 638 564 641 564 644 559 563 562 563 644 562 645 565 645

Tree=0
num_leaves=11
num_cat=0
split_feature=11 4 7 5 11 1 1 3 7 10
split_gain=27.3746 12.1841 7.7419 4.71891 8.33216 5.864 5.02339 5.97585 3.44557 3.00247
threshold=0.0054899757134942969 0.015123741199014345 0.13940942493720973 0.20078743470662411 0.027256565827124411 0.13038772316649297 0.084518282411758336 0.091319333860710741 0.29156927152797457 0.10460553710240095
decision_type=2 2 2 2 2 2 2 2 2 2
left_child=-1 2 -2 5 -5 6 7 -3 9 -4
right_child=1 3 8 4 -6 -7 -8 -9 -10 -11
leaf_value=123.25 124 124 124.59999999999999 124.3 123.45 123.25 124.59999999999999 123.3 124.59999999999999 124.59999999999999
leaf_weight=26 29 25 27 30 22 22 31 22 20 20
leaf_count=26 29 25 27 30 22 22 31 22 20 20
internal_value=123.999 124.004 124.018 123.995 124.008 123.989 123.996 123.985 124.027 124.035
internal_weight=274 248 96 152 52 100 78 47 67 47
internal_count=274 248 96 152 52 100 78 47 67 47
is_linear=0
shrinkage=1


Tree=1
num_leaves=5
num_cat=0
split_feature=1 2 4 10
split_gain=1768.34 1662.08 339.012 177.888
threshold=0.073503659078180461 0.10262545696244599 0.029095626389918448 0.19643829926664261
decision_type=2 2 2 2
left_child=1 2 3 -1
right_child=-2 -3 -4 -5
leaf_value=-0.28731428091866629 -0.2260151517752445 -0.37303332964579261 -0.25865516531056371 -0.32469999313354492
leaf_weight=35 33 30 29 20
leaf_count=35 33 30 29 20
internal_value=-0.29048 -0.30914 -0.286321 -0.300909
internal_weight=147 114 84 55
internal_count=147 114 84 55
is_linear=0
shrinkage=0.01


Tree=2
num_leaves=5
num_cat=0
split_feature=1 2 4 10
split_gain=1733.15 1629.01 332.266 174.348
threshold=0.073503659078180461 0.10262545696244599 0.029095626389918448 0.19643829926664261
decision_type=2 2 2 2
left_child=1 2 3 -1
right_child=-2 -3 -4 -5
leaf_value=-0.28444114085606165 -0.22375500086582067 -0.36930301030476892 -0.2560686256145609 -0.32145299530029298
leaf_weight=35 33 30 29 20
leaf_count=35 33 30 29 20
internal_value=-0.287575 -0.306049 -0.283458 -0.2979
internal_weight=147 114 84 55
internal_count=147 114 84 55
is_linear=0
shrinkage=0.01


Tree=3
num_leaves=5
num_cat=0
split_feature=1 2 4 10
split_gain=1698.66 1596.59 325.654 170.879
threshold=0.073503659078180461 0.10262545696244599 0.029095626389918448 0.19643829926664261
decision_type=2 2 2 2
left_child=1 2 3 -1
right_child=-2 -3 -4 -5
leaf_value=-0.28159672873360769 -0.22151745203769568 -0.36560996691385905 -0.25350793378106479 -0.31823847198486327
leaf_weight=35 33 30 29 20
leaf_count=35 33 30 29 20
internal_value=-0.284699 -0.302988 -0.280624 -0.294921
internal_weight=147 114 84 55
internal_count=147 114 84 55
is_linear=0
shrinkage=0.01


Tree=4
num_leaves=5
num_cat=0
split_feature=1 2 4 10
split_gain=1664.86 1564.82 319.173 167.478
threshold=0.073503659078180461 0.10262545696244599 0.029095626389918448 0.19643829926664261
decision_type=2 2 2 2
left_child=1 2 3 -1
right_child=-2 -3 -4 -5
leaf_value=-0.27878076444353378 -0.21930227640903358 -0.36195387713114424 -0.25097285961282667 -0.31505609130859374
leaf_weight=35 33 30 29 20
leaf_count=35 33 30 29 20
internal_value=-0.281852 -0.299959 -0.277817 -0.291972
internal_weight=147 114 84 55
internal_count=147 114 84 55
is_linear=0
shrinkage=0.01


Tree=5
num_leaves=5
num_cat=0
split_feature=1 2 4 10
split_gain=1631.73 1533.68 312.822 164.145
threshold=0.073503659078180461 0.10262545696244599 0.029095626389918448 0.19643829926664261
decision_type=2 2 2 2
left_child=1 2 3 -1
right_child=-2 -3 -4 -5
leaf_value=-0.27599295915876115 -0.21710925261179609 -0.35833433214823407 -0.24846313213479931 -0.31190553092956541
leaf_weight=35 33 30 29 20
leaf_count=35 33 30 29 20
internal_value=-0.279034 -0.296959 -0.275039 -0.289052
internal_weight=147 114 84 55
internal_count=147 114 84 55
is_linear=0
shrinkage=0.01


Tree=6
num_leaves=5
num_cat=0
split_feature=1 2 4 10
split_gain=1599.26 1503.16 306.597 160.879
threshold=0.073503659078180461 0.10262545696244599 0.029095626389918448 0.19643829926664261
decision_type=2 2 2 2
left_child=1 2 3 -1
right_child=-2 -3 -4 -5
leaf_value=-0.27323302786690851 -0.21493815696600713 -0.35475098005930583 -0.24597848957982557 -0.30878646659851078
leaf_weight=35 33 30 29 20
leaf_count=35 33 30 29 20
internal_value=-0.276243 -0.293989 -0.272289 -0.286162
internal_weight=147 114 84 55
internal_count=147 114 84 55
is_linear=0
shrinkage=0.01


Tree=7
num_leaves=5
num_cat=0
split_feature=1 2 4 10
split_gain=1567.43 1473.25 300.495 157.677
threshold=0.073503659078180461 0.10262545696244599 0.029095626389918448 0.19643829926664261
decision_type=2 2 2 2
left_child=1 2 3 -1
right_child=-2 -3 -4 -5
leaf_value=-0.27050069972446988 -0.21278878139727045 -0.35120348040262861 -0.24351871227395946 -0.30569860076904298
leaf_weight=35 33 30 29 20
leaf_count=35 33 30 29 20
internal_value=-0.273481 -0.29105 -0.269566 -0.2833
internal_weight=147 114 84 55
internal_count=147 114 84 55
is_linear=0
shrinkage=0.01


Tree=8
num_leaves=5
num_cat=0
split_feature=1 2 4 10
split_gain=1536.24 1443.93 294.515 154.539
threshold=0.073503659078180461 0.10262545696244599 0.029095626389918448 0.19643829926664261
decision_type=2 2 2 2
left_child=1 2 3 -1
right_child=-2 -3 -4 -5
leaf_value=-0.26779568753923688 -0.21066088835398358 -0.3476914509137472 -0.24108352529591529 -0.30264161682128909
leaf_weight=35 33 30 29 20
leaf_count=35 33 30 29 20
internal_value=-0.270746 -0.288139 -0.26687 -0.280467
internal_weight=147 114 84 55
internal_count=147 114 84 55
is_linear=0
shrinkage=0.01


Tree=9
num_leaves=5
num_cat=0
split_feature=1 2 4 10
split_gain=1505.67 1415.2 288.655 151.464
threshold=0.073503659078180461 0.10262545696244599 0.029095626389918448 0.19643829926664261
decision_type=2 2 2 2
left_child=1 2 3 -1
right_child=-2 -3 -4 -5
leaf_value=-0.2651177319117955 -0.20855427900950116 -0.34421453460057577 -0.23867268924055426 -0.29961519861221314
leaf_weight=35 33 30 29 20
leaf_count=35 33 30 29 20
internal_value=-0.268039 -0.285258 -0.264202 -0.277662
internal_weight=147 114 84 55
internal_count=147 114 84 55
is_linear=0
shrinkage=0.01


Tree=10
num_leaves=5
num_cat=0
split_feature=1 2 4 10
split_gain=1475.71 1387.03 282.91 148.45
threshold=0.073503659078180461 0.10262545696244599 0.029095626389918448 0.19643829926664261
decision_type=2 2 2 2
left_child=1 2 3 -1
right_child=-2 -3 -4 -5
leaf_value=-0.26246655545915876 -0.2064687406655514 -0.34077239108085638 -0.23628595549484779 -0.29661904907226566
leaf_weight=35 33 30 29 20
leaf_count=35 33 30 29 20
internal_value=-0.265358 -0.282405 -0.26156 -0.274886
internal_weight=147 114 84 55
internal_count=147 114 84 55
is_linear=0
shrinkage=0.01


Tree=11
num_leaves=5
num_cat=0
split_feature=1 2 4 10
split_gain=1446.34 1359.43 277.28 145.496
threshold=0.073503659078180461 0.10262545696244599 0.029095626389918448 0.19643829926664261
decision_type=2 2 2 2
left_child=1 2 3 -1
right_child=-2 -3 -4 -5
leaf_value=-0.2598418911525181 -0.20440405253208047 -0.33736465342839561 -0.23392310701567554 -0.2936528549194336
leaf_weight=35 33 30 29 20
leaf_count=35 33 30 29 20
internal_value=-0.262705 -0.279581 -0.258944 -0.272137
internal_weight=147 114 84 55
internal_count=147 114 84 55
is_linear=0
shrinkage=0.01


Tree=12
num_leaves=5
num_cat=0
split_feature=1 2 4 10
split_gain=1417.56 1332.38 271.763 142.6
threshold=0.073503659078180461 0.10262545696244599 0.029095626389918448 0.19643829926664261
decision_type=2 2 2 2
left_child=1 2 3 -1
right_child=-2 -3 -4 -5
leaf_value=-0.25724347196306502 -0.20236001159205583 -0.3339910093943278 -0.23158387611652242 -0.29071633386611939
leaf_weight=35 33 30 29 20
leaf_count=35 33 30 29 20
internal_value=-0.260077 -0.276785 -0.256355 -0.269415
internal_weight=147 114 84 55
internal_count=147 114 84 55
is_linear=0
shrinkage=0.01


Tree=13
num_leaves=5
num_cat=0
split_feature=1 2 10 4
split_gain=1389.35 1305.86 270.139 333.448
threshold=0.073503659078180461 0.10262545696244599 0.16756233034869131 0.030141722913659217
decision_type=2 2 2 2
left_child=1 2 -1 -4
right_child=-2 -3 3 -5
leaf_value=-0.27848753304317081 -0.20033641020456952 -0.33065109570821127 -0.26087336713617498 -0.21061286102641713
leaf_weight=29 33 30 33 22
leaf_count=29 33 30 33 22
internal_value=-0.257477 -0.274017 -0.253791 -0.240769
internal_weight=147 114 84 55
internal_count=147 114 84 55
is_linear=0
shrinkage=0.01


Tree=14
num_leaves=5
num_cat=0
split_feature=1 2 10 4
split_gain=1361.7 1279.88 264.763 326.812
threshold=0.073503659078180461 0.10262545696244599 0.16756233034869131 0.030141722913659217
decision_type=2 2 2 2
left_child=1 2 -1 -4
right_child=-2 -3 3 -5
leaf_value=-0.27570265737073174 -0.19833304564158125 -0.32734458804130556 -0.25826463554844714 -0.20850672938606957
leaf_weight=29 33 30 33 22
leaf_count=29 33 30 33 22
internal_value=-0.254902 -0.271277 -0.251253 -0.238361
internal_weight=147 114 84 55
internal_count=147 114 84 55
is_linear=0
shrinkage=0.01


Tree=15
num_leaves=5
num_cat=0
split_feature=1 2 10 4
split_gain=1334.6 1254.41 259.494 320.308
threshold=0.073503659078180461 0.10262545696244599 0.16756233034869131 0.030141722913659217
decision_type=2 2 2 2
left_child=1 2 -1 -4
right_child=-2 -3 3 -5
leaf_value=-0.27294563227686391 -0.19634971748698843 -0.32407115093866984 -0.25568198839823408 -0.20642166831276634
leaf_weight=29 33 30 33 22
leaf_count=29 33 30 33 22
internal_value=-0.252353 -0.268564 -0.248741 -0.235978
internal_weight=147 114 84 55
internal_count=147 114 84 55
is_linear=0
shrinkage=0.01


Tree=16
num_leaves=5
num_cat=0
split_feature=1 2 10 4
split_gain=1308.05 1229.44 254.33 313.934
threshold=0.073503659078180461 0.10262545696244599 0.16756233034869131 0.030141722913659217
decision_type=2 2 2 2
left_child=1 2 -1 -4
right_child=-2 -3 3 -5
leaf_value=-0.27021617494780442 -0.1943862211343014 -0.32083044000466665 -0.25312517021641584 -0.20435744502327657
leaf_weight=29 33 30 33 22
leaf_count=29 33 30 33 22
internal_value=-0.249829 -0.265879 -0.246253 -0.233618
internal_weight=147 114 84 55
internal_count=147 114 84 55
is_linear=0
shrinkage=0.01


Tree=17
num_leaves=5
num_cat=0
split_feature=1 2 10 4
split_gain=1282.02 1204.98 249.269 307.687
threshold=0.073503659078180461 0.10262545696244599 0.16756233034869131 0.030141722913659217
decision_type=2 2 2 2
left_child=1 2 -1 -4
right_child=-2 -3 3 -5
leaf_value=-0.26751401835474475 -0.19244235277175903 -0.3176221377849579 -0.25059391397418401 -0.20231387355110861
leaf_weight=29 33 30 33 22
leaf_count=29 33 30 33 22
internal_value=-0.247331 -0.26322 -0.243791 -0.231282
internal_weight=147 114 84 55
internal_count=147 114 84 55
is_linear=0
shrinkage=0.01


Tree=18
num_leaves=5
num_cat=0
split_feature=1 2 10 4
split_gain=1256.5 1181 244.309 301.564
threshold=0.073503659078180461 0.10262545696244599 0.16756233034869131 0.030141722913659217
decision_type=2 2 2 2
left_child=1 2 -1 -4
right_child=-2 -3 3 -5
leaf_value=-0.26483888165704139 -0.19051793257395427 -0.31444591085116069 -0.24808797691807602 -0.20029073021628641
leaf_weight=29 33 30 33 22
leaf_count=29 33 30 33 22
internal_value=-0.244858 -0.260588 -0.241353 -0.228969
internal_weight=147 114 84 55
internal_count=147 114 84 55
is_linear=0
shrinkage=0.01


Tree=19
num_leaves=5
num_cat=0
split_feature=1 2 10 4
split_gain=1231.5 1157.5 239.447 295.563
threshold=0.073503659078180461 0.10262545696244599 0.16756233034869131 0.030141722913659217
decision_type=2 2 2 2
left_child=1 2 -1 -4
right_child=-2 -3 3 -5
leaf_value=-0.26219048993340854 -0.18861275600664545 -0.31130145132541659 -0.24560709953308105 -0.19828782341697002
leaf_weight=29 33 30 33 22
leaf_count=29 33 30 33 22
internal_value=-0.242409 -0.257982 -0.238939 -0.226679
internal_weight=147 114 84 55
internal_count=147 114 84 55
is_linear=0
shrinkage=0.01


Tree=20
num_leaves=5
num_cat=0
split_feature=1 2 10 4
split_gain=1206.99 1134.46 234.682 289.681
threshold=0.073503659078180461 0.10262545696244599 0.16756233034869131 0.030141722913659217
decision_type=2 2 2 2
left_child=1 2 -1 -4
right_child=-2 -3 3 -5
leaf_value=-0.25956858010127626 -0.18672662828907821 -0.30818843511740368 -0.24315102750604806 -0.19630494724620473
leaf_weight=29 33 30 33 22
leaf_count=29 33 30 33 22
internal_value=-0.239985 -0.255402 -0.23655 -0.224413
internal_weight=147 114 84 55
internal_count=147 114 84 55
is_linear=0
shrinkage=0.01


Tree=21
num_leaves=5
num_cat=0
split_feature=1 2 10 4
split_gain=1182.97 1111.89 230.012 283.917
threshold=0.073503659078180461 0.10262545696244599 0.16756233034869131 0.030141722913659217
decision_type=2 2 2 2
left_child=1 2 -1 -4
right_child=-2 -3 3 -5
leaf_value=-0.25697289894367087 -0.18485936092607905 -0.30510654374460383 -0.24071951230367025 -0.19434190013191915
leaf_weight=29 33 30 33 22
leaf_count=29 33 30 33 22
internal_value=-0.237585 -0.252848 -0.234184 -0.222168
internal_weight=147 114 84 55
internal_count=147 114 84 55
is_linear=0
shrinkage=0.01


Tree=22
num_leaves=5
num_cat=0
split_feature=1 2 10 4
split_gain=1159.43 1089.76 225.435 278.267
threshold=0.073503659078180461 0.10262545696244599 0.16756233034869131 0.030141722913659217
decision_type=2 2 2 2
left_child=1 2 -1 -4
right_child=-2 -3 3 -5
leaf_value=-0.25440316660650841 -0.18301076954061332 -0.30205549247562885 -0.23831231955325965 -0.19239848266948353
leaf_weight=29 33 30 33 22
leaf_count=29 33 30 33 22
internal_value=-0.235209 -0.25032 -0.231842 -0.219947
internal_weight=147 114 84 55
internal_count=147 114 84 55
is_linear=0
shrinkage=0.01


Tree=23
num_leaves=5
num_cat=0
split_feature=1 2 10 4
split_gain=1136.36 1068.07 220.948 272.729
threshold=0.073503659078180461 0.10262545696244599 0.16756233034869131 0.030141722913659217
decision_type=2 2 2 2
left_child=1 2 -1 -4
right_child=-2 -3 3 -5
leaf_value=-0.25185913217478784 -0.18118065935192687 -0.29903492358326911 -0.23592920043251731 -0.19047449805519798
leaf_weight=29 33 30 33 22
leaf_count=29 33 30 33 22
internal_value=-0.232857 -0.247816 -0.229524 -0.217747
internal_weight=147 114 84 55
internal_count=147 114 84 55
is_linear=0
shrinkage=0.01


Tree=24
num_leaves=5
num_cat=0
split_feature=1 2 10 4
split_gain=1113.75 1046.82 216.552 267.302
threshold=0.073503659078180461 0.10262545696244599 0.16756233034869131 0.030141722913659217
decision_type=2 2 2 2
left_child=1 2 -1 -4
right_child=-2 -3 3 -5
leaf_value=-0.24934054539121431 -0.17936885060686053 -0.29604457736015322 -0.23356990467418326 -0.18856974818489769
leaf_weight=29 33 30 33 22
leaf_count=29 33 30 33 22
internal_value=-0.230529 -0.245338 -0.227229 -0.21557
internal_weight=147 114 84 55
internal_count=147 114 84 55
is_linear=0
shrinkage=0.01


Tree=25
num_leaves=5
num_cat=0
split_feature=1 2 10 4
split_gain=1091.58 1025.99 212.242 261.983
threshold=0.073503659078180461 0.10262545696244599 0.16756233034869131 0.030141722913659217
decision_type=2 2 2 2
left_child=1 2 -1 -4
right_child=-2 -3 3 -5
leaf_value=-0.24684713692500673 -0.17757516116806954 -0.29308414014180506 -0.23123420484138257 -0.18668404839255595
leaf_weight=29 33 30 33 22
leaf_count=29 33 30 33 22
internal_value=-0.228223 -0.242885 -0.224956 -0.213414
internal_weight=147 114 84 55
internal_count=147 114 84 55
is_linear=0
shrinkage=0.01


Tree=26
num_leaves=5
num_cat=0
split_feature=1 2 10 4
split_gain=1069.86 1005.57 208.019 256.769
threshold=0.073503659078180461 0.10262545696244599 0.16756233034869131 0.030141722913659217
decision_type=2 2 2 2
left_child=1 2 -1 -4
right_child=-2 -3 3 -5
leaf_value=-0.24437866342478784 -0.17579941428068913 -0.29015330123901367 -0.2289218639604973 -0.18481721141121604
leaf_weight=29 33 30 33 22
leaf_count=29 33 30 33 22
internal_value=-0.225941 -0.240456 -0.222707 -0.21128
internal_weight=147 114 84 55
internal_count=147 114 84 55
is_linear=0
shrinkage=0.01


Tree=27
num_leaves=5
num_cat=0
split_feature=1 2 10 4
split_gain=1048.57 985.561 203.879 251.659
threshold=0.073503659078180461 0.10262545696244599 0.16756233034869131 0.030141722913659217
decision_type=2 2 2 2
left_child=1 2 -1 -4
right_child=-2 -3 3 -5
leaf_value=-0.24193488285459322 -0.17404141624768574 -0.28725176787376405 -0.22663264563589386 -0.18296904303810813
leaf_weight=29 33 30 33 22
leaf_count=29 33 30 33 22
internal_value=-0.223682 -0.238051 -0.22048 -0.209167
internal_weight=147 114 84 55
internal_count=147 114 84 55
is_linear=0
shrinkage=0.01


Tree=28
num_leaves=5
num_cat=0
split_feature=1 2 10 4
split_gain=1027.7 965.948 199.822 246.651
threshold=0.073503659078180461 0.10262545696244599 0.16756233034869131 0.030141722913659217
decision_type=2 2 2 2
left_child=1 2 -1 -4
right_child=-2 -3 3 -5
leaf_value=-0.23951553048758673 -0.17230100689512312 -0.28437923363844553 -0.22436631925178296 -0.18113934733650902
leaf_weight=29 33 30 33 22
leaf_count=29 33 30 33 22
internal_value=-0.221445 -0.235671 -0.218275 -0.207076
internal_weight=147 114 84 55
internal_count=147 114 84 55
is_linear=0
shrinkage=0.01


Tree=29
num_leaves=5
num_cat=0
split_feature=1 2 10 4
split_gain=1007.25 946.725 195.845 241.743
threshold=0.073503659078180461 0.10262545696244599 0.16756233034869131 0.030141722913659217
decision_type=2 2 2 2
left_child=1 2 -1 -4
right_child=-2 -3 3 -5
leaf_value=-0.23712037546881312 -0.17057799436829307 -0.2815354505379995 -0.22212265332539877 -0.17932795741341331
leaf_weight=29 33 30 33 22
leaf_count=29 33 30 33 22
internal_value=-0.219231 -0.233314 -0.216092 -0.205005
internal_weight=147 114 84 55
internal_count=147 114 84 55
is_linear=0
shrinkage=0.01


Tree=30
num_leaves=5
num_cat=0
split_feature=1 2 10 4
split_gain=987.207 927.885 191.948 236.932
threshold=0.073503659078180461 0.10262545696244599 0.16756233034869131 0.030141722913659217
decision_type=2 2 2 2
left_child=1 2 -1 -4
right_child=-2 -3 3 -5
leaf_value=-0.23474917576230805 -0.16887221448349229 -0.27872009094556172 -0.21990142648870292 -0.17753467213023794
leaf_weight=29 33 30 33 22
leaf_count=29 33 30 33 22
internal_value=-0.217038 -0.230981 -0.213931 -0.202955
internal_weight=147 114 84 55
internal_count=147 114 84 55
is_linear=0
shrinkage=0.01


Tree=31
num_leaves=5
num_cat=0
split_feature=1 2 10 4
split_gain=967.561 909.42 188.128 232.217
threshold=0.073503659078180461 0.10262545696244599 0.16756233034869131 0.030141722913659217
decision_type=2 2 2 2
left_child=1 2 -1 -4
right_child=-2 -3 3 -5
leaf_value=-0.23240167946651064 -0.16718348759593388 -0.27593288811047872 -0.21770241795164169 -0.17575932719490744
leaf_weight=29 33 30 33 22
leaf_count=29 33 30 33 22
internal_value=-0.214868 -0.228671 -0.211792 -0.200925
internal_weight=147 114 84 55
internal_count=147 114 84 55
is_linear=0
shrinkage=0.01


Tree=32
num_leaves=5
num_cat=0
split_feature=1 2 10 4
split_gain=948.307 891.323 184.385 227.596
threshold=0.073503659078180461 0.10262545696244599 0.16756233034869131 0.030141722913659217
decision_type=2 2 2 2
left_child=1 2 -1 -4
right_child=-2 -3 3 -5
leaf_value=-0.23007766427664922 -0.165511656999588 -0.27317355966567997 -0.21552539160757356 -0.1740017388083718
leaf_weight=29 33 30 33 22
leaf_count=29 33 30 33 22
internal_value=-0.212719 -0.226385 -0.209674 -0.198916
internal_weight=147 114 84 55
internal_count=147 114 84 55
is_linear=0
shrinkage=0.01


Tree=33
num_leaves=5
num_cat=0
split_feature=1 2 10 4
split_gain=929.436 873.586 180.715 223.067
threshold=0.073503659078180461 0.10262545696244599 0.16756233034869131 0.030141722913659217
decision_type=2 2 2 2
left_child=1 2 -1 -4
right_child=-2 -3 3 -5
leaf_value=-0.22777688881446576 -0.1638565372224107 -0.2704418373902639 -0.21337013418024239 -0.17226172187111594
leaf_weight=29 33 30 33 22
leaf_count=29 33 30 33 22
internal_value=-0.210592 -0.224121 -0.207577 -0.196927
internal_weight=147 114 84 55
internal_count=147 114 84 55
is_linear=0
shrinkage=0.01


Tree=34
num_leaves=6
num_cat=0
split_feature=1 2 6 10 4
split_gain=910.94 856.202 179.596 208.436 204.793
threshold=0.073503659078180461 0.10262545696244599 1.2558658767165203 0.16756233034869131 0.022470348406226821
decision_type=2 2 2 2 2
left_child=1 2 3 -1 -5
right_child=-2 -3 -4 4 -6
leaf_value=-0.22409516429901125 -0.16221797198057175 -0.26773741706212362 -0.23165834426879883 -0.20577532395072606 -0.16258259137471517
leaf_weight=20 33 30 20 23 21
leaf_count=20 33 30 20 23 21
internal_value=-0.208486 -0.221879 -0.205502 -0.197328 -0.185161
internal_weight=147 114 84 64 44
internal_count=147 114 84 64 44
is_linear=0
shrinkage=0.01


Tree=35
num_leaves=6
num_cat=0
split_feature=1 2 6 10 4
split_gain=892.812 839.163 176.022 204.288 200.718
threshold=0.073503659078180461 0.10262545696244599 1.2558658767165203 0.16756233034869131 0.022470348406226821
decision_type=2 2 2 2 2
left_child=1 2 3 -1 -5
right_child=-2 -3 -4 4 -6
leaf_value=-0.22185421037673952 -0.16059579132181229 -0.26506003967920938 -0.22934176254272462 -0.20371756678042205 -0.16095676285879953
leaf_weight=20 33 30 20 23 21
leaf_count=20 33 30 20 23 21
internal_value=-0.206401 -0.219661 -0.203447 -0.195354 -0.183309
internal_weight=147 114 84 64 44
internal_count=147 114 84 64 44
is_linear=0
shrinkage=0.01


Tree=36
num_leaves=6
num_cat=0
split_feature=1 2 6 10 4
split_gain=875.045 822.464 172.519 200.223 196.724
threshold=0.073503659078180461 0.10262545696244599 1.2558658767165203 0.16756233034869131 0.022470348406226821
decision_type=2 2 2 2 2
left_child=1 2 3 -1 -5
right_child=-2 -3 -4 4 -6
leaf_value=-0.21963566875457766 -0.15898983879522843 -0.26240943654378257 -0.22704833984375 -0.20168039363363516 -0.15934719630650113
leaf_weight=20 33 30 20 23 21
leaf_count=20 33 30 20 23 21
internal_value=-0.204337 -0.217464 -0.201412 -0.193401 -0.181476
internal_weight=147 114 84 64 44
internal_count=147 114 84 64 44
is_linear=0
shrinkage=0.01


Tree=37
num_leaves=6
num_cat=0
split_feature=1 2 6 10 4
split_gain=857.632 806.097 169.086 196.239 192.809
threshold=0.073503659078180461 0.10262545696244599 1.2558658767165203 0.16756233034869131 0.022470348406226821
decision_type=2 2 2 2 2
left_child=1 2 3 -1 -5
right_child=-2 -3 -4 4 -6
leaf_value=-0.21743931722640991 -0.15739994132157528 -0.25978534364700318 -0.22477785873413086 -0.19966358848240068 -0.15775372232709614
leaf_weight=20 33 30 20 23 21
leaf_count=20 33 30 20 23 21
internal_value=-0.202294 -0.215289 -0.199398 -0.191467 -0.179661
internal_weight=147 114 84 64 44
internal_count=147 114 84 64 44
is_linear=0
shrinkage=0.01


Tree=38
num_leaves=6
num_cat=0
split_feature=1 2 6 10 4
split_gain=840.565 790.055 165.721 192.333 188.972
threshold=0.073503659078180461 0.10262545696244599 1.2558658767165203 0.16756233034869131 0.022470348406226821
decision_type=2 2 2 2 2
left_child=1 2 3 -1 -5
right_child=-2 -3 -4 4 -6
leaf_value=-0.21526492452621462 -0.15582594276829201 -0.25718749109903971 -0.2225300798416138 -0.1976669560308042 -0.15617618878682454
leaf_weight=20 33 30 20 23 21
leaf_count=20 33 30 20 23 21
internal_value=-0.200271 -0.213137 -0.197404 -0.189552 -0.177865
internal_weight=147 114 84 64 44
internal_count=147 114 84 64 44
is_linear=0
shrinkage=0.01


Tree=39
num_leaves=6
num_cat=0
split_feature=1 2 6 10 4
split_gain=823.838 774.333 162.423 188.506 185.211
threshold=0.073503659078180461 0.10262545696244599 1.2558658767165203 0.16756233034869131 0.022470348406226821
decision_type=2 2 2 2 2
left_child=1 2 3 -1 -5
right_child=-2 -3 -4 4 -6
leaf_value=-0.21311227035522462 -0.15426768092946572 -0.2546156210899353 -0.22030478143692014 -0.19569028605585512 -0.15461442743028914
leaf_weight=20 33 30 20 23 21
leaf_count=20 33 30 20 23 21
internal_value=-0.198268 -0.211005 -0.19543 -0.187657 -0.176086
internal_weight=147 114 84 64 44
internal_count=147 114 84 64 44
is_linear=0
shrinkage=0.01


Tree=40
num_leaves=6
num_cat=0
split_feature=1 2 6 10 4
split_gain=807.443 758.924 159.191 184.755 181.526
threshold=0.073503659078180461 0.10262545696244599 1.2558658767165203 0.16756233034869131 0.022470348406226821
decision_type=2 2 2 2 2
left_child=1 2 3 -1 -5
right_child=-2 -3 -4 4 -6
leaf_value=-0.21098114919662475 -0.15272500199801994 -0.25206946277618408 -0.21810173177719117 -0.19373337870058804 -0.15306828067416237
leaf_weight=20 33 30 20 23 21
leaf_count=20 33 30 20 23 21
internal_value=-0.196285 -0.208895 -0.193476 -0.18578 -0.174325
internal_weight=147 114 84 64 44
internal_count=147 114 84 64 44
is_linear=0
shrinkage=0.01


Tree=41
num_leaves=6
num_cat=0
split_feature=1 2 6 10 3
split_gain=791.375 743.821 156.023 181.078 178.502
threshold=0.073503659078180461 0.10262545696244599 1.2558658767165203 0.16756233034869131 0.11031482669194949
decision_type=2 2 2 2 2
left_child=1 2 3 -1 -5
right_child=-2 -3 -4 4 -6
leaf_value=-0.20887134075164795 -0.15119775033809923 -0.24954876550038654 -0.21592071580886843 -0.19096852461496991 -0.15051770019531252
leaf_weight=20 33 30 20 24 20
leaf_count=20 33 30 20 24 20
internal_value=-0.194323 -0.206806 -0.191541 -0.183922 -0.172582
internal_weight=147 114 84 64 44
internal_count=147 114 84 64 44
is_linear=0
shrinkage=0.01


Tree=42
num_leaves=6
num_cat=0
split_feature=1 2 6 10 4
split_gain=775.627 729.019 152.918 177.475 175.494
threshold=0.073503659078180461 0.10262545696244599 1.2558658767165203 0.16756233034869131 0.022470348406226821
decision_type=2 2 2 2 2
left_child=1 2 3 -1 -5
right_child=-2 -3 -4 4 -6
leaf_value=-0.20678262805938721 -0.14968577349727805 -0.24705327383677167 -0.2137615075111389 -0.18993912489517875 -0.14995537371862502
leaf_weight=20 33 30 20 23 21
leaf_count=20 33 30 20 23 21
internal_value=-0.192379 -0.204738 -0.189626 -0.182083 -0.170856
internal_weight=147 114 84 64 44
internal_count=147 114 84 64 44
is_linear=0
shrinkage=0.01


Tree=43
num_leaves=6
num_cat=0
split_feature=1 2 6 10 3
split_gain=760.192 714.512 149.875 173.943 172.571
threshold=0.073503659078180461 0.10262545696244599 1.2558658767165203 0.16756233034869131 0.11031482669194949
decision_type=2 2 2 2 2
left_child=1 2 3 -1 -5
right_child=-2 -3 -4 4 -6
leaf_value=-0.20471480369567871 -0.14818892002105713 -0.2445827449162801 -0.21162389755249023 -0.1872260884443919 -0.14745299816131593
leaf_weight=20 33 30 20 24 20
leaf_count=20 33 30 20 24 20
internal_value=-0.190456 -0.202691 -0.187729 -0.180262 -0.169147
internal_weight=147 114 84 64 44
internal_count=147 114 84 64 44
is_linear=0
shrinkage=0.01


Tree=44
num_leaves=6
num_cat=0
split_feature=1 2 6 10 4
split_gain=745.064 700.293 146.892 170.481 169.662
threshold=0.073503659078180461 0.10262545696244599 1.2558658767165203 0.16756233034869131 0.022470348406226821
decision_type=2 2 2 2 2
left_child=1 2 3 -1 -5
right_child=-2 -3 -4 4 -6
leaf_value=-0.20266765117645263 -0.14670702841245767 -0.24213691457112632 -0.20950765609741212 -0.18621935180995774 -0.14690553097497849
leaf_weight=20 33 30 20 23 21
leaf_count=20 33 30 20 23 21
internal_value=-0.188551 -0.200664 -0.185852 -0.17846 -0.167456
internal_weight=147 114 84 64 44
internal_count=147 114 84 64 44
is_linear=0
shrinkage=0.01


Tree=45
num_leaves=5
num_cat=0
split_feature=1 2 4 10
split_gain=730.237 686.357 144.783 171.325
threshold=0.073503659078180461 0.10262545696244599 0.029095626389918448 0.19643829926664261
decision_type=2 2 2 2
left_child=1 2 3 -1
right_child=-2 -3 -4 -5
leaf_value=-0.18018496404375348 -0.14523995598157247 -0.239715545018514 -0.16591331481933594 -0.21687459111213683
leaf_weight=35 33 30 29 20
leaf_count=35 33 30 29 20
internal_value=-0.186666 -0.198657 -0.183993 -0.193527
internal_weight=147 114 84 55
internal_count=147 114 84 55
is_linear=0
shrinkage=0.01


Tree=46
num_leaves=6
num_cat=0
split_feature=1 2 6 10 3
split_gain=715.706 672.699 143.924 168.203 165.392
threshold=0.073503659078180461 0.10262545696244599 1.2558658767165203 0.16756233034869131 0.11031482669194949
decision_type=2 2 2 2 2
left_child=1 2 3 -1 -5
right_child=-2 -3 -4 4 -6
leaf_value=-0.19888194036483764 -0.14378756057132375 -0.2373183968861898 -0.20556895542144776 -0.1816049861907959 -0.14266797876358031
leaf_weight=20 33 30 20 24 20
leaf_count=20 33 30 20 24 20
internal_value=-0.184799 -0.196671 -0.182154 -0.174836 -0.163906
internal_weight=147 114 84 64 44
internal_count=147 114 84 64 44
is_linear=0
shrinkage=0.01


Tree=47
num_leaves=6
num_cat=0
split_feature=1 2 6 10 4
split_gain=701.463 659.312 141.06 164.855 162.22
threshold=0.073503659078180461 0.10262545696244599 1.2558658767165203 0.16756233034869131 0.022470348406226821
decision_type=2 2 2 2 2
left_child=1 2 3 -1 -5
right_child=-2 -3 -4 4 -6
leaf_value=-0.19689312410354615 -0.14234968573758097 -0.23494520791371665 -0.20351326704025269 -0.1806145717786706 -0.1421726317632766
leaf_weight=20 33 30 20 23 21
leaf_count=20 33 30 20 23 21
internal_value=-0.182951 -0.194704 -0.180332 -0.173088 -0.162267
internal_weight=147 114 84 64 44
internal_count=147 114 84 64 44
is_linear=0
shrinkage=0.01


Tree=48
num_leaves=5
num_cat=0
split_feature=1 2 4 10
split_gain=687.504 646.192 138.643 170.092
threshold=0.073503659078180461 0.10262545696244599 0.029095626389918448 0.19643829926664261
decision_type=2 2 2 2
left_child=1 2 3 -1
right_child=-2 -3 -4 -5
leaf_value=-0.17456393759591241 -0.14092618232423609 -0.23259575621287026 -0.16083608232695482 -0.21112125062942505
leaf_weight=35 33 30 29 20
leaf_count=35 33 30 29 20
internal_value=-0.181121 -0.192757 -0.178529 -0.187858
internal_weight=147 114 84 55
internal_count=147 114 84 55
is_linear=0
shrinkage=0.01


Tree=49
num_leaves=6
num_cat=0
split_feature=1 2 6 10 3
split_gain=673.823 633.333 138.208 162.669 158.511
threshold=0.073503659078180461 0.10262545696244599 1.2558658767165203 0.16756233034869131 0.11031482669194949
decision_type=2 2 2 2 2
left_child=1 2 3 -1 -5
right_child=-2 -3 -4 4 -6
leaf_value=-0.19321973180770877 -0.13951692837657351 -0.23026980050404866 -0.19968915128707884 -0.17615083018938701 -0.13803238606452942
leaf_weight=20 33 30 20 24 20
leaf_count=20 33 30 20 24 20
internal_value=-0.17931 -0.190829 -0.176743 -0.169573 -0.158824
internal_weight=147 114 84 64 44
internal_count=147 114 84 64 44
is_linear=0
shrinkage=0.01


Tree=50
num_leaves=6
num_cat=0
split_feature=1 2 6 10 3
split_gain=660.413 620.729 135.458 159.432 155.356
threshold=0.073503659078180461 0.10262545696244599 1.2558658767165203 0.16756233034869131 0.11031482669194949
decision_type=2 2 2 2 2
left_child=1 2 3 -1 -5
right_child=-2 -3 -4 4 -6
leaf_value=-0.19128753614425659 -0.13812175822980477 -0.22796710459391276 -0.19769225645065308 -0.17438931822776796 -0.13665205955505372
leaf_weight=20 33 30 20 24 20
leaf_count=20 33 30 20 24 20
internal_value=-0.177517 -0.188921 -0.174976 -0.167877 -0.157236
internal_weight=147 114 84 64 44
internal_count=147 114 84 64 44
is_linear=0
shrinkage=0.01


Tree=51
num_leaves=6
num_cat=0
split_feature=11 1 9 1 4
split_gain=659.247 412.231 425.928 411.58 211.627
threshold=25.740319659022123 0.056352065315011031 1.1728722876350279 0.073503659078180461 0.021299647967550104
decision_type=2 2 2 2 2
left_child=1 2 4 -3 -1
right_child=-2 3 -4 -5 -6
leaf_value=-0.17798016023635863 -0.13855624268452327 -0.24508617544174194 -0.2070584185227104 -0.18366288950045903 -0.13393571217854819
leaf_weight=20 36 20 23 24 24
leaf_count=20 36 20 23 24 24
internal_value=-0.175742 -0.187802 -0.172185 -0.211583 -0.153956
internal_weight=147 111 67 44 44
internal_count=147 111 67 44 44
is_linear=0
shrinkage=0.01


Tree=52
num_leaves=5
num_cat=0
split_feature=11 9 1 10
split_gain=647.124 340.861 470.849 175.98
threshold=23.523150097928102 1.1708974184395067 0.056352065315011031 0.17298158542648487
decision_type=2 2 2 2
left_child=1 2 3 -1
right_child=-2 -3 -4 -5
leaf_value=-0.17227341071419094 -0.13906929049736413 -0.21523870913187662 -0.20280799436569216 -0.13171445560455322
leaf_weight=23 39 30 35 20
leaf_count=23 39 30 35 20
internal_value=-0.173984 -0.186593 -0.175575 -0.153409
internal_weight=147 108 78 43
internal_count=147 108 78 43
is_linear=0
shrinkage=0.01


Tree=53
num_leaves=5
num_cat=0
split_feature=1 2 4 10
split_gain=650.243 607.164 134.96 166.663
threshold=0.073503659078180461 0.10262545696244599 0.029095626389918448 0.19643829926664261
decision_type=2 2 2 2
left_child=1 2 3 -1
right_child=-2 -3 -4 -5
leaf_value=-0.16581379100254606 -0.13315384745597839 -0.22217750072479248 -0.15231255613524339 -0.2020007507801056
leaf_weight=35 33 30 29 20
leaf_count=35 33 30 29 20
internal_value=-0.172245 -0.18356 -0.169769 -0.178973
internal_weight=147 114 84 55
internal_count=147 114 84 55
is_linear=0
shrinkage=0.01


Tree=54
num_leaves=5
num_cat=0
split_feature=1 2 5 0
split_gain=637.303 595.081 133.092 110.451
threshold=0.073503659078180461 0.10262545696244599 0.10105655190212284 2.6475974784967402
decision_type=2 2 2 2
left_child=1 2 3 -1
right_child=-2 -3 -4 -5
leaf_value=-0.19551778838748024 -0.13182230869928996 -0.21995572566986085 -0.15161230041134741 -0.16600316733121873
leaf_weight=21 33 30 31 32
leaf_count=21 33 30 31 32
internal_value=-0.170522 -0.181725 -0.168071 -0.177698
internal_weight=147 114 84 53
internal_count=147 114 84 53
is_linear=0
shrinkage=0.01


Tree=55
num_leaves=5
num_cat=0
split_feature=11 9 1 10
split_gain=636.41 329.73 470.613 173.545
threshold=23.523150097928102 1.1708974184395067 0.056352065315011031 0.17298158542648487
decision_type=2 2 2 2
left_child=1 2 3 -1
right_child=-2 -3 -4 -5
leaf_value=-0.16705708172010339 -0.13419200829970532 -0.20949479866027834 -0.19771023314339775 -0.12677965593338011
leaf_weight=23 39 30 35 20
leaf_count=23 39 30 35 20
internal_value=-0.168817 -0.18132 -0.170484 -0.148323
internal_weight=147 108 78 43
internal_count=147 108 78 43
is_linear=0
shrinkage=0.01


Tree=56
num_leaves=5
num_cat=0
split_feature=1 2 5 0
split_gain=628.983 582.852 132.243 106.856
threshold=0.073503659078180461 0.10262545696244599 0.10105655190212284 2.6475974784967402
decision_type=2 2 2 2
left_child=1 2 3 -1
right_child=-2 -3 -4 -5
leaf_value=-0.19186892373221262 -0.12868235804817893 -0.21609409125645956 -0.1483391600270425 -0.16283854693174363
leaf_weight=21 33 30 31 32
leaf_count=21 33 30 31 32
internal_value=-0.167129 -0.178258 -0.164745 -0.174341
internal_weight=147 114 84 53
internal_count=147 114 84 53
is_linear=0
shrinkage=0.01


Tree=57
num_leaves=5
num_cat=0
split_feature=11 9 1 10
split_gain=623.744 322.339 466.38 170.157
threshold=23.523150097928102 1.1708974184395067 0.056352065315011031 0.17298158542648487
decision_type=2 2 2 2
left_child=1 2 3 -1
right_child=-2 -3 -4 -5
leaf_value=-0.1636108282338018 -0.13117884195767915 -0.20569275792439778 -0.19422512027195524 -0.12372850894927979
leaf_weight=23 39 30 35 20
leaf_count=23 39 30 35 20
internal_value=-0.165458 -0.177836 -0.167122 -0.145061
internal_weight=147 108 78 43
internal_count=147 108 78 43
is_linear=0
shrinkage=0.01


Tree=58
num_leaves=5
num_cat=0
split_feature=1 2 4 10
split_gain=620.786 570.87 131.744 161.512
threshold=0.073503659078180461 0.10262545696244599 0.029095626389918448 0.19643829926664261
decision_type=2 2 2 2
left_child=1 2 3 -1
right_child=-2 -3 -4 -5
leaf_value=-0.15762598514556886 -0.12560785069610134 -0.21230455573399862 -0.14423937830431707 -0.19324931597709658
leaf_weight=35 33 30 29 20
leaf_count=35 33 30 29 20
internal_value=-0.163803 -0.174859 -0.161486 -0.17058
internal_weight=147 114 84 55
internal_count=147 114 84 55
is_linear=0
shrinkage=0.01


Tree=59
num_leaves=6
num_cat=0
split_feature=11 1 9 1 4
split_gain=613.599 403.343 386.597 376.715 204.787
threshold=25.740319659022123 0.056352065315011031 1.1728722876350279 0.073503659078180461 0.021299647967550104
decision_type=2 2 2 2 2
left_child=1 2 4 -3 -1
right_child=-2 3 -4 -5 -6
leaf_value=-0.16461799931526183 -0.12628975821865929 -0.22937592029571532 -0.19157656006191087 -0.17061182081699372 -0.12129120588302612
leaf_weight=20 36 20 23 24 24
leaf_count=20 36 20 23 24 24
internal_value=-0.162165 -0.1738 -0.158352 -0.197323 -0.140985
internal_weight=147 111 67 44 44
internal_count=147 111 67 44 44
is_linear=0
shrinkage=0.01


Tree=60
num_leaves=5
num_cat=0
split_feature=1 2 5 0
split_gain=607.261 558.77 132.237 101.858
threshold=0.073503659078180461 0.10262545696244599 0.10105655190212284 2.6475974784967402
decision_type=2 2 2 2
left_child=1 2 3 -1
right_child=-2 -3 -4 -5
leaf_value=-0.18495657103402274 -0.12276653528213501 -0.20852480538686116 -0.14184222021410542 -0.15661325812339782
leaf_weight=21 33 30 31 32
leaf_count=21 33 30 31 32
internal_value=-0.160543 -0.171479 -0.158248 -0.167844
internal_weight=147 114 84 53
internal_count=147 114 84 53
is_linear=0
shrinkage=0.01


Tree=61
num_leaves=5
num_cat=0
split_feature=11 5 1 4
split_gain=602.464 308.249 428.537 330.102
threshold=23.523150097928102 0.12444816255443657 0.056352065315011031 0.021299647967550104
decision_type=2 2 2 2
left_child=1 2 3 -1
right_child=-2 -3 -4 -5
leaf_value=-0.17256914710998536 -0.12524896028714302 -0.20358092784881593 -0.19271740436553955 -0.1233680198987325
leaf_weight=25 39 23 30 30
leaf_count=25 39 23 30 30
internal_value=-0.158938 -0.171103 -0.162315 -0.145732
internal_weight=147 108 85 55
internal_count=147 108 85 55
is_linear=0
shrinkage=0.01


Tree=62
num_leaves=5
num_cat=0
split_feature=1 2 5 0
split_gain=600.713 546.53 130.062 98.4863
threshold=0.073503659078180461 0.10262545696244599 0.10105655190212284 2.6475974784967402
decision_type=2 2 2 2
left_child=1 2 3 -1
right_child=-2 -3 -4 -5
leaf_value=-0.18148350806463334 -0.11977594686276985 -0.20486288205782571 -0.13886946608943324 -0.15361324042081834
leaf_weight=21 33 30 31 32
leaf_count=21 33 30 31 32
internal_value=-0.157348 -0.168225 -0.15514 -0.164656
internal_weight=147 114 84 53
internal_count=147 114 84 53
is_linear=0
shrinkage=0.01


Tree=63
num_leaves=5
num_cat=0
split_feature=11 9 1 10
split_gain=590.505 306.119 451.439 164.962
threshold=23.523150097928102 1.1708974184395067 0.056352065315011031 0.17298158542648487
decision_type=2 2 2 2
left_child=1 2 3 -1
right_child=-2 -3 -4 -5
leaf_value=-0.15393788814544679 -0.12242213622117655 -0.19496592752138775 -0.18404361234392438 -0.11466911840438844
leaf_weight=23 39 30 35 20
leaf_count=23 39 30 35 20
internal_value=-0.155775 -0.167819 -0.157378 -0.135673
internal_weight=147 108 78 43
internal_count=147 108 78 43
is_linear=0
shrinkage=0.01


Tree=64
num_leaves=5
num_cat=0
split_feature=1 2 5 0
split_gain=592.919 535.29 129.193 95.2586
threshold=0.073503659078180461 0.10262545696244599 0.10105655190212284 2.6475974784967402
decision_type=2 2 2 2
left_child=1 2 3 -1
right_child=-2 -3 -4 -5
leaf_value=-0.17810683704557875 -0.11688926191040963 -0.20128215003013611 -0.13585716616722845 -0.15069707140326499
leaf_weight=21 33 30 31 32
leaf_count=21 33 30 31 32
internal_value=-0.154217 -0.165023 -0.152073 -0.161558
internal_weight=147 114 84 53
internal_count=147 114 84 53
is_linear=0
shrinkage=0.01


Tree=65
num_leaves=6
num_cat=0
split_feature=1 2 6 10 3
split_gain=581.119 524.638 127.028 144.781 151.58
threshold=0.073503659078180461 0.10262545696244599 1.2558658767165203 0.16756233034869131 0.11031482669194949
decision_type=2 2 2 2 2
left_child=1 2 3 -1 -5
right_child=-2 -3 -4 4 -6
leaf_value=-0.16598657560348509 -0.11572036815412118 -0.19926932843526207 -0.17255026865005493 -0.15048091808954875 -0.11320509386062622
leaf_weight=20 33 30 20 24 20
leaf_count=20 33 30 20 24 20
internal_value=-0.152675 -0.163372 -0.150552 -0.143678 -0.133537
internal_weight=147 114 84 64 44
internal_count=147 114 84 64 44
is_linear=0
shrinkage=0.01


Tree=66
num_leaves=6
num_cat=0
split_feature=11 1 9 6 10
split_gain=579 305.281 426.856 294.312 160.293
threshold=23.523150097928102 0.056352065315011031 1.1728722876350279 0.75402479373760134 0.17298158542648487
decision_type=2 2 2 2 2
left_child=1 2 4 -3 -1
right_child=-2 3 -4 -5 -6
leaf_value=-0.14907410559446915 -0.11812198889561187 -0.20930582479997115 -0.18522657123478975 -0.15696783633459183 -0.11036505842208863
leaf_weight=23 39 22 22 21 20
leaf_count=23 39 22 22 21 20
internal_value=-0.151148 -0.163074 -0.1494 -0.183745 -0.13107
internal_weight=147 108 65 43 43
internal_count=147 108 65 43 43
is_linear=0
shrinkage=0.01


Tree=67
num_leaves=5
num_cat=0
split_feature=1 2 5 0
split_gain=574.003 512.803 127.093 92.8102
threshold=0.073503659078180461 0.10262545696244599 0.10105655190212284 2.6475974784967402
decision_type=2 2 2 2
left_child=1 2 3 -1
right_child=-2 -3 -4 -5
leaf_value=-0.17333617460160028 -0.11290910959243775 -0.19575818530718486 -0.13151020349994783 -0.14628095000982286
leaf_weight=21 33 30 31 32
leaf_count=21 33 30 31 32
internal_value=-0.149637 -0.160269 -0.147594 -0.157001
internal_weight=147 114 84 53
internal_count=147 114 84 53
is_linear=0
shrinkage=0.01


Tree=68
num_leaves=6
num_cat=0
split_feature=11 1 9 6 10
split_gain=567.517 303.247 418.982 287.324 157.133
threshold=23.523150097928102 0.056352065315011031 1.1728722876350279 0.75402479373760134 0.17298158542648487
decision_type=2 2 2 2 2
left_child=1 2 4 -3 -1
right_child=-2 3 -4 -5 -6
leaf_value=-0.14598450805829918 -0.1154432568183312 -0.2058048922365362 -0.18181351932612333 -0.15409197057996479 -0.10765896344184876
leaf_weight=23 39 22 22 21 20
leaf_count=23 39 22 22 21 20
internal_value=-0.14814 -0.159948 -0.146319 -0.18055 -0.128159
internal_weight=147 108 65 43 43
internal_count=147 108 65 43 43
is_linear=0
shrinkage=0.01


Tree=69
num_leaves=5
num_cat=0
split_feature=1 2 4 10
split_gain=566.988 501.228 126.325 157.044
threshold=0.073503659078180461 0.10262545696244599 0.029095626389918448 0.19643829926664261
decision_type=2 2 2 2
left_child=1 2 3 -1
right_child=-2 -3 -4 -5
leaf_value=-0.14082584176744734 -0.11015645742416381 -0.192312433163325 -0.1278061948973557 -0.17595298171043397
leaf_weight=35 33 30 29 20
leaf_count=35 33 30 29 20
internal_value=-0.146659 -0.157226 -0.144695 -0.153599
internal_weight=147 114 84 55
internal_count=147 114 84 55
is_linear=0
shrinkage=0.01


Tree=70
num_leaves=6
num_cat=0
split_feature=11 1 9 1 4
split_gain=558.436 392.683 353.205 330.711 194.593
threshold=25.740319659022123 0.056352065315011031 1.1728722876350279 0.073503659078180461 0.021299647967550104
decision_type=2 2 2 2 2
left_child=1 2 4 -3 -1
right_child=-2 3 -4 -5 -6
leaf_value=-0.14748700284957886 -0.11096785505612693 -0.20953439378738403 -0.17280701865320619 -0.15447514981031418 -0.10525230636199316
leaf_weight=20 36 20 23 24 24
leaf_count=20 36 20 23 24 24
internal_value=-0.145192 -0.156292 -0.14105 -0.179502 -0.12445
internal_weight=147 111 67 44 44
internal_count=147 111 67 44 44
is_linear=0
shrinkage=0.01


Tree=71
num_leaves=5
num_cat=0
split_feature=1 2 5 0
split_gain=554.911 490.59 126.98 88.5255
threshold=0.073503659078180461 0.10262545696244599 0.10105655190212284 2.6475974784967402
decision_type=2 2 2 2
left_child=1 2 3 -1
right_child=-2 -3 -4 -5
leaf_value=-0.16715340251014346 -0.10762879797906587 -0.18890644760926567 -0.12572034466651177 -0.1407300727069378
leaf_weight=21 33 30 31 32
leaf_count=21 33 30 31 32
internal_value=-0.143741 -0.154194 -0.141797 -0.1512
internal_weight=147 114 84 53
internal_count=147 114 84 53
is_linear=0
shrinkage=0.01


Tree=72
num_leaves=5
num_cat=0
split_feature=11 1 9 4
split_gain=548.205 298.905 359.33 264.608
threshold=23.523150097928102 0.060062397079652143 1.1728722876350279 0.021299647967550104
decision_type=2 2 2 2
left_child=1 2 3 -1
right_child=-2 -3 -4 -5
leaf_value=-0.15409252524375916 -0.11016706974078448 -0.17648718620601453 -0.17511668519540266 -0.10646832581077303
leaf_weight=20 39 38 22 28
leaf_count=20 39 38 22 28
internal_value=-0.142303 -0.153908 -0.14165 -0.126312
internal_weight=147 108 70 48
internal_count=147 108 70 48
is_linear=0
shrinkage=0.01


Tree=73
num_leaves=5
num_cat=0
split_feature=1 2 5 0
split_gain=548.777 480.793 124.769 85.3919
threshold=0.073503659078180461 0.10262545696244599 0.10105655190212284 2.6475974784967402
decision_type=2 2 2 2
left_child=1 2 3 -1
right_child=-2 -3 -4 -5
leaf_value=-0.16399230866205122 -0.10496851075779308 -0.1856396957238515 -0.12306697168657857 -0.13804086580872535
leaf_weight=21 33 30 31 32
leaf_count=21 33 30 31 32
internal_value=-0.14088 -0.151276 -0.139003 -0.148324
internal_weight=147 114 84 53
internal_count=147 114 84 53
is_linear=0
shrinkage=0.01


Tree=74
num_leaves=5
num_cat=0
split_feature=1 2 5 0
split_gain=537.856 471.225 122.286 83.6925
threshold=0.073503659078180461 0.10262545696244599 0.10105655190212284 2.6475974784967402
decision_type=2 2 2 2
left_child=1 2 3 -1
right_child=-2 -3 -4 -5
leaf_value=-0.16235238438560848 -0.10391882600206317 -0.18378329797585807 -0.12183630235733524 -0.13666045963764192
leaf_weight=21 33 30 31 32
leaf_count=21 33 30 31 32
internal_value=-0.139471 -0.149763 -0.137613 -0.14684
internal_weight=147 114 84 53
internal_count=147 114 84 53
is_linear=0
shrinkage=0.01


Tree=75
num_leaves=6
num_cat=0
split_feature=11 1 9 6 10
split_gain=537.429 301.796 395.104 275.618 151.626
threshold=23.523150097928102 0.056352065315011031 1.1728722876350279 0.75402479373760134 0.17298158542648487
decision_type=2 2 2 2 2
left_child=1 2 4 -3 -1
right_child=-2 3 -4 -5 -6
leaf_value=-0.13584594560706098 -0.10625795083168227 -0.19485461343418467 -0.1704387414997274 -0.14420606999170213 -0.098197964251041409
leaf_weight=23 39 22 22 21 20
leaf_count=23 39 22 22 21 20
internal_value=-0.138077 -0.149567 -0.13597 -0.170119 -0.118335
internal_weight=147 108 65 43 43
internal_count=147 108 65 43 43
is_linear=0
shrinkage=0.01


Tree=76
num_leaves=5
num_cat=0
split_feature=1 2 5 0
split_gain=531.414 460.548 121.441 81.0058
threshold=0.073503659078180461 0.10262545696244599 0.10105655190212284 2.6475974784967402
decision_type=2 2 2 2
left_child=1 2 3 -1
right_child=-2 -3 -4 -5
leaf_value=-0.15937057699475971 -0.10135689540342852 -0.180558389544487 -0.11919202643056069 -0.13409439578652382
leaf_weight=21 33 30 31 32
leaf_count=21 33 30 31 32
internal_value=-0.136696 -0.146926 -0.134914 -0.144109
internal_weight=147 114 84 53
internal_count=147 114 84 53
is_linear=0
shrinkage=0.01


Tree=77
num_leaves=6
num_cat=0
split_feature=11 1 9 6 10
split_gain=526.811 299.671 387.843 269.094 148.615
threshold=23.523150097928102 0.056352065315011031 1.1728722876350279 0.75402479373760134 0.17298158542648487
decision_type=2 2 2 2 2
left_child=1 2 4 -3 -1
right_child=-2 3 -4 -5 -6
leaf_value=-0.13302018994870393 -0.10382612130580805 -0.1916258023001931 -0.16730673389001324 -0.14158028897785005 -0.095747848212718964
leaf_weight=23 39 22 22 21 20
leaf_count=23 39 22 22 21 20
internal_value=-0.135329 -0.146705 -0.133156 -0.167185 -0.115684
internal_weight=147 108 65 43 43
internal_count=147 108 65 43 43
is_linear=0
shrinkage=0.01


Tree=78
num_leaves=5
num_cat=0
split_feature=1 2 4 10
split_gain=525.061 450.108 121.165 151.699
threshold=0.073503659078180461 0.10262545696244599 0.029095626389918448 0.19643829926664261
decision_type=2 2 2 2
left_child=1 2 3 -1
right_child=-2 -3 -4 -5
leaf_value=-0.12843584394454957 -0.0988485067540949 -0.17739340035120646 -0.11572930763507712 -0.16296007192134859
leaf_weight=35 33 30 29 20
leaf_count=35 33 30 29 20
internal_value=-0.133976 -0.144144 -0.132269 -0.14099
internal_weight=147 114 84 55
internal_count=147 114 84 55
is_linear=0
shrinkage=0.01


Tree=79
num_leaves=6
num_cat=0
split_feature=11 1 9 6 10
split_gain=518.118 297.602 377.66 262.587 146.471
threshold=23.523150097928102 0.056352065315011031 1.1728722876350279 0.75402479373760134 0.17298158542648487
decision_type=2 2 2 2 2
left_child=1 2 4 -3 -1
right_child=-2 3 -4 -5 -6
leaf_value=-0.13038515547047491 -0.10139405702933287 -0.18847038008949973 -0.16411498188972473 -0.13903364805948168 -0.093382658749818812
leaf_weight=23 39 22 22 21 20
leaf_count=23 39 22 22 21 20
internal_value=-0.132636 -0.143918 -0.130416 -0.164327 -0.113175
internal_weight=147 108 65 43 43
internal_count=147 108 65 43 43
is_linear=0
shrinkage=0.01


end of trees

feature_importances:
Column_1=84
Column_2=65
Column_10=65
Column_4=55
Column_6=21
Column_11=16
Column_9=13
Column_5=12
Column_0=10
Column_3=7
Column_7=2

parameters:
[boosting: gbdt]
[objective: regression]
[metric: l2]
[tree_learner: serial]
[device_type: cpu]
[data_sample_strategy: bagging]
[data: ]
[valid: ]
[num_iterations: 200]
[learning_rate: 0.01]
[num_leaves: 31]
[num_threads: -1]
[seed: 42]
[deterministic: 0]
[force_col_wise: 0]
[force_row_wise: 0]
[histogram_pool_size: -1]
[max_depth: -1]
[min_data_in_leaf: 20]
[min_sum_hessian_in_leaf: 0.001]
[bagging_fraction: 1]
[pos_bagging_fraction: 1]
[neg_bagging_fraction: 1]
[bagging_freq: 0]
[bagging_seed: 400]
[bagging_by_query: 0]
[feature_fraction: 1]
[feature_fraction_bynode: 1]
[feature_fraction_seed: 30056]
[extra_trees: 0]
[extra_seed: 12879]
[early_stopping_round: 0]
[early_stopping_min_delta: 0]
[first_metric_only: 0]
[max_delta_step: 0]
[lambda_l1: 0]
[lambda_l2: 0]
[linear_lambda: 0]
[min_gain_to_split: 0]
[drop_rate: 0.1]
[max_drop: 50]
[skip_drop: 0.5]
[xgboost_dart_mode: 0]
[uniform_drop: 0]
[drop_seed: 17869]
[top_rate: 0.2]
[other_rate: 0.1]
[min_data_per_group: 100]
[max_cat_threshold: 32]
[cat_l2: 10]
[cat_smooth: 10]
[max_cat_to_onehot: 4]
[top_k: 20]
[monotone_constraints: ]
[monotone_constraints_method: basic]
[monotone_penalty: 0]
[feature_contri: ]
[forcedsplits_filename: ]
[refit_decay_rate: 0.9]
[cegb_tradeoff: 1]
[cegb_penalty_split: 0]
[cegb_penalty_feature_lazy: ]
[cegb_penalty_feature_coupled: ]
[path_smooth: 0]
[interaction_constraints: ]
[verbosity: -1]
[saved_feature_importance_type: 0]
[use_quantized_grad: 0]
[num_grad_quant_bins: 4]
[quant_train_renew_leaf: 0]
[stochastic_rounding: 1]
[linear_tree: 0]
[max_bin: 255]
[max_bin_by_feature: ]
[min_data_in_bin: 3]
[bin_construct_sample_cnt: 200000]
[data_random_seed: 175]
[is_enable_sparse: 1]
[enable_bundle: 1]
[use_missing: 1]
[zero_as_missing: 0]
[feature_pre_filter: 1]
[pre_partition: 0]
[two_round: 0]
[header: 0]
[label_column: ]
[weight_column: ]
[group_column: ]
[ignore_column: ]
[categorical_feature: ]
[forcedbins_filename: ]
[precise_float_parser: 0]
[parser_config_file: ]
[objective_seed: 16083]
[num_class: 1]
[is_unbalance: 0]
[scale_pos_weight: 1]
[sigmoid: 1]
[boost_from_average: 1]
[reg_sqrt: 0]
[alpha: 0.9]
[fair_c: 1]
[poisson_max_delta_step: 0.7]
[tweedie_variance_power: 1.5]
[lambdarank_truncation_level: 30]
[lambdarank_norm: 1]
[label_gain: ]
[lambdarank_position_bias_regularization: 0]
[eval_at: ]
[multi_error_top_k: 1]
[auc_mu_weights: ]
[num_machines: 1]
[local_listen_port: 12400]
[time_out: 120]
[machine_list_filename: ]
[machines: ]
[gpu_platform_id: -1]
[gpu_device_id: -1]
[gpu_use_dp: 0]
[num_gpu: 1]

end of parameters

pandas_categorical:null
