tree
version=v4
num_class=1
num_tree_per_iteration=1
label_index=0
max_feature_idx=12
objective=regression
feature_names=Column_0 Column_1 Column_2 Column_3 Column_4 Column_5 Column_6 Column_7 Column_8 Column_9 Column_10 Column_11 Column_12
feature_infos=[0.42161121497984599:11.199961004023679] [0.030374413001009973:0.16333076682565068] [0.0310750113463856:0.25344038061254826] [0.023451660578344163:0.41791918797579547] [-0.0032431430689399687:0.21400111193476651] [0.011209640676320626:0.20213783546104597] [-1.2611195906640393:2.0262486084293068] [0.51935731948815178:12.890377617842089] [0.51824871410682471:12.86593794668951] [0.64622213246348803:1.474522608091636] [0.086309528942735358:1.2036817755521738] [0.31372281267256663:168.73781854444641] [-0.00098944264910961555:0.12818652360817284]
tree_sizes=919 560 560 562 560 561 562 561 563 562 564 560 563 563 563 560 563 563 562 561 483 564 561 483 558 483 562 562 484 482 560 482 483 564 563 478 562 481 479 480 561 480 480 477 480 562 479 480 484 480 478 481 477 561 480 479 478 483 478 483 561 480 480 477 483 475 483 478 561 562 478 561 476 563 475 564 478 565 479 564 481 565 480 563 562 478 564 479 565 480 564 478 565 482 564 476 567 567 479 566 478 566 483 568 482

Tree=0
num_leaves=11
num_cat=0
split_feature=11 4 7 5 11 1 1 3 7 10
split_gain=27.3746 12.1841 7.7419 4.71891 8.33216 5.864 5.02339 5.97585 3.44557 3.00247
threshold=0.0054899757134942969 0.015123741199014345 0.13940942493720973 0.20078743470662411 0.027256565827124411 0.13038772316649297 0.084518282411758336 0.091319333860710741 0.29156927152797457 0.10460553710240095
decision_type=2 2 2 2 2 2 2 2 2 2
left_child=-1 2 -2 5 -5 6 7 -3 9 -4
right_child=1 3 8 4 -6 -7 -8 -9 -10 -11
leaf_value=123.25 124 124 124.59999999999999 124.3 123.45 123.25 124.59999999999999 123.3 124.59999999999999 124.59999999999999
leaf_weight=26 29 25 27 30 22 22 31 22 20 20
leaf_count=26 29 25 27 30 22 22 31 22 20 20
internal_value=123.999 124.004 124.018 123.995 124.008 123.989 123.996 123.985 124.027 124.035
internal_weight=274 248 96 152 52 100 78 47 67 47
internal_count=274 248 96 152 52 100 78 47 67 47
is_linear=0
shrinkage=1


Tree=1
num_leaves=5
num_cat=0
split_feature=10 5 3 5
split_gain=2019.4 649.176 391.557 85.1406
threshold=0.18639209099479889 0.12899164628159362 0.10731533683158996 0.10349925092789308
decision_type=2 2 2 2
left_child=3 2 -2 -1
right_child=1 -3 -4 -5
leaf_value=-0.25199999650319416 -0.33333999404907227 -0.37324999523162844 -0.27679166237513225 -0.22442856743222192
leaf_weight=24 25 20 24 21
leaf_count=24 25 20 24 21
internal_value=-0.29125 -0.325239 -0.305643 -0.239133
internal_weight=114 69 49 45
internal_count=114 69 49 45
is_linear=0
shrinkage=0.01


Tree=2
num_leaves=5
num_cat=0
split_feature=10 5 3 5
split_gain=1979.21 636.257 383.765 83.4463
threshold=0.18639209099479889 0.12899164628159362 0.10731533683158996 0.10349925092789308
decision_type=2 2 2 2
left_child=3 2 -2 -1
right_child=1 -3 -4 -5
leaf_value=-0.24947999914487201 -0.33000659713745117 -0.369517502784729 -0.27402375062306722 -0.22218428293863934
leaf_weight=24 25 20 24 21
leaf_count=24 25 20 24 21
internal_value=-0.288337 -0.321987 -0.302586 -0.236742
internal_weight=114 69 49 45
internal_count=114 69 49 45
is_linear=0
shrinkage=0.01


Tree=3
num_leaves=5
num_cat=0
split_feature=10 5 3 5
split_gain=1939.82 623.595 376.128 81.7856
threshold=0.18639209099479889 0.12899164628159362 0.10731533683158996 0.10349925092789308
decision_type=2 2 2 2
left_child=3 2 -2 -1
right_child=1 -3 -4 -5
leaf_value=-0.24698519547780354 -0.32670653533935551 -0.36582232189178471 -0.27128350655237837 -0.21996244612194243
leaf_weight=24 25 20 24 21
leaf_count=24 25 20 24 21
internal_value=-0.285454 -0.318767 -0.299561 -0.234375
internal_weight=114 69 49 45
internal_count=114 69 49 45
is_linear=0
shrinkage=0.01


Tree=4
num_leaves=5
num_cat=0
split_feature=10 5 3 5
split_gain=1901.22 611.186 368.643 80.1581
threshold=0.18639209099479889 0.12899164628159362 0.10731533683158996 0.10349925092789308
decision_type=2 2 2 2
left_child=3 2 -2 -1
right_child=1 -3 -4 -5
leaf_value=-0.24451534628868105 -0.32343947296142583 -0.36216410160064699 -0.26857067902882892 -0.21776281856355212
leaf_weight=24 25 20 24 21
leaf_count=24 25 20 24 21
internal_value=-0.2826 -0.315579 -0.296565 -0.232031
internal_weight=114 69 49 45
internal_count=114 69 49 45
is_linear=0
shrinkage=0.01


Tree=5
num_leaves=5
num_cat=0
split_feature=10 5 3 5
split_gain=1863.39 599.023 361.307 78.563
threshold=0.18639209099479889 0.12899164628159362 0.10731533683158996 0.10349925092789308
decision_type=2 2 2 2
left_child=3 2 -2 -1
right_child=1 -3 -4 -5
leaf_value=-0.24207019964853924 -0.32020507354736333 -0.35854246520996091 -0.26588496764500935 -0.21558519545055571
leaf_weight=24 25 20 24 21
leaf_count=24 25 20 24 21
internal_value=-0.279774 -0.312423 -0.293599 -0.229711
internal_weight=114 69 49 45
internal_count=114 69 49 45
is_linear=0
shrinkage=0.01


Tree=6
num_leaves=5
num_cat=0
split_feature=10 5 3 5
split_gain=1826.31 587.103 354.117 76.9996
threshold=0.18639209099479889 0.12899164628159362 0.10731533683158996 0.10349925092789308
decision_type=2 2 2 2
left_child=3 2 -2 -1
right_child=1 -3 -4 -5
leaf_value=-0.23964949250221254 -0.31700302276611331 -0.35495703315734867 -0.26322612365086873 -0.21342934154328844
leaf_weight=24 25 20 24 21
leaf_count=24 25 20 24 21
internal_value=-0.276976 -0.309299 -0.290663 -0.227413
internal_weight=114 69 49 45
internal_count=114 69 49 45
is_linear=0
shrinkage=0.01


Tree=7
num_leaves=5
num_cat=0
split_feature=10 5 3 6
split_gain=1789.96 575.419 347.07 76.2767
threshold=0.18639209099479889 0.12899164628159362 0.10731533683158996 0.78248748002585089
decision_type=2 2 2 2
left_child=3 2 -2 -1
right_child=1 -3 -4 -5
leaf_value=-0.23845125631852582 -0.31383299713134766 -0.35140746212005619 -0.26059385935465496 -0.21240609749503758
leaf_weight=22 25 20 24 23
leaf_count=22 25 20 24 23
internal_value=-0.274206 -0.306206 -0.287757 -0.225139
internal_weight=114 69 49 45
internal_count=114 69 49 45
is_linear=0
shrinkage=0.01


Tree=8
num_leaves=5
num_cat=0
split_feature=10 6 12 5
split_gain=1754.34 567.63 80.5328 75.7019
threshold=0.18639209099479889 0.68176747133107829 0.015817395125204397 0.10349925092789308
decision_type=2 2 2 2
left_child=3 -2 -3 -1
right_child=1 2 -4 -5
leaf_value=-0.23502041618029279 -0.34650709061395552 -0.27322565759931289 -0.29949886512756346 -0.20902215140206473
leaf_weight=24 21 28 20 21
leaf_count=24 21 28 20 21
internal_value=-0.271464 -0.303144 -0.284173 -0.222888
internal_weight=114 69 48 45
internal_count=114 69 48 45
is_linear=0
shrinkage=0.01


Tree=9
num_leaves=5
num_cat=0
split_feature=10 5 3 6
split_gain=1719.43 560.484 340.816 74.9914
threshold=0.18639209099479889 0.12899164628159362 0.10731533683158996 0.78248748002585089
decision_type=2 2 2 2
left_child=3 2 -2 -1
right_child=1 -3 -4 -5
leaf_value=-0.23385834563862193 -0.30774449310302737 -0.34472350406646729 -0.25498719374338785 -0.20803356419438904
leaf_weight=22 25 20 24 23
leaf_count=22 25 20 24 23
internal_value=-0.268749 -0.300113 -0.281904 -0.220659
internal_weight=114 69 49 45
internal_count=114 69 49 45
is_linear=0
shrinkage=0.01


Tree=10
num_leaves=5
num_cat=0
split_feature=10 6 12 5
split_gain=1685.21 555.263 77.2137 74.426
threshold=0.18639209099479889 0.68176747133107829 0.015817395125204397 0.10349925092789308
decision_type=2 2 2 2
left_child=3 -2 -3 -1
right_child=1 2 -4 -5
leaf_value=-0.23048227270444233 -0.33999956040155321 -0.26762884821210586 -0.29335493755340575 -0.20470402354285833
leaf_weight=24 21 28 20 21
leaf_count=24 21 28 20 21
internal_value=-0.266062 -0.297112 -0.278348 -0.218452
internal_weight=114 69 48 45
internal_count=114 69 48 45
is_linear=0
shrinkage=0.01


Tree=11
num_leaves=5
num_cat=0
split_feature=10 5 3 6
split_gain=1651.68 545.949 334.672 73.7277
threshold=0.18639209099479889 0.12899164628159362 0.10731533683158996 0.78248748002585089
decision_type=2 2 2 2
left_child=3 2 -2 -1
right_child=1 -3 -4 -5
leaf_value=-0.2293555463444103 -0.30177591018676758 -0.33816900920867926 -0.24949635267257692 -0.20374927562216055
leaf_weight=22 25 20 24 23
leaf_count=22 25 20 24 23
internal_value=-0.263401 -0.29414 -0.27617 -0.216268
internal_weight=114 69 49 45
internal_count=114 69 49 45
is_linear=0
shrinkage=0.01


Tree=12
num_leaves=5
num_cat=0
split_feature=10 6 12 5
split_gain=1618.81 543.17 74.0193 73.1717
threshold=0.18639209099479889 0.68176747133107829 0.015817395125204397 0.10349925092789308
decision_type=2 2 2 2
left_child=3 -2 -3 -1
right_child=1 2 -4 -5
leaf_value=-0.22603326718012492 -0.33361742837088448 -0.2621458578109741 -0.28733416843414306 -0.20047317186991376
leaf_weight=24 21 28 20 21
leaf_count=24 21 28 20 21
internal_value=-0.260767 -0.291199 -0.272641 -0.214105
internal_weight=114 69 48 45
internal_count=114 69 48 45
is_linear=0
shrinkage=0.01


Tree=13
num_leaves=5
num_cat=0
split_feature=10 6 12 6
split_gain=1586.6 532.361 72.5463 72.4853
threshold=0.18639209099479889 0.68176747133107829 0.015817395125204397 0.78248748002585089
decision_type=2 2 2 2
left_child=3 -2 -3 -1
right_child=1 2 -4 -5
leaf_value=-0.22494107983329081 -0.33028125672113329 -0.25952439785003661 -0.28446082401275635 -0.19955146706622579
leaf_weight=22 21 28 20 23
leaf_count=22 21 28 20 23
internal_value=-0.25816 -0.288287 -0.269915 -0.211964
internal_weight=114 69 48 45
internal_count=114 69 48 45
is_linear=0
shrinkage=0.01


Tree=14
num_leaves=5
num_cat=0
split_feature=10 5 3 5
split_gain=1555.02 528.563 329.251 71.9385
threshold=0.18639209099479889 0.12899164628159362 0.10731533683158996 0.10349925092789308
decision_type=2 2 2 2
left_child=3 2 -2 -1
right_child=1 -3 -4 -5
leaf_value=-0.22167162855466205 -0.29311990203857424 -0.32872601413726804 -0.24126542886098226 -0.19632783935183573
leaf_weight=24 25 20 24 21
leaf_count=24 25 20 24 21
internal_value=-0.255578 -0.285404 -0.267722 -0.209845
internal_weight=114 69 49 45
internal_count=114 69 49 45
is_linear=0
shrinkage=0.01


Tree=15
num_leaves=5
num_cat=0
split_feature=10 6 0 5
split_gain=1524.08 520.764 71.3276 69.7049
threshold=0.18639209099479889 0.68176747133107829 3.3859094128893972 0.11181134917315243
decision_type=2 2 2 2
left_child=2 -2 -1 -3
right_child=1 3 -4 -5
leaf_value=-0.19596930185953779 -0.32408444994971869 -0.25329386711120605 -0.2212052549634661 -0.27747931653803048
leaf_weight=24 21 26 21 22
leaf_count=24 21 26 21 22
internal_value=-0.253022 -0.28255 -0.207746 -0.264379
internal_weight=114 69 45 48
internal_count=114 69 45 48
is_linear=0
shrinkage=0.01


Tree=16
num_leaves=5
num_cat=0
split_feature=10 5 3 6
split_gain=1493.75 514.771 323.185 71.2978
threshold=0.18639209099479889 0.12899164628159362 0.10731533683158996 0.78248748002585089
decision_type=2 2 2 2
left_child=3 2 -2 -1
right_child=1 -3 -4 -5
leaf_value=-0.21853879451751709 -0.28743749847412109 -0.32247754669189455 -0.23606297334035237 -0.19335802451423978
leaf_weight=22 25 20 24 23
leaf_count=22 25 20 24 23
internal_value=-0.250492 -0.279725 -0.262274 -0.205669
internal_weight=114 69 49 45
internal_count=114 69 49 45
is_linear=0
shrinkage=0.01


Tree=17
num_leaves=5
num_cat=0
split_feature=10 6 5 10
split_gain=1464.02 509.424 70.8783 67.1222
threshold=0.18639209099479889 0.68176747133107829 0.10349925092789308 0.24193593358769697
decision_type=2 2 2 2
left_child=2 -2 -1 -3
right_child=1 3 -4 -5
leaf_value=-0.2153515672683716 -0.31800699324834919 -0.26894926411764963 -0.19019521667843772 -0.24496316528320314
leaf_weight=24 21 28 21 20
leaf_count=24 21 28 21 20
internal_value=-0.247987 -0.276927 -0.203612 -0.258955
internal_weight=114 69 45 48
internal_count=114 69 45 48
is_linear=0
shrinkage=0.01


Tree=18
num_leaves=5
num_cat=0
split_feature=10 5 3 6
split_gain=1434.89 503.467 316.79 70.0965
threshold=0.18639209099479889 0.12899164628159362 0.10731533683158996 0.78248748002585089
decision_type=2 2 2 2
left_child=3 2 -2 -1
right_child=1 -3 -4 -5
leaf_value=-0.21433710705150258 -0.28181345291137694 -0.31643900299072264 -0.23094972372055053 -0.18936936544335406
leaf_weight=22 25 20 24 23
leaf_count=22 25 20 24 23
internal_value=-0.245507 -0.274158 -0.256901 -0.201576
internal_weight=114 69 49 45
internal_count=114 69 49 45
is_linear=0
shrinkage=0.01


Tree=19
num_leaves=5
num_cat=0
split_feature=10 6 0 12
split_gain=1406.33 498.332 70.126 65.879
threshold=0.18639209099479889 0.68176747133107829 3.3859094128893972 0.015817395125204397
decision_type=2 2 2 2
left_child=2 -2 -1 -3
right_child=1 3 -4 -5
leaf_value=-0.18788289785385132 -0.31204642886207218 -0.24373972620282852 -0.21290538152058919 -0.26750265693664554
leaf_weight=24 21 28 21 20
leaf_count=24 21 28 21 20
internal_value=-0.243052 -0.271417 -0.19956 -0.253641
internal_weight=114 69 45 48
internal_count=114 69 45 48
is_linear=0
shrinkage=0.01


Tree=20
num_leaves=4
num_cat=0
split_feature=10 2 5
split_gain=1378.35 490.675 69.8335
threshold=0.18639209099479889 0.096208742194469232 0.10349925092789308
decision_type=2 2 2
left_child=2 -2 -1
right_child=1 -3 -4
leaf_value=-0.20921723524729413 -0.2416461473352769 -0.29498554502214708 -0.18424699102129258
leaf_weight=24 34 35 21
leaf_count=24 34 35 21
internal_value=-0.240622 -0.268702 -0.197564
internal_weight=114 69 45
internal_count=114 69 45
is_linear=0
shrinkage=0.01


Tree=21
num_leaves=5
num_cat=0
split_feature=10 6 6 10
split_gain=1350.92 485.737 68.9488 66.4542
threshold=0.18639209099479889 0.68176747133107829 0.78248748002585089 0.24193593358769697
decision_type=2 2 2 2
left_child=2 -2 -1 -3
right_child=1 3 -4 -5
leaf_value=-0.20824519504200328 -0.30612850507100425 -0.25841018744877409 -0.18348270416259765 -0.23454372882843019
leaf_weight=22 21 28 23 20
leaf_count=22 21 28 23 20
internal_value=-0.238215 -0.266015 -0.195589 -0.248466
internal_weight=114 69 45 48
internal_count=114 69 45 48
is_linear=0
shrinkage=0.01


Tree=22
num_leaves=5
num_cat=0
split_feature=10 5 3 0
split_gain=1324.04 484.533 313.071 68.9118
threshold=0.18639209099479889 0.12899164628159362 0.10731533683158996 3.3859094128893972
decision_type=2 2 2 2
left_child=3 2 -2 -1
right_child=1 -3 -4 -5
leaf_value=-0.18205730001131695 -0.2711914779663086 -0.30483339500427248 -0.22062720855077106 -0.20686221122741699
leaf_weight=24 25 20 24 21
leaf_count=24 25 20 24 21
internal_value=-0.235833 -0.263355 -0.246425 -0.193633
internal_weight=114 69 49 45
internal_count=114 69 49 45
is_linear=0
shrinkage=0.01


Tree=23
num_leaves=4
num_cat=0
split_feature=10 5 5
split_gain=1297.69 476.449 68.8036
threshold=0.18639209099479889 0.10768453344836311 0.10349925092789308
decision_type=2 2 2
left_child=2 -2 -1
right_child=1 -3 -4
leaf_value=-0.20326313138008117 -0.23327570828524505 -0.28588040192921954 -0.17847769373939151
leaf_weight=24 33 36 21
leaf_count=24 33 36 21
internal_value=-0.233475 -0.260722 -0.191697
internal_weight=114 69 45
internal_count=114 69 45
is_linear=0
shrinkage=0.01


Tree=24
num_leaves=5
num_cat=0
split_feature=10 6 6 10
split_gain=1271.86 473.336 67.82 65.7777
threshold=0.18639209099479889 0.68176747133107829 0.78248748002585089 0.24193593358769697
decision_type=2 2 2 2
left_child=2 -2 -1 -3
right_child=1 3 -4 -5
leaf_value=-0.2023319790580056 -0.29771223749433245 -0.25068398339407788 -0.17777302659076191 -0.22693932437896727
leaf_weight=22 21 28 23 20
leaf_count=22 21 28 23 20
internal_value=-0.23114 -0.258114 -0.18978 -0.24079
internal_weight=114 69 45 48
internal_count=114 69 45 48
is_linear=0
shrinkage=0.01


Tree=25
num_leaves=4
num_cat=0
split_feature=10 2 0
split_gain=1246.55 470.472 67.7188
threshold=0.18639209099479889 0.096208742194469232 3.3859094128893972
decision_type=2 2 2
left_child=2 -2 -1
right_child=1 -3 -4
leaf_value=-0.17640684207280477 -0.22903991615071018 -0.28126967838832312 -0.20099610510326568
leaf_weight=24 34 35 21
leaf_count=24 34 35 21
internal_value=-0.228829 -0.255533 -0.187882
internal_weight=114 69 45
internal_count=114 69 45
is_linear=0
shrinkage=0.01


Tree=26
num_leaves=5
num_cat=0
split_feature=10 5 3 5
split_gain=1221.75 463.412 308.877 67.7886
threshold=0.18639209099479889 0.12899164628159362 0.10731533683158996 0.10349925092789308
decision_type=2 2 2 2
left_child=3 2 -2 -1
right_child=1 -3 -4 -5
leaf_value=-0.19748391787211103 -0.26102089004516599 -0.29354207515716552 -0.21079642732938131 -0.17288197835286456
leaf_weight=24 25 20 24 21
leaf_count=24 25 20 24 21
internal_value=-0.22654 -0.252978 -0.236421 -0.186003
internal_weight=114 69 49 45
internal_count=114 69 49 45
is_linear=0
shrinkage=0.01


Tree=27
num_leaves=5
num_cat=0
split_feature=10 6 6 10
split_gain=1197.43 460.49 66.7098 64.8149
threshold=0.18639209099479889 0.68176747133107829 0.78248748002585089 0.24193593358769697
decision_type=2 2 2 2
left_child=2 -2 -1 -3
right_child=1 3 -4 -5
leaf_value=-0.19659217574379662 -0.28950495810735793 -0.2431817470278059 -0.17223505849423618 -0.21961150455474854
leaf_weight=22 21 28 23 20
leaf_count=22 21 28 23 20
internal_value=-0.224275 -0.250448 -0.184143 -0.233361
internal_weight=114 69 45 48
internal_count=114 69 45 48
is_linear=0
shrinkage=0.01


Tree=28
num_leaves=4
num_cat=0
split_feature=10 2 5
split_gain=1173.61 456.272 66.6454
threshold=0.18639209099479889 0.096208742194469232 0.10349925092789308
decision_type=2 2 2
left_child=2 -2 -1
right_child=1 -3 -4
leaf_value=-0.19368523995081585 -0.22185320209054385 -0.27328871536254884 -0.16929162479582288
leaf_weight=24 34 35 21
leaf_count=24 34 35 21
internal_value=-0.222032 -0.247944 -0.182302
internal_weight=114 69 45
internal_count=114 69 45
is_linear=0
shrinkage=0.01


Tree=29
num_leaves=4
num_cat=0
split_feature=10 5 0
split_gain=1150.25 453.082 66.6894
threshold=0.18639209099479889 0.10768453344836311 3.3859094128893972
decision_type=2 2 2
left_child=2 -2 -1
right_child=1 -3 -4
leaf_value=-0.16909109671910602 -0.21869980234088321 -0.26999831305609812 -0.19349276088532946
leaf_weight=24 33 36 21
leaf_count=24 33 36 21
internal_value=-0.219812 -0.245464 -0.180479
internal_weight=114 69 45
internal_count=114 69 45
is_linear=0
shrinkage=0.01


Tree=30
num_leaves=5
num_cat=0
split_feature=10 6 6 10
split_gain=1127.36 447.115 65.6178 64.608
threshold=0.18639209099479889 0.68176747133107829 0.78248748002585089 0.24193593358769697
decision_type=2 2 2 2
left_child=2 -2 -1 -3
right_child=1 3 -4 -5
leaf_value=-0.1910206313566728 -0.28149499711536224 -0.23597748960767473 -0.16686369647150454 -0.2124448938369751
leaf_weight=22 21 28 23 20
leaf_count=22 21 28 23 20
internal_value=-0.217614 -0.24301 -0.178674 -0.226172
internal_weight=114 69 45 48
internal_count=114 69 45 48
is_linear=0
shrinkage=0.01


Tree=31
num_leaves=4
num_cat=0
split_feature=10 5 5
split_gain=1104.93 443.034 65.6633
threshold=0.18639209099479889 0.10768453344836311 0.10349925092789308
decision_type=2 2 2
left_child=2 -2 -1
right_child=1 -3 -4
leaf_value=-0.18818651398022967 -0.21411352533282657 -0.26483999146355525 -0.16397330329531717
leaf_weight=24 33 36 21
leaf_count=24 33 36 21
internal_value=-0.215438 -0.24058 -0.176887
internal_weight=114 69 45
internal_count=114 69 45
is_linear=0
shrinkage=0.01


Tree=32
num_leaves=4
num_cat=0
split_feature=10 2 0
split_gain=1082.94 439.215 65.5339
threshold=0.18639209099479889 0.096208742194469232 3.3859094128893972
decision_type=2 2 2
left_child=2 -2 -1
right_child=1 -3 -4
leaf_value=-0.16382978479067486 -0.21257556298199823 -0.26304048647199357 -0.18801912988935196
leaf_weight=24 34 35 21
leaf_count=24 34 35 21
internal_value=-0.213283 -0.238174 -0.175118
internal_weight=114 69 45
internal_count=114 69 45
is_linear=0
shrinkage=0.01


Tree=33
num_leaves=5
num_cat=0
split_feature=10 6 6 10
split_gain=1061.39 434.132 64.5438 64.3884
threshold=0.18639209099479889 0.68176747133107829 0.78248748002585089 0.24193593358769697
decision_type=2 2 2 2
left_child=2 -2 -1 -3
right_child=1 3 -4 -5
leaf_value=-0.18561238288879395 -0.27371451650347028 -0.22898942743028916 -0.16165395653766132 -0.20549686908721923
leaf_weight=22 21 28 23 20
leaf_count=22 21 28 23 20
internal_value=-0.211151 -0.235792 -0.173367 -0.219201
internal_weight=114 69 45 48
internal_count=114 69 45 48
is_linear=0
shrinkage=0.01


Tree=34
num_leaves=5
num_cat=0
split_feature=10 5 3 5
split_gain=1040.27 431.595 306.688 64.6953
threshold=0.18639209099479889 0.12899164628159362 0.10731533683158996 0.10349925092789308
decision_type=2 2 2 2
left_child=3 2 -2 -1
right_child=1 -3 -4 -5
leaf_value=-0.18284919261932372 -0.24196816864013673 -0.27258091306686405 -0.19192197084426879 -0.15881512096949987
leaf_weight=24 25 20 24 21
leaf_count=24 25 20 24 21
internal_value=-0.209039 -0.233434 -0.217456 -0.171633
internal_weight=114 69 49 45
internal_count=114 69 49 45
is_linear=0
shrinkage=0.01


Tree=35
num_leaves=4
num_cat=0
split_feature=10 2 0
split_gain=1019.56 426.019 64.3987
threshold=0.18639209099479889 0.096208742194469232 3.3859094128893972
decision_type=2 2 2
left_child=2 -2 -1
right_child=1 -3 -4
leaf_value=-0.158726806640625 -0.20588902810040643 -0.2555900949750628 -0.18270571436200822
leaf_weight=24 34 35 21
leaf_count=24 34 35 21
internal_value=-0.206949 -0.2311 -0.169917
internal_weight=114 69 45
internal_count=114 69 45
is_linear=0
shrinkage=0.01


Tree=36
num_leaves=5
num_cat=0
split_feature=10 6 5 10
split_gain=999.275 422.37 63.5449 63.4218
threshold=0.18639209099479889 0.68176747133107829 0.10349925092789308 0.24193593358769697
decision_type=2 2 2 2
left_child=2 -2 -1 -3
right_child=1 3 -4 -5
leaf_value=-0.17933352271715802 -0.2661939943404425 -0.22213872603007725 -0.15551409903026764 -0.19882317066192629
leaf_weight=24 21 28 21 20
leaf_count=24 21 28 21 20
internal_value=-0.204879 -0.228789 -0.168218 -0.212424
internal_weight=114 69 45 48
internal_count=114 69 45 48
is_linear=0
shrinkage=0.01


Tree=37
num_leaves=4
num_cat=0
split_feature=10 5 6
split_gain=979.39 421.348 63.6839
threshold=0.18639209099479889 0.10768453344836311 0.78248748002585089
decision_type=2 2 2
left_child=2 -2 -1
right_child=1 -3 -4
leaf_value=-0.17869918779893354 -0.20069069515575064 -0.25016011503007674 -0.15490089126255202
leaf_weight=22 33 36 23
leaf_count=22 33 36 23
internal_value=-0.20283 -0.226501 -0.166536
internal_weight=114 69 45
internal_count=114 69 45
is_linear=0
shrinkage=0.01


Tree=38
num_leaves=4
num_cat=0
split_feature=9 6 10
split_gain=963.537 411.538 201.946
threshold=1.150414937883302 0.7146225885901738 0.18639209099479889
decision_type=2 2 2
left_child=2 -2 -1
right_child=1 -3 -4
leaf_value=-0.15789092579403438 -0.26642166566848757 -0.21011928145949907 -0.19733110523223879
leaf_weight=37 20 37 20
leaf_count=37 20 37 20
internal_value=-0.200802 -0.229875 -0.17173
internal_weight=114 57 57
internal_count=114 57 57
is_linear=0
shrinkage=0.01


Tree=39
num_leaves=4
num_cat=0
split_feature=9 6 10
split_gain=944.362 403.349 198.658
threshold=1.150414937883302 0.7146225885901738 0.17456309650183069
decision_type=2 2 2
left_child=2 -2 -1
right_child=1 -3 -4
leaf_value=-0.15166822680111591 -0.26375744771957399 -0.20801808769638475 -0.18901150124413627
leaf_weight=29 20 37 28
leaf_count=29 20 37 28
internal_value=-0.198794 -0.227576 -0.170012
internal_weight=114 57 57
internal_count=114 57 57
is_linear=0
shrinkage=0.01


Tree=40
num_leaves=5
num_cat=0
split_feature=10 5 3 0
split_gain=929.884 411.55 299.956 63.3111
threshold=0.18639209099479889 0.12899164628159362 0.10731533683158996 3.3859094128893972
decision_type=2 2 2 2
left_child=3 2 -2 -1
right_child=1 -3 -4 -5
leaf_value=-0.15034528752168019 -0.22850960235595705 -0.25809752750396731 -0.17901575764020283 -0.17412086350577219
leaf_weight=24 25 20 24 21
leaf_count=24 25 20 24 21
internal_value=-0.196806 -0.219871 -0.204268 -0.161441
internal_weight=114 69 49 45
internal_count=114 69 49 45
is_linear=0
shrinkage=0.01


Tree=41
num_leaves=4
num_cat=0
split_feature=9 6 10
split_gain=914.228 394.741 190.803
threshold=1.150414937883302 0.7146225885901738 0.17456309650183069
decision_type=2 2 2
left_child=2 -2 -1
right_child=1 -3 -4
leaf_value=-0.14854151018734638 -0.25895036268234256 -0.20380895846598857 -0.18513901335852487
leaf_weight=29 20 37 28
leaf_count=29 20 37 28
internal_value=-0.194838 -0.223157 -0.166519
internal_weight=114 57 57
internal_count=114 57 57
is_linear=0
shrinkage=0.01


Tree=42
num_leaves=4
num_cat=0
split_feature=10 5 0
split_gain=897.744 404.83 62.0398
threshold=0.18639209099479889 0.10768453344836311 3.3859094128893972
decision_type=2 2 2
left_child=2 -2 -1
right_child=1 -3 -4
leaf_value=-0.14715735991795859 -0.19025286067615857 -0.23874292797512478 -0.17069300061180478
leaf_weight=24 33 36 21
leaf_count=24 33 36 21
internal_value=-0.19289 -0.215552 -0.158141
internal_weight=114 69 45
internal_count=114 69 45
is_linear=0
shrinkage=0.01


Tree=43
num_leaves=4
num_cat=0
split_feature=9 6 10
split_gain=886.959 385.901 182.629
threshold=1.150414937883302 0.7146225885901738 0.17456309650183069
decision_type=2 2 2
left_child=2 -2 -1
right_child=1 -3 -4
leaf_value=-0.145479018441562 -0.2542445073127747 -0.19972401760719918 -0.18128410543714249
leaf_weight=29 20 37 28
leaf_count=29 20 37 28
internal_value=-0.190961 -0.218854 -0.163067
internal_weight=114 57 57
internal_count=114 57 57
is_linear=0
shrinkage=0.01


Tree=44
num_leaves=4
num_cat=0
split_feature=9 6 10
split_gain=869.309 378.222 178.995
threshold=1.150414937883302 0.7146225885901738 0.17456309650183069
decision_type=2 2 2
left_child=2 -2 -1
right_child=1 -3 -4
leaf_value=-0.14402422707656334 -0.25170206689834596 -0.19772677743757094 -0.17947126456669399
leaf_weight=29 20 37 28
leaf_count=29 20 37 28
internal_value=-0.189051 -0.216665 -0.161437
internal_weight=114 57 57
internal_count=114 57 57
is_linear=0
shrinkage=0.01


Tree=45
num_leaves=5
num_cat=0
split_feature=10 5 3 0
split_gain=853.773 396.694 290.146 60.7847
threshold=0.18639209099479889 0.12899164628159362 0.10731533683158996 3.3859094128893972
decision_type=2 2 2 2
left_child=3 2 -2 -1
right_child=1 -3 -4 -5
leaf_value=-0.14240167458852132 -0.21778460960388185 -0.24679170942306519 -0.16910680015881854 -0.16569804191589355
leaf_weight=24 25 20 24 21
leaf_count=24 25 20 24 21
internal_value=-0.187161 -0.209261 -0.193942 -0.153273
internal_weight=114 69 49 45
internal_count=114 69 49 45
is_linear=0
shrinkage=0.01


Tree=46
num_leaves=4
num_cat=0
split_feature=9 6 10
split_gain=841.541 370.14 171.896
threshold=1.150414937883302 0.7146225885901738 0.17456309650183069
decision_type=2 2 2
left_child=2 -2 -1
right_child=1 -3 -4
leaf_value=-0.14105553577686178 -0.24711895895004271 -0.19372348682300466 -0.17579249603407726
leaf_weight=29 20 37 28
leaf_count=29 20 37 28
internal_value=-0.185289 -0.212459 -0.158119
internal_weight=114 57 57
internal_count=114 57 57
is_linear=0
shrinkage=0.01


Tree=47
num_leaves=4
num_cat=0
split_feature=9 5 10
split_gain=824.794 367.736 168.644
threshold=1.150414937883302 0.1171871507119334 0.18639209099479889
decision_type=2 2 2
left_child=2 -2 -1
right_child=1 -3 -4
leaf_value=-0.14389183817683038 -0.19165982787673538 -0.24488165283203125 -0.17993372011184694
leaf_weight=37 37 20 20
leaf_count=37 37 20 20
internal_value=-0.183436 -0.210334 -0.156538
internal_weight=114 57 57
internal_count=114 57 57
is_linear=0
shrinkage=0.01


Tree=48
num_leaves=4
num_cat=0
split_feature=10 2 6
split_gain=808.989 387.401 59.9219
threshold=0.18639209099479889 0.096208742194469232 0.78248748002585089
decision_type=2 2 2
left_child=2 -2 -1
right_child=1 -3 -4
leaf_value=-0.16041403705423529 -0.17907385713913862 -0.22646876607622421 -0.13732935967652693
leaf_weight=22 34 35 23
leaf_count=22 34 35 23
internal_value=-0.181602 -0.203115 -0.148615
internal_weight=114 69 45
internal_count=114 69 45
is_linear=0
shrinkage=0.01


Tree=49
num_leaves=4
num_cat=0
split_feature=9 6 10
split_gain=799.388 359.419 162.364
threshold=1.150414937883302 0.7146225885901738 0.17456309650183069
decision_type=2 2 2
left_child=2 -2 -1
right_child=1 -3 -4
leaf_value=-0.13672132393409467 -0.24042085695266724 -0.18780433551685233 -0.17048142211777823
leaf_weight=29 20 37 28
leaf_count=29 20 37 28
internal_value=-0.179786 -0.206266 -0.153305
internal_weight=114 57 57
internal_count=114 57 57
is_linear=0
shrinkage=0.01


Tree=50
num_leaves=4
num_cat=0
split_feature=9 5 0
split_gain=783.481 355.011 161.816
threshold=1.150414937883302 0.1171871507119334 3.4355334199925229
decision_type=2 2 2
left_child=2 -2 -1
right_child=1 -3 -4
leaf_value=-0.13791426251916325 -0.18585522780547273 -0.23814812231063845 -0.17225779906563138
leaf_weight=34 37 20 23
leaf_count=34 37 20 23
internal_value=-0.177988 -0.204204 -0.151772
internal_weight=114 57 57
internal_count=114 57 57
is_linear=0
shrinkage=0.01


Tree=51
num_leaves=4
num_cat=0
split_feature=10 5 0
split_gain=771.758 375.861 58.1266
threshold=0.18639209099479889 0.10768453344836311 3.3859094128893972
decision_type=2 2 2
left_child=2 -2 -1
right_child=1 -3 -4
leaf_value=-0.13335817317167917 -0.17284296555952594 -0.21956586122512817 -0.15613946801140194
leaf_weight=24 33 36 21
leaf_count=24 33 36 21
internal_value=-0.176208 -0.19722 -0.143989
internal_weight=114 69 45
internal_count=114 69 45
is_linear=0
shrinkage=0.01


Tree=52
num_leaves=4
num_cat=0
split_feature=9 6 0
split_gain=760.107 350.28 157.292
threshold=1.150414937883302 0.7146225885901738 3.4355334199925229
decision_type=2 2 2
left_child=2 -2 -1
right_child=1 -3 -4
leaf_value=-0.13496141419691199 -0.23398520755767824 -0.18204194726170719 -0.16882142066955566
leaf_weight=34 20 37 23
leaf_count=34 20 37 23
internal_value=-0.174446 -0.200268 -0.148624
internal_weight=114 57 57
internal_count=114 57 57
is_linear=0
shrinkage=0.01


Tree=53
num_leaves=5
num_cat=0
split_feature=10 5 3 5
split_gain=749.013 368.563 280.79 57.6584
threshold=0.18639209099479889 0.12899164628159362 0.10731533683158996 0.10349925092789308
decision_type=2 2 2 2
left_child=3 2 -2 -1
right_child=1 -3 -4 -5
leaf_value=-0.15154958367347718 -0.20209075584411623 -0.22957711982727053 -0.15420426328976949 -0.1288602265857515
leaf_weight=24 25 20 24 21
leaf_count=24 25 20 24 21
internal_value=-0.172701 -0.193402 -0.178636 -0.140961
internal_weight=114 69 49 45
internal_count=114 69 49 45
is_linear=0
shrinkage=0.01


Tree=54
num_leaves=4
num_cat=0
split_feature=9 2 0
split_gain=735.402 342.802 153.952
threshold=1.150414937883302 0.096208742194469232 3.4355334199925229
decision_type=2 2 2
left_child=2 -2 -1
right_child=1 -3 -4
leaf_value=-0.13205888439627256 -0.17052294342606156 -0.21963818550109865 -0.16555746513864267
leaf_weight=34 27 30 23
leaf_count=34 27 30 23
internal_value=-0.170974 -0.196373 -0.145576
internal_weight=114 57 57
internal_count=114 57 57
is_linear=0
shrinkage=0.01


Tree=55
num_leaves=4
num_cat=0
split_feature=10 5 6
split_gain=726.743 360.556 57.7863
threshold=0.18639209099479889 0.10768453344836311 0.78248748002585089
decision_type=2 2 2
left_child=2 -2 -1
right_child=1 -3 -4
leaf_value=-0.1495865472880277 -0.16577912677418102 -0.21154090113110013 -0.12691696664561397
leaf_weight=22 33 36 23
leaf_count=22 33 36 23
internal_value=-0.169265 -0.189655 -0.138
internal_weight=114 69 45
internal_count=114 69 45
is_linear=0
shrinkage=0.01


Tree=56
num_leaves=4
num_cat=0
split_feature=9 6 0
split_gain=713.492 340.137 150.732
threshold=1.150414937883302 0.7146225885901738 3.4355334199925229
decision_type=2 2 2
left_child=2 -2 -1
right_child=1 -3 -4
leaf_value=-0.12917977319044227 -0.22581524944305423 -0.17462959122013402 -0.16232625567394757
leaf_weight=34 20 37 23
leaf_count=34 20 37 23
internal_value=-0.167572 -0.192589 -0.142555
internal_weight=114 57 57
internal_count=114 57 57
is_linear=0
shrinkage=0.01


Tree=57
num_leaves=4
num_cat=0
split_feature=10 2 6
split_gain=705.341 353.941 56.092
threshold=0.18639209099479889 0.096208742194469232 0.78248748002585089
decision_type=2 2 2
left_child=2 -2 -1
right_child=1 -3 -4
leaf_value=-0.14651084618134932 -0.16300475372987636 -0.20830668149675644 -0.12417607514754586
leaf_weight=22 34 35 23
leaf_count=22 34 35 23
internal_value=-0.165896 -0.185984 -0.135095
internal_weight=114 69 45
internal_count=114 69 45
is_linear=0
shrinkage=0.01


Tree=58
num_leaves=4
num_cat=0
split_feature=9 6 0
split_gain=691.472 331.306 147.374
threshold=1.150414937883302 0.7146225885901738 3.6239374173242127
decision_type=2 2 2
left_child=2 -2 -1
right_child=1 -3 -4
leaf_value=-0.12686080074310302 -0.22165732717514039 -0.17114051767297692 -0.15989038575779307
leaf_weight=35 20 37 22
leaf_count=35 20 37 22
internal_value=-0.164237 -0.188866 -0.139609
internal_weight=114 57 57
internal_count=114 57 57
is_linear=0
shrinkage=0.01


Tree=59
num_leaves=4
num_cat=0
split_feature=10 5 5
split_gain=684.794 348.574 55.5118
threshold=0.18639209099479889 0.10768453344836311 0.10349925092789308
decision_type=2 2 2
left_child=2 -2 -1
right_child=1 -3 -4
leaf_value=-0.14263530035813651 -0.15891228820338396 -0.20390723625818891 -0.12037230128333683
leaf_weight=24 33 36 21
leaf_count=24 33 36 21
internal_value=-0.162595 -0.182388 -0.132246
internal_weight=114 69 45
internal_count=114 69 45
is_linear=0
shrinkage=0.01


Tree=60
num_leaves=5
num_cat=0
split_feature=10 5 3 6
split_gain=671.167 343.484 273.811 54.615
threshold=0.18639209099479889 0.12899164628159362 0.10731533683158996 0.78248748002585089
decision_type=2 2 2 2
left_child=3 2 -2 -1
right_child=1 -3 -4 -5
leaf_value=-0.14218769593672317 -0.18947104339599607 -0.21548705196380616 -0.14218338330586752 -0.12014893759851872
leaf_weight=22 25 20 24 23
leaf_count=22 25 20 24 23
internal_value=-0.160969 -0.180564 -0.16631 -0.130923
internal_weight=114 69 49 45
internal_count=114 69 49 45
is_linear=0
shrinkage=0.01


Tree=61
num_leaves=4
num_cat=0
split_feature=9 2 0
split_gain=662.191 322.986 144.163
threshold=1.150414937883302 0.096208742194469232 3.4355334199925229
decision_type=2 2 2
left_child=2 -2 -1
right_child=1 -3 -4
leaf_value=-0.12217793296365177 -0.15836872930879947 -0.20604329554239909 -0.15459409236907959
leaf_weight=34 27 30 23
leaf_count=34 27 30 23
internal_value=-0.159359 -0.183461 -0.135258
internal_weight=114 57 57
internal_count=114 57 57
is_linear=0
shrinkage=0.01


Tree=62
num_leaves=4
num_cat=0
split_feature=10 5 5
split_gain=651.2 335.453 53.9837
threshold=0.18639209099479889 0.10768453344836311 0.10349925092789308
decision_type=2 2 2
left_child=2 -2 -1
right_child=1 -3 -4
leaf_value=-0.13841586252053581 -0.15403752182469224 -0.19817750109566581 -0.11646141642615909
leaf_weight=24 33 36 21
leaf_count=24 33 36 21
internal_value=-0.157766 -0.177067 -0.12817
internal_weight=114 69 45
internal_count=114 69 45
is_linear=0
shrinkage=0.01


Tree=63
num_leaves=4
num_cat=0
split_feature=9 6 0
split_gain=642.14 320.819 141.409
threshold=1.150414937883302 0.7146225885901738 3.6239374173242127
decision_type=2 2 2
left_child=2 -2 -1
right_child=1 -3 -4
leaf_value=-0.11996698188781739 -0.21219014024734498 -0.16247923496607189 -0.15232122442939067
leaf_weight=35 20 37 22
leaf_count=35 20 37 22
internal_value=-0.156188 -0.179922 -0.132455
internal_weight=114 57 57
internal_count=114 57 57
is_linear=0
shrinkage=0.01


Tree=64
num_leaves=4
num_cat=0
split_feature=10 2 6
split_gain=632.223 328.41 53.1975
threshold=0.18639209099479889 0.096208742194469232 0.78248748002585089
decision_type=2 2 2
left_child=2 -2 -1
right_child=1 -3 -4
leaf_value=-0.13658244013786316 -0.15150928595486809 -0.19514674050467357 -0.11483156421910161
leaf_weight=22 34 35 23
leaf_count=22 34 35 23
internal_value=-0.154626 -0.173644 -0.125465
internal_weight=114 69 45
internal_count=114 69 45
is_linear=0
shrinkage=0.01


Tree=65
num_leaves=4
num_cat=0
split_feature=9 6 0
split_gain=622.328 312.5 138.287
threshold=1.150414937883302 0.7146225885901738 3.6239374173242127
decision_type=2 2 2
left_child=2 -2 -1
right_child=1 -3 -4
leaf_value=-0.11736648341587612 -0.20829189109802249 -0.15922971229295474 -0.14936150735074824
leaf_weight=35 20 37 22
leaf_count=35 20 37 22
internal_value=-0.15308 -0.176445 -0.129715
internal_weight=114 57 57
internal_count=114 57 57
is_linear=0
shrinkage=0.01


Tree=66
num_leaves=4
num_cat=0
split_feature=10 5 5
split_gain=613.807 324.131 52.4162
threshold=0.18639209099479889 0.10768453344836311 0.10349925092789308
decision_type=2 2 2
left_child=2 -2 -1
right_child=1 -3 -4
leaf_value=-0.13291167815526328 -0.14765053228898484 -0.19103926128811308 -0.11127832889556885
leaf_weight=24 33 36 21
leaf_count=24 33 36 21
internal_value=-0.151549 -0.170288 -0.122816
internal_weight=114 69 45
internal_count=114 69 45
is_linear=0
shrinkage=0.01


Tree=67
num_leaves=4
num_cat=0
split_feature=9 6 0
split_gain=603.472 305.433 135.579
threshold=1.150414937883302 0.7146225885901738 3.6239374173242127
decision_type=2 2 2
left_child=2 -2 -1
right_child=1 -3 -4
leaf_value=-0.11479835673740932 -0.20452675342559815 -0.15602250215169547 -0.14647863431410355
leaf_weight=35 20 37 22
leaf_count=35 20 37 22
internal_value=-0.150034 -0.173042 -0.127026
internal_weight=114 57 57
internal_count=114 57 57
is_linear=0
shrinkage=0.01


Tree=68
num_leaves=5
num_cat=0
split_feature=10 5 3 6
split_gain=595.934 318.908 265.441 51.3047
threshold=0.18639209099479889 0.12899164628159362 0.10731533683158996 0.78248748002585089
decision_type=2 2 2 2
left_child=3 2 -2 -1
right_child=1 -3 -4 -5
leaf_value=-0.13113924676721747 -0.1760671298980713 -0.2006479444503784 -0.12950783073902131 -0.10977884023085885
leaf_weight=22 25 20 24 23
leaf_count=22 25 20 24 23
internal_value=-0.148533 -0.166997 -0.153263 -0.120222
internal_weight=114 69 49 45
internal_count=114 69 49 45
is_linear=0
shrinkage=0.01


Tree=69
num_leaves=5
num_cat=0
split_feature=10 5 6 5
split_gain=584.075 313.339 360.974 51.215
threshold=0.18639209099479889 0.092873711444367471 0.83862526655817271 0.10349925092789308
decision_type=2 2 2 2
left_child=3 -2 -3 -1
right_child=1 2 -4 -5
leaf_value=-0.12899870435396829 -0.13418020660226995 -0.21210705900192259 -0.1560552215576172 -0.10761466911860876
leaf_weight=24 22 20 27 21
leaf_count=24 22 20 27 21
internal_value=-0.147048 -0.165327 -0.179907 -0.119019
internal_weight=114 69 47 45
internal_count=114 69 47 45
is_linear=0
shrinkage=0.01


Tree=70
num_leaves=4
num_cat=0
split_feature=9 2 0
split_gain=577.712 299.84 132.449
threshold=1.150414937883302 0.096208742194469232 3.6239374173242127
decision_type=2 2 2
left_child=2 -2 -1
right_child=1 -3 -4
leaf_value=-0.1109805953843253 -0.14391290505727133 -0.18984744644165041 -0.14229301701892508
leaf_weight=35 27 30 22
leaf_count=35 27 30 22
internal_value=-0.145578 -0.168089 -0.123066
internal_weight=114 57 57
internal_count=114 57 57
is_linear=0
shrinkage=0.01


Tree=71
num_leaves=5
num_cat=0
split_feature=10 5 3 6
split_gain=566.885 306.641 259.227 50.4579
threshold=0.18639209099479889 0.12899164628159362 0.10731533683158996 0.78248748002585089
decision_type=2 2 2 2
left_child=3 2 -2 -1
right_child=1 -3 -4 -5
leaf_value=-0.12733584750782359 -0.17119815292358401 -0.1951271469593048 -0.12518703321615854 -0.10615244855051456
leaf_weight=22 25 20 24 23
leaf_count=22 25 20 24 23
internal_value=-0.144122 -0.16213 -0.148662 -0.116509
internal_weight=114 69 49 45
internal_count=114 69 49 45
is_linear=0
shrinkage=0.01


Tree=72
num_leaves=4
num_cat=0
split_feature=9 2 0
split_gain=559.119 293 129.549
threshold=1.150414937883302 0.096208742194469232 3.4355334199925229
decision_type=2 2 2
left_child=2 -2 -1
right_child=1 -3 -4
leaf_value=-0.10813479746089262 -0.14092800493593571 -0.18633566061655682 -0.13886403311853823
leaf_weight=34 27 30 23
leaf_count=34 27 30 23
internal_value=-0.142681 -0.164827 -0.120534
internal_weight=114 57 57
internal_count=114 57 57
is_linear=0
shrinkage=0.01


Tree=73
num_leaves=5
num_cat=0
split_feature=10 5 6 6
split_gain=550.027 302.845 347.809 49.4718
threshold=0.18639209099479889 0.092873711444367471 0.83862526655817271 0.78248748002585089
decision_type=2 2 2 2
left_child=3 -2 -3 -1
right_child=1 2 -4 -5
leaf_value=-0.12477516661990773 -0.12837116674943405 -0.2049331364631653 -0.14991290869536225 -0.10379979309828385
leaf_weight=22 22 20 27 23
leaf_count=22 22 20 27 23
internal_value=-0.141254 -0.158992 -0.173326 -0.114054
internal_weight=114 69 47 45
internal_count=114 69 47 45
is_linear=0
shrinkage=0.01


Tree=74
num_leaves=4
num_cat=0
split_feature=9 6 0
split_gain=542.341 284.813 126.762
threshold=1.150414937883302 0.7146225885901738 3.6239374173242127
decision_type=2 2 2
left_child=2 -2 -1
right_child=1 -3 -4
leaf_value=-0.106206613608769 -0.19205642127990721 -0.14521812226321248 -0.13683938080614264
leaf_weight=35 20 37 22
leaf_count=35 20 37 22
internal_value=-0.139841 -0.161653 -0.11803
internal_weight=114 57 57
internal_count=114 57 57
is_linear=0
shrinkage=0.01


Tree=75
num_leaves=5
num_cat=0
split_feature=10 5 6 5
split_gain=534.015 296.385 335.744 49.1501
threshold=0.18639209099479889 0.092873711444367471 0.83862526655817271 0.10349925092789308
decision_type=2 2 2 2
left_child=3 -2 -3 -1
right_child=1 2 -4 -5
leaf_value=-0.12141828755537669 -0.12562841350382026 -0.20115533542633057 -0.14709784631375913 -0.10046977304276966
leaf_weight=24 22 20 27 21
leaf_count=24 22 20 27 21
internal_value=-0.138443 -0.155921 -0.170101 -0.111642
internal_weight=114 69 47 45
internal_count=114 69 47 45
is_linear=0
shrinkage=0.01


Tree=76
num_leaves=4
num_cat=0
split_feature=9 2 0
split_gain=525.774 280.67 124.17
threshold=1.150414937883302 0.096208742194469232 3.6239374173242127
decision_type=2 2 2
left_child=2 -2 -1
right_child=1 -3 -4
leaf_value=-0.10388099697657995 -0.13514353849269728 -0.17958549213409422 -0.13419898737560618
leaf_weight=35 27 30 22
leaf_count=35 27 30 22
internal_value=-0.137058 -0.158534 -0.115583
internal_weight=114 57 57
internal_count=114 57 57
is_linear=0
shrinkage=0.01


Tree=77
num_leaves=5
num_cat=0
split_feature=10 5 6 6
split_gain=518.315 290.002 326.519 48.1925
threshold=0.18639209099479889 0.092873711444367471 0.83862526655817271 0.78248748002585089
decision_type=2 2 2 2
left_child=3 -2 -3 -1
right_child=1 2 -4 -5
leaf_value=-0.11986543514511802 -0.12294254714792426 -0.19755837583541869 -0.14424866111190229 -0.099163023388904079
leaf_weight=22 22 20 27 23
leaf_count=22 22 20 27 23
internal_value=-0.135688 -0.152907 -0.166934 -0.109284
internal_weight=114 69 47 45
internal_count=114 69 47 45
is_linear=0
shrinkage=0.01


Tree=78
num_leaves=4
num_cat=0
split_feature=9 2 0
split_gain=509.999 272.631 121.497
threshold=1.150414937883302 0.096208742194469232 3.6239374173242127
decision_type=2 2 2
left_child=2 -2 -1
right_child=1 -3 -4
leaf_value=-0.10160477876663208 -0.13242886808183457 -0.17622973823547361 -0.13159470569003712
leaf_weight=35 27 30 22
leaf_count=35 27 30 22
internal_value=-0.134331 -0.155482 -0.11318
internal_weight=114 57 57
internal_count=114 57 57
is_linear=0
shrinkage=0.01


Tree=79
num_leaves=5
num_cat=0
split_feature=10 5 6 5
split_gain=503.08 283.757 317.548 47.3284
threshold=0.18639209099479889 0.092873711444367471 0.83862526655817271 0.10349925092789308
decision_type=2 2 2 2
left_child=3 -2 -3 -1
right_child=1 2 -4 -5
leaf_value=-0.11656804273525874 -0.12031178886240179 -0.19402777290344239 -0.14145547019110788 -0.096011413449332825
leaf_weight=24 22 20 27 21
leaf_count=24 22 20 27 21
internal_value=-0.132988 -0.149952 -0.163827 -0.106975
internal_weight=114 69 47 45
internal_count=114 69 47 45
is_linear=0
shrinkage=0.01


Tree=80
num_leaves=4
num_cat=0
split_feature=9 2 0
split_gain=494.417 264.471 119.013
threshold=1.150414937883302 0.096208742194469232 3.6239374173242127
decision_type=2 2 2
left_child=2 -2 -1
right_child=1 -3 -4
leaf_value=-0.099376188618796213 -0.12977768173924198 -0.17291806809107463 -0.12905787592584436
leaf_weight=35 27 30 22
leaf_count=35 27 30 22
internal_value=-0.131658 -0.152483 -0.110832
internal_weight=114 57 57
internal_count=114 57 57
is_linear=0
shrinkage=0.01


Tree=81
num_leaves=5
num_cat=0
split_feature=10 5 6 6
split_gain=488.298 277.649 308.825 47.4099
threshold=0.18639209099479889 0.092873711444367471 0.83862526655817271 0.78248748002585089
decision_type=2 2 2 2
left_child=3 -2 -3 -1
right_child=1 2 -4 -5
leaf_value=-0.11520846789533443 -0.11773502111434937 -0.19056235694885254 -0.13871718371355976 -0.094674851583397918
leaf_weight=22 22 20 27 23
leaf_count=22 22 20 27 23
internal_value=-0.130341 -0.147055 -0.160779 -0.104714
internal_weight=114 69 47 45
internal_count=114 69 47 45
is_linear=0
shrinkage=0.01


Tree=82
num_leaves=4
num_cat=0
split_feature=9 2 0
split_gain=479.583 256.887 116.449
threshold=1.150414937883302 0.096208742194469232 3.6239374173242127
decision_type=2 2 2
left_child=2 -2 -1
right_child=1 -3 -4
leaf_value=-0.097195067746298658 -0.1271708145848027 -0.16968817790349325 -0.12655527066100727
leaf_weight=35 27 30 22
leaf_count=35 27 30 22
internal_value=-0.129038 -0.149548 -0.108527
internal_weight=114 57 57
internal_count=114 57 57
is_linear=0
shrinkage=0.01


Tree=83
num_leaves=5
num_cat=0
split_feature=10 5 3 6
split_gain=473.954 272.327 248.47 46.4802
threshold=0.18639209099479889 0.12899164628159362 0.10731533683158996 0.78248748002585089
decision_type=2 2 2 2
left_child=3 2 -2 -1
right_child=1 -3 -4 -5
leaf_value=-0.11289049582047897 -0.15358496894836426 -0.17530962467193603 -0.10853867848714194 -0.092559207211370065
leaf_weight=22 25 20 24 23
leaf_count=22 25 20 24 23
internal_value=-0.127747 -0.144214 -0.131521 -0.102499
internal_weight=114 69 49 45
internal_count=114 69 49 45
is_linear=0
shrinkage=0.01


Tree=84
num_leaves=5
num_cat=0
split_feature=10 5 6 5
split_gain=464.522 268.832 299.724 45.7286
threshold=0.18639209099479889 0.092873711444367471 0.83862526655817271 0.10349925092789308
decision_type=2 2 2 2
left_child=3 -2 -3 -1
right_child=1 2 -4 -5
leaf_value=-0.1109035254518191 -0.11392102024771951 -0.18561730289459227 -0.13454181388572412 -0.09069730849493117
leaf_weight=24 22 20 27 21
leaf_count=24 22 20 27 21
internal_value=-0.12647 -0.142772 -0.156276 -0.101474
internal_weight=114 69 47 45
internal_count=114 69 47 45
is_linear=0
shrinkage=0.01


Tree=85
num_leaves=4
num_cat=0
split_feature=9 6 0
split_gain=459.019 250.45 113.731
threshold=1.150414937883302 0.7146225885901738 3.6239374173242127
decision_type=2 2 2
left_child=2 -2 -1
right_child=1 -3 -4
leaf_value=-0.093940095901489259 -0.17378206038475036 -0.12986002016711878 -0.12295567019419236
leaf_weight=35 20 37 22
leaf_count=35 20 37 22
internal_value=-0.125205 -0.145271 -0.105139
internal_weight=114 57 57
internal_count=114 57 57
is_linear=0
shrinkage=0.01


Tree=86
num_leaves=5
num_cat=0
split_feature=10 5 3 6
split_gain=451.007 263.446 241.386 45.2751
threshold=0.18639209099479889 0.12899164628159362 0.10731533683158996 0.78248748002585089
decision_type=2 2 2 2
left_child=3 2 -2 -1
right_child=1 -3 -4 -5
leaf_value=-0.10957946869460018 -0.14927906227111817 -0.17060063576698306 -0.1048795352379481 -0.089513468742370608
leaf_weight=22 25 20 24 23
leaf_count=22 25 20 24 23
internal_value=-0.123953 -0.140016 -0.127532 -0.0993235
internal_weight=114 69 49 45
internal_count=114 69 49 45
is_linear=0
shrinkage=0.01


Tree=87
num_leaves=4
num_cat=0
split_feature=9 2 0
split_gain=444.16 246.892 111.141
threshold=1.150414937883302 0.096208742194469232 3.6239374173242127
decision_type=2 2 2
left_child=2 -2 -1
right_child=1 -3 -4
leaf_value=-0.09190420038359505 -0.12051434856873972 -0.16219634437561034 -0.12058749020099641
leaf_weight=35 27 30 22
leaf_count=35 27 30 22
internal_value=-0.122714 -0.142452 -0.102975
internal_weight=114 57 57
internal_count=114 57 57
is_linear=0
shrinkage=0.01


Tree=88
num_leaves=5
num_cat=0
split_feature=10 5 6 6
split_gain=437.757 259.888 286.47 44.3881
threshold=0.18639209099479889 0.092873711444367471 0.83862526655817271 0.78248748002585089
decision_type=2 2 2 2
left_child=3 -2 -3 -1
right_child=1 2 -4 -5
leaf_value=-0.10737632575360211 -0.10894498239864003 -0.17927467775344849 -0.12934120902308713 -0.087507868590562241
leaf_weight=22 22 20 27 23
leaf_count=22 22 20 27 23
internal_value=-0.121486 -0.137312 -0.150589 -0.0972213
internal_weight=114 69 47 45
internal_count=114 69 47 45
is_linear=0
shrinkage=0.01


Tree=89
num_leaves=4
num_cat=0
split_feature=9 2 0
split_gain=430.843 239.816 108.74
threshold=1.150414937883302 0.096208742194469232 3.6239374173242127
decision_type=2 2 2
left_child=2 -2 -1
right_child=1 -3 -4
leaf_value=-0.089880605459213253 -0.11809086234481246 -0.15917117961247762 -0.11825234700332989
leaf_weight=35 27 30 22
leaf_count=35 27 30 22
internal_value=-0.120272 -0.139712 -0.100831
internal_weight=114 57 57
internal_count=114 57 57
is_linear=0
shrinkage=0.01


Tree=90
num_leaves=5
num_cat=0
split_feature=10 5 6 5
split_gain=424.899 254.28 278.607 43.9519
threshold=0.18639209099479889 0.092873711444367471 0.83862526655817271 0.10349925092789308
decision_type=2 2 2 2
left_child=3 -2 -3 -1
right_child=1 2 -4 -5
leaf_value=-0.10440734306971232 -0.10660098379308527 -0.17608250856399538 -0.12683908674452041 -0.084597549097878602
leaf_weight=24 22 20 27 21
leaf_count=24 22 20 27 21
internal_value=-0.119069 -0.13466 -0.147794 -0.0951628
internal_weight=114 69 47 45
internal_count=114 69 47 45
is_linear=0
shrinkage=0.01


Tree=91
num_leaves=4
num_cat=0
split_feature=9 6 0
split_gain=417.677 234.261 106.509
threshold=1.150414937883302 0.7146225885901738 3.6239374173242127
decision_type=2 2 2
left_child=2 -2 -1
right_child=1 -3 -4
leaf_value=-0.087899465901511056 -0.16459323501586917 -0.12211450982738185 -0.1159786554087292
leaf_weight=35 20 37 22
leaf_count=35 20 37 22
internal_value=-0.117878 -0.137019 -0.098737
internal_weight=114 57 57
internal_count=114 57 57
is_linear=0
shrinkage=0.01


Tree=92
num_leaves=5
num_cat=0
split_feature=10 5 6 6
split_gain=412.553 248.836 268.906 43.255
threshold=0.18639209099479889 0.092873711444367471 0.83862526655817271 0.78248748002585089
decision_type=2 2 2 2
left_child=3 -2 -3 -1
right_child=1 2 -4 -5
leaf_value=-0.10316770764914425 -0.10430534666234798 -0.17284660577774047 -0.12446814395763257 -0.083554478443187211
leaf_weight=22 22 20 27 23
leaf_count=22 22 20 27 23
internal_value=-0.116699 -0.132062 -0.145055 -0.0931432
internal_weight=114 69 47 45
internal_count=114 69 47 45
is_linear=0
shrinkage=0.01


Tree=93
num_leaves=4
num_cat=0
split_feature=9 2 0
split_gain=405.156 229.716 104.208
threshold=1.150414937883302 0.096208742194469232 3.6239374173242127
decision_type=2 2 2
left_child=2 -2 -1
right_child=1 -3 -4
leaf_value=-0.085960475921630849 -0.11322342172816947 -0.15342941395441692 -0.11373470016501167
leaf_weight=35 27 30 22
leaf_count=35 27 30 22
internal_value=-0.115532 -0.134384 -0.0966804
internal_weight=114 57 57
internal_count=114 57 57
is_linear=0
shrinkage=0.01


Tree=94
num_leaves=5
num_cat=0
split_feature=10 5 6 5
split_gain=400.443 243.46 261.51 42.5501
threshold=0.18639209099479889 0.092873711444367471 0.83862526655817271 0.10349925092789308
decision_type=2 2 2 2
left_child=3 -2 -3 -1
right_child=1 2 -4 -5
leaf_value=-0.10026512136061987 -0.10205735228278422 -0.16977116584777832 -0.12206259886423747 -0.080773800072215851
leaf_weight=24 22 20 27 21
leaf_count=24 22 20 27 21
internal_value=-0.114377 -0.129513 -0.142364 -0.0911692
internal_weight=114 69 47 45
internal_count=114 69 47 45
is_linear=0
shrinkage=0.01


Tree=95
num_leaves=4
num_cat=0
split_feature=9 2 0
split_gain=392.774 222.839 102.071
threshold=1.150414937883302 0.096208742194469232 3.6239374173242127
decision_type=2 2 2
left_child=2 -2 -1
right_child=1 -3 -4
leaf_value=-0.084062173877443594 -0.11095319602224563 -0.150552734375 -0.1115501698309725
leaf_weight=35 27 30 22
leaf_count=35 27 30 22
internal_value=-0.113233 -0.131795 -0.0946716
internal_weight=114 57 57
internal_count=114 57 57
is_linear=0
shrinkage=0.01


Tree=96
num_leaves=5
num_cat=0
split_feature=10 5 3 6
split_gain=388.692 238.451 232.412 42.5503
threshold=0.18639209099479889 0.12899164628159362 0.10731533683158996 0.78248748002585089
decision_type=2 2 2 2
left_child=3 2 -2 -1
right_child=1 -3 -4 -5
leaf_value=-0.099178658473220743 -0.13647489433288576 -0.15611051559448241 -0.092908506194750468 -0.079725860389678382
leaf_weight=22 25 20 24 23
leaf_count=22 25 20 24 23
internal_value=-0.112101 -0.127013 -0.115136 -0.0892361
internal_weight=114 69 49 45
internal_count=114 69 49 45
is_linear=0
shrinkage=0.01


Tree=97
num_leaves=5
num_cat=0
split_feature=10 5 6 6
split_gain=380.957 235.699 253.775 41.7035
threshold=0.18639209099479889 0.092873711444367471 0.83862526655817271 0.78248748002585089
decision_type=2 2 2 2
left_child=3 -2 -3 -1
right_child=1 2 -4 -5
leaf_value=-0.098186872655695145 -0.098728531924161034 -0.16538634395599366 -0.11838864176361651 -0.078928603358242824
leaf_weight=22 22 20 27 23
leaf_count=22 22 20 27 23
internal_value=-0.11098 -0.125743 -0.138388 -0.0883438
internal_weight=114 69 47 45
internal_count=114 69 47 45
is_linear=0
shrinkage=0.01


Tree=98
num_leaves=4
num_cat=0
split_feature=9 2 0
split_gain=376.094 215.889 99.5552
threshold=1.150414937883302 0.096208742194469232 3.6239374173242127
decision_type=2 2 2
left_child=2 -2 -1
right_child=1 -3 -4
leaf_value=-0.0812289835555213 -0.10751924771263643 -0.14649636387825013 -0.10837612291967327
leaf_weight=35 27 30 22
leaf_count=35 27 30 22
internal_value=-0.10987 -0.128034 -0.0917068
internal_weight=114 57 57
internal_count=114 57 57
is_linear=0
shrinkage=0.01


Tree=99
num_leaves=5
num_cat=0
split_feature=10 5 6 5
split_gain=369.769 230.604 246.8 41.1548
threshold=0.18639209099479889 0.092873711444367471 0.83862526655817271 0.10349925092789308
decision_type=2 2 2 2
left_child=3 -2 -3 -1
right_child=1 2 -4 -5
leaf_value=-0.095415687412023553 -0.096595212871378122 -0.16244843053817751 -0.11610107492517542 -0.076246617918922788
leaf_weight=24 22 20 27 21
leaf_count=24 22 20 27 21
internal_value=-0.108771 -0.123316 -0.135823 -0.0864701
internal_weight=114 69 47 45
internal_count=114 69 47 45
is_linear=0
shrinkage=0.01


Tree=100
num_leaves=4
num_cat=0
split_feature=9 6 0
split_gain=364.607 210.501 97.5103
threshold=1.150414937883302 0.7146225885901738 3.6239374173242127
decision_type=2 2 2
left_child=2 -2 -1
right_child=1 -3 -4
leaf_value=-0.079430276002202718 -0.15170575714111328 -0.11143881064009023 -0.10629716126756235
leaf_weight=35 20 37 22
leaf_count=35 20 37 22
internal_value=-0.107684 -0.125568 -0.0898
internal_weight=114 57 57
internal_count=114 57 57
is_linear=0
shrinkage=0.01


Tree=101
num_leaves=5
num_cat=0
split_feature=10 5 3 6
split_gain=359.029 226.34 225.225 40.6449
threshold=0.18639209099479889 0.12899164628159362 0.10731533683158996 0.78248748002585089
decision_type=2 2 2 2
left_child=3 2 -2 -1
right_child=1 -3 -4 -5
leaf_value=-0.094349222359332172 -0.1303735420227051 -0.14928759515285492 -0.087486063142617546 -0.075336957560933157
leaf_weight=22 25 20 24 23
leaf_count=22 25 20 24 23
internal_value=-0.106607 -0.120938 -0.109367 -0.0846318
internal_weight=114 69 49 45
internal_count=114 69 49 45
is_linear=0
shrinkage=0.01


Tree=102
num_leaves=4
num_cat=0
split_feature=9 2 0
split_gain=352.729 208.117 95.2721
threshold=1.150414937883302 0.096208742194469232 3.6239374173242127
decision_type=2 2 2
left_child=2 -2 -1
right_child=1 -3 -4
leaf_value=-0.077700789162090847 -0.10298927666964355 -0.14125843056042989 -0.10425754249773242
leaf_weight=35 27 30 22
leaf_count=35 27 30 22
internal_value=-0.105541 -0.123131 -0.0879508
internal_weight=114 57 57
internal_count=114 57 57
is_linear=0
shrinkage=0.01


Tree=103
num_leaves=5
num_cat=0
split_feature=10 5 6 5
split_gain=348.495 222.882 235.831 39.8612
threshold=0.18639209099479889 0.092873711444367471 0.83862526655817271 0.10349925092789308
decision_type=2 2 2 2
left_child=3 -2 -3 -1
right_child=1 2 -4 -5
leaf_value=-0.091638973206281657 -0.092335789312015887 -0.15692821359634399 -0.1116225340631273 -0.072773568232854205
leaf_weight=24 22 20 27 21
leaf_count=24 22 20 27 21
internal_value=-0.104485 -0.118605 -0.130902 -0.0828351
internal_weight=114 69 47 45
internal_count=114 69 47 45
is_linear=0
shrinkage=0.01


Tree=104
num_leaves=4
num_cat=0
split_feature=9 2 0
split_gain=341.947 201.882 93.3129
threshold=1.150414937883302 0.096208742194469232 3.6239374173242127
decision_type=2 2 2
left_child=2 -2 -1
right_child=1 -3 -4
leaf_value=-0.075977391132286617 -0.10092211740988273 -0.13861361646652223 -0.10225966344164177
leaf_weight=35 27 30 22
leaf_count=35 27 30 22
internal_value=-0.103441 -0.12076 -0.0861214
internal_weight=114 57 57
internal_count=114 57 57
is_linear=0
shrinkage=0.01


end of trees

feature_importances:
Column_10=86
Column_5=83
Column_6=73
Column_0=37
Column_9=34
Column_3=26
Column_2=23
Column_12=5
Column_1=2
Column_7=2
Column_11=2
Column_4=1

parameters:
[boosting: gbdt]
[objective: regression]
[metric: l2]
[tree_learner: serial]
[device_type: cpu]
[data_sample_strategy: bagging]
[data: ]
[valid: ]
[num_iterations: 200]
[learning_rate: 0.01]
[num_leaves: 31]
[num_threads: -1]
[seed: 42]
[deterministic: 0]
[force_col_wise: 0]
[force_row_wise: 0]
[histogram_pool_size: -1]
[max_depth: -1]
[min_data_in_leaf: 20]
[min_sum_hessian_in_leaf: 0.001]
[bagging_fraction: 1]
[pos_bagging_fraction: 1]
[neg_bagging_fraction: 1]
[bagging_freq: 0]
[bagging_seed: 400]
[bagging_by_query: 0]
[feature_fraction: 1]
[feature_fraction_bynode: 1]
[feature_fraction_seed: 30056]
[extra_trees: 0]
[extra_seed: 12879]
[early_stopping_round: 0]
[early_stopping_min_delta: 0]
[first_metric_only: 0]
[max_delta_step: 0]
[lambda_l1: 0]
[lambda_l2: 0]
[linear_lambda: 0]
[min_gain_to_split: 0]
[drop_rate: 0.1]
[max_drop: 50]
[skip_drop: 0.5]
[xgboost_dart_mode: 0]
[uniform_drop: 0]
[drop_seed: 17869]
[top_rate: 0.2]
[other_rate: 0.1]
[min_data_per_group: 100]
[max_cat_threshold: 32]
[cat_l2: 10]
[cat_smooth: 10]
[max_cat_to_onehot: 4]
[top_k: 20]
[monotone_constraints: ]
[monotone_constraints_method: basic]
[monotone_penalty: 0]
[feature_contri: ]
[forcedsplits_filename: ]
[refit_decay_rate: 0.9]
[cegb_tradeoff: 1]
[cegb_penalty_split: 0]
[cegb_penalty_feature_lazy: ]
[cegb_penalty_feature_coupled: ]
[path_smooth: 0]
[interaction_constraints: ]
[verbosity: -1]
[saved_feature_importance_type: 0]
[use_quantized_grad: 0]
[num_grad_quant_bins: 4]
[quant_train_renew_leaf: 0]
[stochastic_rounding: 1]
[linear_tree: 0]
[max_bin: 255]
[max_bin_by_feature: ]
[min_data_in_bin: 3]
[bin_construct_sample_cnt: 200000]
[data_random_seed: 175]
[is_enable_sparse: 1]
[enable_bundle: 1]
[use_missing: 1]
[zero_as_missing: 0]
[feature_pre_filter: 1]
[pre_partition: 0]
[two_round: 0]
[header: 0]
[label_column: ]
[weight_column: ]
[group_column: ]
[ignore_column: ]
[categorical_feature: ]
[forcedbins_filename: ]
[precise_float_parser: 0]
[parser_config_file: ]
[objective_seed: 16083]
[num_class: 1]
[is_unbalance: 0]
[scale_pos_weight: 1]
[sigmoid: 1]
[boost_from_average: 1]
[reg_sqrt: 0]
[alpha: 0.9]
[fair_c: 1]
[poisson_max_delta_step: 0.7]
[tweedie_variance_power: 1.5]
[lambdarank_truncation_level: 30]
[lambdarank_norm: 1]
[label_gain: ]
[lambdarank_position_bias_regularization: 0]
[eval_at: ]
[multi_error_top_k: 1]
[auc_mu_weights: ]
[num_machines: 1]
[local_listen_port: 12400]
[time_out: 120]
[machine_list_filename: ]
[machines: ]
[gpu_platform_id: -1]
[gpu_device_id: -1]
[gpu_use_dp: 0]
[num_gpu: 1]

end of parameters

pandas_categorical:null
