tree
version=v4
num_class=1
num_tree_per_iteration=1
label_index=0
max_feature_idx=12
objective=regression
feature_names=PAMP_mean PW50_mean RiseTime_mean FallTime_mean PPI_mean PPI_std Mean SD RMS Skewness Kurtosis FFT_BandPower_0.5_5Hz HarmonicRatio
feature_infos=[0:1] [0:1] [0:1] [0:1] [0:1] [0:1] [0:1] [0:0.99999999999999989] [0:1] [0:1] [0:1] [0:1] [0:1]
tree_sizes=578 741 719 605 605 635 732 738 641 641 742 642 738 741 734 606 606 605 741 605 724 647 623 743 744 612 740 740 742 738 739 740 735 732 739 736 718 718 721 720 735 737 625 625 611 629 742 745 741 631 612 742 627 613 609 741 740 627

Tree=0
num_leaves=5
num_cat=0
split_feature=3 5 5 1
split_gain=2226 3348.78 811.2 1180.84
threshold=0.1037934668071654 0.13779719373747487 0.22128798622259152 0.2600248819544268
decision_type=2 2 2 2
left_child=1 -1 -2 -4
right_child=2 -3 3 -5
leaf_value=128.69973118011026 128.56939784641932 129.13610372867407 128.94230693752348 128.6819241623468
leaf_weight=12.000000000000002 9.9999999999999982 17 11.000000000000002 19
leaf_count=12 10 17 11 19
internal_value=128.822 128.956 128.725 128.777
internal_weight=69 29 40 30
internal_count=69 29 40 30
is_linear=0
shrinkage=1


Tree=1
num_leaves=6
num_cat=0
split_feature=2 12 10 7 2
split_gain=1957.95 4287.52 1240.17 1394.28 945.105
threshold=0.064832444782939883 0.021506938116921032 0.087545472363121227 0.45062389683884368 0.23861386138613863
decision_type=2 2 2 2 2
left_child=-1 -2 3 -3 -4
right_child=1 2 4 -5 -6
leaf_value=-0.2268382085286654 0.39956944487311624 0.24346764874458307 -0.27354738105427129 -0.090511607885360709 -0.025816824776785718
leaf_weight=12.999999999999998 10.999999999999998 10.000000000000002 11.000000000000002 9.9999999999999982 13.999999999999998
leaf_count=13 11 10 11 10 14
internal_value=-0.00571781 0.0456137 -0.0409088 0.076478 -0.134818
internal_weight=69 56 45 20 25
internal_count=69 56 45 20 25
is_linear=0
shrinkage=0.02


Tree=2
num_leaves=6
num_cat=0
split_feature=3 5 5 7 7
split_gain=2102.78 3154.88 761.234 1130.08 570.494
threshold=0.1037934668071654 0.13779719373747487 0.22128798622259152 0.45062389683884368 0.32607216530043742
decision_type=2 2 2 2 2
left_child=1 -1 -2 4 -4
right_child=2 -3 3 -5 -6
leaf_value=-0.12422360440095263 -0.25073201870918277 0.29932680382448085 -0.06925897216796871 -0.22283519530296325 0.14437509441375734
leaf_weight=12.000000000000002 9.9999999999999982 17 10.000000000000005 9.9999999999999982 9.9999999999999982
leaf_count=12 10 17 10 10 10
internal_value=-0.00560346 0.124065 -0.0996128 -0.0492397 0.0375581
internal_weight=69 29 40 30 20
internal_count=69 29 40 30 20
is_linear=0
shrinkage=0.02


Tree=3
num_leaves=5
num_cat=0
split_feature=3 6 5 1
split_gain=2019.51 3056.2 731.089 1122.55
threshold=0.1037934668071654 0.42103652313437329 0.22128798622259152 0.2600248819544268
decision_type=2 2 2 2
left_child=1 -1 -2 -4
right_child=2 -3 3 -5
leaf_value=-0.16142450404167172 -0.24571737194061277 0.27053474589398036 0.11253248550675128 -0.14134232383025322
leaf_weight=10.000000000000002 9.9999999999999982 19 11.000000000000002 19
leaf_count=10 10 19 11 19
internal_value=-0.00549138 0.121583 -0.0976205 -0.0482549
internal_weight=69 29 40 30
internal_count=69 29 40 30
is_linear=0
shrinkage=0.02


Tree=4
num_leaves=5
num_cat=0
split_feature=3 5 9 0
split_gain=1939.53 2996.65 1247.8 1923.24
threshold=0.1037934668071654 0.13779719373747487 0.44755333784981854 0.27461525572619705
decision_type=2 2 2 2
left_child=1 -1 -2 -4
right_child=2 -3 3 -5
leaf_value=-0.12283023416995999 -0.27704232150858099 0.28996233070597927 0.16698617100715635 -0.16371133334496443
leaf_weight=12.000000000000002 10.999999999999998 17 12.000000000000002 17
leaf_count=12 11 17 12 17
internal_value=-0.00538156 0.119152 -0.0956681 -0.026871
internal_weight=69 29 40 29
internal_count=69 29 40 29
is_linear=0
shrinkage=0.02


Tree=5
num_leaves=5
num_cat=0
split_feature=9 4 7 4
split_gain=2836.09 3292.4 1048.23 691.707
threshold=0.47927438529652761 0.1383299389002037 0.34177246109808729 0.11865580448065173
decision_type=2 2 2 2
left_child=2 -2 -1 -4
right_child=1 -3 3 -5
leaf_value=-0.26179656088352204 0.40798428853352853 -0.030258295796811583 -0.12768299067020414 0.07603845814863841
leaf_weight=11.999999999999998 12.000000000000002 15.999999999999998 15.000000000000002 11.999999999999998
leaf_count=12 12 16 15 12
internal_value=0.0039901 0.15756 -0.106265 -0.0371401
internal_weight=67 28 39 27
internal_count=67 28 39 27
is_linear=0
shrinkage=0.02


Tree=6
num_leaves=6
num_cat=0
split_feature=12 9 4 1 9
split_gain=2747.61 5835.6 943.435 890.23 200.019
threshold=0.021506938116921032 0.4612778610506395 0.36985743380855396 0.31093952214127746 0.49446984668074306
decision_type=2 2 2 2 2
left_child=1 -1 3 4 -2
right_child=2 -3 -4 -5 -6
leaf_value=-0.083996182829141605 -0.14360434556007376 0.51441327891566535 0.066919686675071713 -0.31146994495391844 -0.0171071417927742
leaf_weight=16.000000000000004 10.000000000000005 10.999999999999998 9.9999999999999982 9.9999999999999982 9.9999999999999982
leaf_count=16 10 11 10 10 10
internal_value=0.00391029 0.1598 -0.101315 -0.157394 -0.0803557
internal_weight=67 27 40 30 20
internal_count=67 27 40 30 20
is_linear=0
shrinkage=0.02


Tree=7
num_leaves=6
num_cat=0
split_feature=12 4 2 12 6
split_gain=2638.8 4537.85 1054.16 793.308 311.155
threshold=0.021506938116921032 0.089961118311423824 0.33993399339934 0.11294578459705756 0.44817757606763348
decision_type=2 2 2 2 2
left_child=1 -1 3 4 -2
right_child=2 -3 -4 -5 -6
leaf_value=-0.09324646549565449 -0.16473019111156453 0.42567428148709807 0.078544823527336119 -0.30401427483558657 -0.0069568686485290531
leaf_weight=14.000000000000002 10.000000000000005 12.999999999999998 9.9999999999999982 9.9999999999999982 9.9999999999999982
leaf_count=14 10 13 10 10 10
internal_value=0.00383209 0.156604 -0.0992891 -0.158567 -0.0858435
internal_weight=67 27 40 30 20
internal_count=67 27 40 30 20
is_linear=0
shrinkage=0.02


Tree=8
num_leaves=5
num_cat=0
split_feature=9 4 10 10
split_gain=2577.83 2944.03 1009.79 1539.27
threshold=0.47927438529652761 0.1383299389002037 0.078375638551183749 0.035947909409388273
decision_type=2 2 2 2
left_child=2 -2 3 -1
right_child=1 -3 -4 -5
leaf_value=-0.16402005104457629 0.38697143395741768 -0.027437908351421358 -0.27466571140289309 0.13183019200960794
leaf_weight=17.000000000000004 12.000000000000002 15.999999999999998 9.9999999999999982 11.999999999999998
leaf_count=17 12 16 10 12
internal_value=0.00375545 0.150166 -0.10136 -0.0415993
internal_weight=67 28 39 29
internal_count=67 28 39 29
is_linear=0
shrinkage=0.02


Tree=9
num_leaves=5
num_cat=0
split_feature=12 10 5 1
split_gain=2479.34 7547.61 1035.36 683.768
threshold=0.021506938116921032 0.043930244169660432 0.3494657075570573 0.2600248819544268
decision_type=2 2 2 2
left_child=1 -1 3 -2
right_child=2 -3 -4 -5
leaf_value=-0.12549680955708023 -0.06243459820747374 0.55505346731706096 0.050364526235140289 -0.26386754061494555
leaf_weight=16.000000000000004 13.000000000000002 10.999999999999998 12.999999999999998 13.999999999999998
leaf_count=16 13 11 13 14
internal_value=0.00368034 0.151764 -0.0962764 -0.166881
internal_weight=67 27 40 27
internal_count=67 27 40 27
is_linear=0
shrinkage=0.02


Tree=10
num_leaves=6
num_cat=0
split_feature=12 4 2 7 12
split_gain=3214.78 4863.44 1013.79 1482.73 866.492
threshold=0.021506938116921032 0.089961118311423824 0.23861386138613863 0.42814421889100912 0.069450816796428713
decision_type=2 2 2 2 2
left_child=1 -1 4 -4 -2
right_child=2 -3 3 -5 -6
leaf_value=-0.045366202081952765 -0.075245602056384073 0.53212241888046263 0.19088545441627497 -0.15352437752485276 -0.30583425868641245
leaf_weight=14.000000000000002 16.000000000000004 9.9999999999999982 10.000000000000002 9.9999999999999982 10.999999999999998
leaf_count=14 16 10 10 10 11
internal_value=0.00692397 0.195254 -0.0892446 0.0186805 -0.169189
internal_weight=71 24 47 20 27
internal_count=71 24 47 20 27
is_linear=0
shrinkage=0.02


Tree=11
num_leaves=5
num_cat=0
split_feature=3 11 7 7
split_gain=2589.74 2355.56 889.721 2067.46
threshold=0.079452054794520541 0.2916874942154189 0.42814421889100912 0.34177246109808729
decision_type=2 2 2 2
left_child=1 -1 3 -2
right_child=2 -3 -4 -5
leaf_value=0.30425684609833881 -0.14794540829128688 -0.082586033821105964 -0.20680826172232628 0.21072129070758819
leaf_weight=17.000000000000004 18.000000000000004 9.9999999999999982 15.999999999999998 9.9999999999999982
leaf_count=17 18 10 16 10
internal_value=0.00678548 0.160982 -0.0878349 -0.0198502
internal_weight=71 27 44 28
internal_count=71 27 44 28
is_linear=0
shrinkage=0.02


Tree=12
num_leaves=6
num_cat=0
split_feature=12 4 8 8 9
split_gain=2989.57 4649.36 636.514 1282.41 1281.6
threshold=0.021506938116921032 0.089961118311423824 0.42878151086087274 0.23899448950455687 0.51323298282391128
decision_type=2 2 2 2 2
left_child=1 -1 3 -2 -4
right_child=2 -3 4 -5 -6
leaf_value=-0.047001225607735758 -0.16613712787628171 0.5176341338157654 -0.31719767890193235 0.1205783224105835 -0.011898924952203578
leaf_weight=14.000000000000002 12.000000000000002 9.9999999999999982 11.000000000000002 12.999999999999998 10.999999999999998
leaf_count=14 12 10 11 13 11
internal_value=0.00664978 0.188264 -0.0860891 -0.0170451 -0.164548
internal_weight=71 24 47 25 22
internal_count=71 24 47 25 22
is_linear=0
shrinkage=0.02


Tree=13
num_leaves=6
num_cat=0
split_feature=12 4 2 8 12
split_gain=2871.19 4465.24 957.866 1358.54 807.697
threshold=0.021506938116921032 0.089961118311423824 0.23861386138613863 0.42878151086087274 0.069450816796428713
decision_type=2 2 2 2 2
left_child=1 -1 4 -4 -2
right_child=2 -3 3 -5 -6
leaf_value=-0.046061204586710237 -0.07137521147727964 0.50728143501281742 0.18537457704544061 -0.14429732840508222 -0.29400319706309924
leaf_weight=14.000000000000002 16.000000000000004 9.9999999999999982 10.000000000000002 9.9999999999999982 10.999999999999998
leaf_count=14 16 10 10 10 11
internal_value=0.00651678 0.184498 -0.0843674 0.0205386 -0.162076
internal_weight=71 24 47 20 27
internal_count=71 24 47 20 27
is_linear=0
shrinkage=0.02


Tree=14
num_leaves=6
num_cat=0
split_feature=3 7 3 7 7
split_gain=2400.83 2090.98 817.475 1288.16 1068.24
threshold=0.079452054794520541 0.50183273843754284 0.12715138742536 0.42814421889100912 0.29002375510704403
decision_type=2 2 2 2 2
left_child=1 -1 -2 4 -4
right_child=2 -3 3 -5 -6
leaf_value=0.32445408497537875 -0.23403185367584228 -0.02779614026729877 -0.080370520591735814 -0.18993508967929162 0.21196418023109437
leaf_weight=14.000000000000002 10.999999999999998 12.999999999999998 10.000000000000002 12.999999999999998 9.9999999999999982
leaf_count=14 11 13 10 13 10
internal_value=0.00638644 0.154852 -0.0847175 -0.034946 0.0657968
internal_weight=71 27 44 33 20
internal_count=71 27 44 33 20
is_linear=0
shrinkage=0.02


Tree=15
num_leaves=5
num_cat=0
split_feature=0 0 10 7
split_gain=3266.57 2400.98 1142.34 1067.67
threshold=0.25947486039721857 0.19429113901077205 0.043930244169660432 0.557614169440941
decision_type=2 2 2 2
left_child=1 2 -1 -2
right_child=3 -3 -4 -5
leaf_value=-0.15569689083099358 -0.26781694300969444 0.33667332002094819 0.11369483751409193 -0.03935004343589147
leaf_weight=10.000000000000002 14.999999999999998 13.999999999999998 17 18
leaf_count=10 15 14 17 18
internal_value=0.00491507 0.124129 0.0139201 -0.143199
internal_weight=74 41 27 33
internal_count=74 41 27 33
is_linear=0
shrinkage=0.02


Tree=16
num_leaves=5
num_cat=0
split_feature=0 0 3 10
split_gain=3137.22 2305.9 1163.13 1097.1
threshold=0.25947486039721857 0.19429113901077205 0.1037934668071654 0.043930244169660432
decision_type=2 2 2 2
left_child=1 3 -2 -1
right_child=2 -3 -4 -5
leaf_value=-0.15258295321464535 -0.010264415343602498 0.32993985593318942 -0.24872653328710134 0.11142094247481403
leaf_weight=10.000000000000002 14.999999999999998 13.999999999999998 18 17
leaf_count=10 15 14 18 17
internal_value=0.00481677 0.121646 -0.140335 0.0136417
internal_weight=74 41 33 27
internal_count=74 41 33 27
is_linear=0
shrinkage=0.02


Tree=17
num_leaves=5
num_cat=0
split_feature=0 9 3 3
split_gain=3012.98 2799.67 1117.07 702.735
threshold=0.25947486039721857 0.45651035051814498 0.1037934668071654 0.12715138742536
decision_type=2 2 2 2
left_child=1 3 -2 -1
right_child=2 -3 -4 -5
leaf_value=0.068811925252278625 -0.010059126138687133 0.29705163998235212 -0.24375199788146551 -0.15819894123077394
leaf_weight=12.000000000000002 14.999999999999998 19 18 9.9999999999999982
leaf_count=12 15 19 18 10
internal_value=0.00472043 0.119213 -0.137528 -0.0343748
internal_weight=74 41 33 22
internal_count=74 41 33 22
is_linear=0
shrinkage=0.02


Tree=18
num_leaves=6
num_cat=0
split_feature=10 10 9 1 10
split_gain=2199.01 3633.11 2814.43 259.472 215.861
threshold=0.021575470610145808 0.092717931961956546 0.45651035051814498 0.28045293189752835 0.043930244169660432
decision_type=2 2 2 2 2
left_child=-1 2 4 -3 -2
right_child=1 3 -4 -5 -6
leaf_value=-0.2711891850233078 -0.036947626634077579 -0.05390269740061325 0.37628248922526836 -0.18008563220500948 0.091442150115966805
leaf_weight=9.9999999999999982 11.000000000000002 11.000000000000002 15.999999999999998 15.999999999999998 9.9999999999999982
leaf_count=10 11 11 16 16 10
internal_value=0.00462602 0.0477222 0.176446 -0.128678 0.0241904
internal_weight=74 64 37 27 21
internal_count=74 64 37 27 21
is_linear=0
shrinkage=0.02


Tree=19
num_leaves=5
num_cat=0
split_feature=0 9 7 0
split_gain=2880.46 2617.04 963.908 245.537
threshold=0.25947486039721857 0.45651035051814498 0.557614169440941 0.15686670129676142
decision_type=2 2 2 2
left_child=1 3 -2 -1
right_child=2 -3 -4 -5
leaf_value=-0.098829585422169047 -0.2529595643679301 0.28842041119148859 -0.035878001319037546 0.034801295670596033
leaf_weight=11.000000000000002 14.999999999999998 19 18 10.999999999999998
leaf_count=11 15 19 18 11
internal_value=0.0045335 0.11648 -0.134551 -0.0320141
internal_weight=74 41 33 22
internal_count=74 41 33 22
is_linear=0
shrinkage=0.02


Tree=20
num_leaves=6
num_cat=0
split_feature=2 12 7 7 9
split_gain=1587.62 2355.01 1032.3 1876.08 626.147
threshold=0.050647372429550648 0.021506938116921032 0.42814421889100912 0.34177246109808729 0.51323298282391128
decision_type=2 2 2 2 2
left_child=-1 -2 3 -3 -4
right_child=1 2 4 -5 -6
leaf_value=-0.18311278820037843 0.26151768207550047 -0.075057836600712358 -0.2262331867218017 0.27397376396439294 -0.0075670297579331835
leaf_weight=11.999999999999998 18 14.000000000000002 10.000000000000002 10.999999999999998 10.999999999999998
leaf_count=12 18 14 10 11 11
internal_value=0.0279908 0.0675727 -0.00831886 0.0785161 -0.111694
internal_weight=76 64 46 25 21
internal_count=76 64 46 25 21
is_linear=0
shrinkage=0.02


Tree=21
num_leaves=5
num_cat=0
split_feature=10 12 10 2
split_gain=2477.8 3924.87 1765.51 331.582
threshold=0.035947909409388273 0.021506938116921032 0.078375638551183749 0.23861386138613863
decision_type=2 2 2 2
left_child=-1 -2 -3 -4
right_child=1 2 3 -5
leaf_value=-0.19371143043041231 0.37961452705519544 0.16682676911354066 -0.15552020117640492 -0.022241030505725314
leaf_weight=15.999999999999998 13.999999999999998 15.999999999999998 16.000000000000004 13.999999999999998
leaf_count=16 14 16 16 14
internal_value=0.0274309 0.0864022 -0.00283629 -0.0933233
internal_weight=76 60 46 30
internal_count=76 60 46 30
is_linear=0
shrinkage=0.02


Tree=22
num_leaves=5
num_cat=0
split_feature=0 0 9 8
split_gain=2060.78 2244.22 2922.29 508.737
threshold=0.28390472209139606 0.23497058125938805 0.45838867539651151 0.55804393241026562
decision_type=2 2 2 2
left_child=1 2 -1 -2
right_child=3 -3 -4 -5
leaf_value=-0.19341579352106369 -0.18227243868509924 0.33491670058323786 0.19185530702273051 -0.020146797224879266
leaf_weight=13.999999999999998 15.000000000000002 12.999999999999998 18 15.999999999999998
leaf_count=14 15 13 18 16
internal_value=0.0268823 0.113322 0.0232992 -0.0985947
internal_weight=76 45 32 31
internal_count=76 45 32 31
is_linear=0
shrinkage=0.02


Tree=23
num_leaves=6
num_cat=0
split_feature=10 12 5 10 11
split_gain=2338.18 3718.53 1938.48 1823.68 798.622
threshold=0.035947909409388273 0.021506938116921032 0.30144284062448429 0.087545472363121227 0.11387382231217148
decision_type=2 2 2 2 2
left_child=-1 -2 4 -4 -3
right_child=1 2 3 -5 -6
leaf_value=-0.1884767809510231 0.36903097476278035 -0.26404346084594715 0.31446703433990469 -0.049718410968780519 -0.030029305219650269
leaf_weight=15.999999999999998 13.999999999999998 10.000000000000002 11.000000000000002 10.999999999999998 13.999999999999998
leaf_count=16 14 10 11 11 14
internal_value=0.0263447 0.0836304 -0.00323065 0.132374 -0.127535
internal_weight=76 60 46 22 24
internal_count=76 60 46 22 24
is_linear=0
shrinkage=0.02


Tree=24
num_leaves=6
num_cat=0
split_feature=10 12 5 10 11
split_gain=2245.59 3571.28 1861.71 1751.46 766.996
threshold=0.035947909409388273 0.021506938116921032 0.30144284062448429 0.087545472363121227 0.11387382231217148
decision_type=2 2 2 2 2
left_child=-1 -2 4 -4 -3
right_child=1 2 3 -5 -6
leaf_value=-0.18470724284648896 0.36165035571370807 -0.25876259422302239 0.30817768877202806 -0.048724039034409965 -0.029428719282150267
leaf_weight=15.999999999999998 13.999999999999998 10.000000000000002 11.000000000000002 10.999999999999998 13.999999999999998
leaf_count=16 14 10 11 11 14
internal_value=0.0258178 0.0819578 -0.00316604 0.129727 -0.124985
internal_weight=76 60 46 22 24
internal_count=76 60 46 22 24
is_linear=0
shrinkage=0.02


Tree=25
num_leaves=5
num_cat=0
split_feature=11 10 7 11
split_gain=1387.33 2422.77 3805.19 469.175
threshold=0.11387382231217148 0.043930244169660432 0.52126507337529226 0.056947007018710374
decision_type=2 2 2 2
left_child=3 -2 -3 -1
right_child=1 2 -4 -5
leaf_value=-0.08515704676508902 -0.15251360866758559 0.41555895109971352 -0.049600528688991771 -0.25978920257091526
leaf_weight=16.000000000000004 18 12.000000000000002 17 9.9999999999999982
leaf_count=16 18 12 17 10
internal_value=-0.035098 0.0297501 0.142879 -0.152323
internal_weight=73 47 29 26
internal_count=73 47 29 26
is_linear=0
shrinkage=0.02


Tree=26
num_leaves=6
num_cat=0
split_feature=11 0 4 9 11
split_gain=1332.4 1579.7 2294.63 674.744 450.596
threshold=0.11387382231217148 0.27461525572619705 0.089961118311423824 0.42903803802572366 0.056947007018710374
decision_type=2 2 2 2 2
left_child=4 2 -2 -3 -1
right_child=1 3 -4 -5 -6
leaf_value=-0.083453910052776317 -0.061095510482788065 -0.20392672562599173 0.35750507268038662 0.0054971842467784878 -0.25459341132640839
leaf_weight=16.000000000000004 10.000000000000002 10.000000000000002 10.999999999999998 15.999999999999998 9.9999999999999982
leaf_count=16 10 10 11 16 10
internal_value=-0.034396 0.0291551 0.158171 -0.0750505 -0.149277
internal_weight=73 47 21 26 26
internal_count=73 47 21 26 26
is_linear=0
shrinkage=0.02


Tree=27
num_leaves=6
num_cat=0
split_feature=2 12 2 3 12
split_gain=1428.82 1540.24 632.115 507.944 478.25
threshold=0.050647372429550648 0.019199537126777712 0.22920792079207927 0.1997424189205011 0.069450816796428713
decision_type=2 2 2 2 2
left_child=-1 -2 4 -4 -3
right_child=1 2 3 -5 -6
leaf_value=-0.24377445047551935 0.1881418251139777 -0.043581530292828873 0.13389997291564937 -0.059100551803906755 -0.21720246921886099
leaf_weight=10.999999999999998 13.999999999999998 15.000000000000002 10.000000000000002 11.999999999999998 10.999999999999998
leaf_count=11 14 15 10 12 11
internal_value=-0.0337081 0.00356175 -0.0502741 0.028627 -0.117037
internal_weight=73 62 48 22 26
internal_count=73 62 48 22 26
is_linear=0
shrinkage=0.02


Tree=28
num_leaves=6
num_cat=0
split_feature=2 12 2 3 12
split_gain=1372.24 1479.25 607.083 487.829 459.311
threshold=0.050647372429550648 0.019199537126777712 0.22920792079207927 0.1997424189205011 0.069450816796428713
decision_type=2 2 2 2 2
left_child=-1 -2 4 -4 -3
right_child=1 2 3 -5 -6
leaf_value=-0.23889896219426934 0.1843789941072464 -0.042709899147351571 0.13122197341918942 -0.057918540835380554 -0.21285841161554511
leaf_weight=10.999999999999998 13.999999999999998 15.000000000000002 10.000000000000002 11.999999999999998 10.999999999999998
leaf_count=11 14 15 10 12 11
internal_value=-0.0330339 0.00349052 -0.0492686 0.0280544 -0.114696
internal_weight=73 62 48 22 26
internal_count=73 62 48 22 26
is_linear=0
shrinkage=0.02


Tree=29
num_leaves=6
num_cat=0
split_feature=2 9 10 6 3
split_gain=1317.9 1409.34 1379.36 815.012 323.049
threshold=0.050647372429550648 0.42496365334002262 0.13473424861102104 0.42103652313437329 0.1037934668071654
decision_type=2 2 2 2 2
left_child=-1 4 3 -3 -2
right_child=1 2 -4 -5 -6
leaf_value=-0.23412097844210539 -0.054381113111972787 0.031798235972722362 -0.084551313559214275 0.25293334992726646 -0.21514143419265747
leaf_weight=10.999999999999998 10.000000000000002 12.000000000000002 14.999999999999998 14.999999999999998 9.9999999999999982
leaf_count=11 10 12 15 15 10
internal_value=-0.0323732 0.00342071 0.0692217 0.154651 -0.134761
internal_weight=73 62 42 27 20
internal_count=73 62 42 27 20
is_linear=0
shrinkage=0.02


Tree=30
num_leaves=6
num_cat=0
split_feature=10 10 7 7 2
split_gain=1932.5 2808.47 2623.63 3569.9 756.744
threshold=0.027998932422943303 0.092717931961956546 0.50183273843754284 0.37180010438408978 0.23861386138613863
decision_type=2 2 2 2 2
left_child=-1 2 3 -2 -3
right_child=1 4 -4 -5 -6
leaf_value=-0.21739940762519838 0.074408241968888483 -0.21992440003615155 -0.047043574253718065 0.57704071331024165 0.00032369275887807213
leaf_weight=12.999999999999998 13.000000000000002 13.000000000000002 14.999999999999998 9.9999999999999982 11.999999999999998
leaf_count=13 13 13 15 10 12
internal_value=0.00461494 0.0504274 0.158738 0.292944 -0.114205
internal_weight=76 63 38 23 25
internal_count=76 63 38 23 25
is_linear=0
shrinkage=0.02


Tree=31
num_leaves=6
num_cat=0
split_feature=10 10 7 7 2
split_gain=1855.97 2697.25 2519.73 3428.54 726.777
threshold=0.027998932422943303 0.092717931961956546 0.50183273843754284 0.37180010438408978 0.23861386138613863
decision_type=2 2 2 2 2
left_child=-1 2 3 -2 -3
right_child=1 4 -4 -5 -6
leaf_value=-0.2130514229260958 0.072920073912693881 -0.21552590663616467 -0.046102702260017399 0.56549990558624263 0.00031721810499827063
leaf_weight=12.999999999999998 13.000000000000002 13.000000000000002 14.999999999999998 9.9999999999999982 11.999999999999998
leaf_count=13 13 13 15 10 12
internal_value=0.00452264 0.0494189 0.155564 0.287085 -0.111921
internal_weight=76 63 38 23 25
internal_count=76 63 38 23 25
is_linear=0
shrinkage=0.02


Tree=32
num_leaves=6
num_cat=0
split_feature=0 7 4 0 1
split_gain=1890.2 1804.11 1559.83 617.52 521.737
threshold=0.28976791392171808 0.34177246109808729 0.0989816700610998 0.11581911827208125 0.28951830973390219
decision_type=2 2 2 2 2
left_child=1 3 -3 -1 -2
right_child=4 2 -4 -5 -6
leaf_value=0.061601592627438619 -0.037114360332489008 -0.0041676025390624989 0.31424874491989613 -0.14200554721630537 -0.21683076654161729
leaf_weight=11.000000000000002 12.000000000000002 10.000000000000002 15.999999999999998 12.999999999999998 13.999999999999998
leaf_count=11 12 10 16 13 14
internal_value=0.00443219 0.076357 0.191781 -0.0486856 -0.133885
internal_weight=76 50 26 24 26
internal_count=76 50 26 24 26
is_linear=0
shrinkage=0.02


Tree=33
num_leaves=6
num_cat=0
split_feature=0 7 9 1 1
split_gain=1815.35 1736.8 1587.4 620.524 501.076
threshold=0.28976791392171808 0.37180010438408978 0.45838867539651151 0.18346621973719215 0.28951830973390219
decision_type=2 2 2 2 2
left_child=1 2 -1 -3 -2
right_child=4 3 -4 -5 -6
leaf_value=-0.15885575179010628 -0.036372071107228586 0.1096908143636855 0.13868127015920786 0.32737289339303971 -0.21249415091105872
leaf_weight=16.000000000000004 12.000000000000002 11.000000000000002 12.999999999999998 9.9999999999999982 13.999999999999998
leaf_count=16 12 11 13 10 14
internal_value=0.00434354 0.0748298 -0.0254771 0.213349 -0.131207
internal_weight=76 50 29 21 26
internal_count=76 50 29 21 26
is_linear=0
shrinkage=0.02


Tree=34
num_leaves=6
num_cat=0
split_feature=0 7 10 9 1
split_gain=1743.46 1671.18 1777.56 605.203 481.233
threshold=0.28976791392171808 0.34177246109808729 0.043930244169660432 0.45838867539651151 0.28951830973390219
decision_type=2 2 2 2 2
left_child=1 3 -3 -1 -2
right_child=4 2 -4 -5 -6
leaf_value=-0.13189535477331701 -0.035644630591074616 -0.024754527568817131 0.31515937310643494 0.071819281816482547 -0.2082442671912057
leaf_weight=14.000000000000002 12.000000000000002 10.000000000000002 15.999999999999998 9.9999999999999982 13.999999999999998
leaf_count=14 12 10 16 10 14
internal_value=0.00425667 0.0733333 0.184423 -0.0470143 -0.128583
internal_weight=76 50 26 24 26
internal_count=76 50 26 24 26
is_linear=0
shrinkage=0.02


Tree=35
num_leaves=6
num_cat=0
split_feature=0 0 9 9 2
split_gain=2144.75 3396.71 1384.08 408.886 218.908
threshold=0.27461525572619705 0.19429113901077205 0.45838867539651151 0.43197134166502943 0.17920792079207926
decision_type=2 2 2 2 2
left_child=1 2 -1 -2 -5
right_child=3 -3 -4 4 -6
leaf_value=-0.12954044193029401 -0.19383426579562094 0.36520149898529058 0.15460377315680185 -0.10819190168380734 0.024143430948257449
leaf_weight=16.000000000000004 11.000000000000002 14.999999999999998 11.999999999999998 10.000000000000002 9.9999999999999982
leaf_count=16 11 15 12 10 10
internal_value=0.0309184 0.12234 -0.00776435 -0.0958923 -0.0420242
internal_weight=74 43 28 31 20
internal_count=74 43 28 31 20
is_linear=0
shrinkage=0.02


Tree=36
num_leaves=6
num_cat=0
split_feature=0 8 2 9 2
split_gain=2059.82 3366.62 797.474 392.694 210.239
threshold=0.27461525572619705 0.34212851785229093 0.14488448844884488 0.43197134166502943 0.17920792079207926
decision_type=2 2 2 2 2
left_child=1 2 -1 -2 -5
right_child=3 -3 -4 4 -6
leaf_value=0.097165653272108576 -0.18995758013291789 0.32845121886995104 -0.13039542061941964 -0.10602806538343426 0.023660563707351683
leaf_weight=11.000000000000002 11.000000000000002 18 13.999999999999998 10.000000000000002 9.9999999999999982
leaf_count=11 11 18 14 10 10
internal_value=0.0303 0.119893 -0.0302685 -0.0939745 -0.0411838
internal_weight=74 43 25 31 20
internal_count=74 43 25 31 20
is_linear=0
shrinkage=0.02


Tree=37
num_leaves=6
num_cat=0
split_feature=0 7 2 9 2
split_gain=1978.25 3233.31 765.894 377.143 201.914
threshold=0.27461525572619705 0.34177246109808729 0.14488448844884488 0.43197134166502943 0.17920792079207926
decision_type=2 2 2 2 2
left_child=1 2 -1 -2 -5
right_child=3 -3 -4 4 -6
leaf_value=0.095222348733381756 -0.1861584277586503 0.32188219500912563 -0.12778751109327588 -0.10390750664472577 0.023187350749969485
leaf_weight=11.000000000000002 11.000000000000002 18 13.999999999999998 10.000000000000002 9.9999999999999982
leaf_count=11 11 18 14 10 10
internal_value=0.029694 0.117495 -0.0296632 -0.092095 -0.0403601
internal_weight=74 43 25 31 20
internal_count=74 43 25 31 20
is_linear=0
shrinkage=0.02


Tree=38
num_leaves=6
num_cat=0
split_feature=0 7 2 9 2
split_gain=1899.91 3105.27 735.565 362.208 193.918
threshold=0.27461525572619705 0.34177246109808729 0.14488448844884488 0.43197134166502943 0.17920792079207926
decision_type=2 2 2 2 2
left_child=1 2 -1 -2 -5
right_child=3 -3 -4 4 -6
leaf_value=0.093317899920723632 -0.18243526198647236 0.31544455077913069 -0.12523176074028014 -0.10182935367524622 0.022723603248596191
leaf_weight=11.000000000000002 11.000000000000002 18 13.999999999999998 10.000000000000002 9.9999999999999982
leaf_count=11 11 18 14 10 10
internal_value=0.0291001 0.115145 -0.0290699 -0.0902531 -0.0395529
internal_weight=74 43 25 31 20
internal_count=74 43 25 31 20
is_linear=0
shrinkage=0.02


Tree=39
num_leaves=6
num_cat=0
split_feature=0 7 2 9 2
split_gain=1824.67 2982.3 706.437 347.865 186.239
threshold=0.27461525572619705 0.34177246109808729 0.14488448844884488 0.43197134166502943 0.17920792079207926
decision_type=2 2 2 2 2
left_child=1 2 -1 -2 -5
right_child=3 -3 -4 4 -6
leaf_value=0.091451538259332804 -0.17878655563701276 0.30913565773723856 -0.12272712452071054 -0.099792766787111728 0.022269131422042846
leaf_weight=11.000000000000002 11.000000000000002 18 13.999999999999998 10.000000000000002 9.9999999999999982
leaf_count=11 11 18 14 10 10
internal_value=0.0285181 0.112843 -0.0284885 -0.088448 -0.0387618
internal_weight=74 43 25 31 20
internal_count=74 43 25 31 20
is_linear=0
shrinkage=0.02


Tree=40
num_leaves=6
num_cat=0
split_feature=3 10 12 2 6
split_gain=1540.7 1125.86 1421.35 1746.94 442.418
threshold=0.059678203777255391 0.043930244169660432 0.02535441449970911 0.19323432343234326 0.5896824356701923
decision_type=2 2 2 2 2
left_child=-1 -2 -3 -4 -5
right_child=1 2 3 4 -6
leaf_value=0.20359338422616322 -0.19635745445887248 0.23179330444335938 -0.21080427033560617 -0.013577074527740474 0.17455442547798158
leaf_weight=14.999999999999998 11.999999999999998 9.9999999999999982 13.999999999999998 10.000000000000002 9.9999999999999982
leaf_count=15 12 10 14 10 10
internal_value=0.0235783 -0.02464 0.022192 -0.0394555 0.0804887
internal_weight=71 56 44 34 20
internal_count=71 56 44 34 20
is_linear=0
shrinkage=0.02


Tree=41
num_leaves=6
num_cat=0
split_feature=3 10 12 4 6
split_gain=1479.69 1081.28 1365.07 883.161 532.128
threshold=0.059678203777255391 0.043930244169660432 0.02535441449970911 0.18856076035302105 0.5896824356701923
decision_type=2 2 2 2 2
left_child=-1 -2 -3 -4 -5
right_child=1 2 3 4 -6
leaf_value=0.19952152629693348 -0.1924303138256073 0.22715744085609912 -0.19657873725891115 -0.059497337341308576 0.1295087508721785
leaf_weight=14.999999999999998 11.999999999999998 9.9999999999999982 9.9999999999999982 13.000000000000002 10.999999999999998
leaf_count=15 12 10 10 13 11
internal_value=0.0231067 -0.0241472 0.0217481 -0.0386664 0.0271305
internal_weight=71 56 44 34 24
internal_count=71 56 44 34 24
is_linear=0
shrinkage=0.02


Tree=42
num_leaves=5
num_cat=0
split_feature=3 10 11 11
split_gain=1421.1 1038.46 1328.7 1863.57
threshold=0.059678203777255391 0.043930244169660432 0.10235268173226379 0.2916874942154189
decision_type=2 2 2 2
left_child=-1 -2 -3 -4
right_child=1 2 3 -5
leaf_value=0.19553108658889928 -0.18858170946439107 -0.11719489574432373 0.25713808385531101 -0.077248211801052097
leaf_weight=14.999999999999998 11.999999999999998 17 15.000000000000002 11.999999999999998
leaf_count=15 12 17 15 12
internal_value=0.0226446 -0.0236643 0.0213132 0.108522
internal_weight=71 56 44 27
internal_count=71 56 44 27
is_linear=0
shrinkage=0.02


Tree=43
num_leaves=5
num_cat=0
split_feature=3 10 12 2
split_gain=1364.82 997.337 1285.59 1634.88
threshold=0.059678203777255391 0.043930244169660432 0.02535441449970911 0.22920792079207927
decision_type=2 2 2 2
left_child=-1 -2 -3 -4
right_child=1 2 3 -5
leaf_value=0.19162046658992768 -0.18481006979942322 0.22022651997208595 -0.184841505587101 0.093012384043799509
leaf_weight=14.999999999999998 11.999999999999998 9.9999999999999982 15.999999999999998 18
leaf_count=15 12 10 16 18
internal_value=0.0221917 -0.023191 0.0208869 -0.0377424
internal_weight=71 56 44 34
internal_count=71 56 44 34
is_linear=0
shrinkage=0.02


Tree=44
num_leaves=5
num_cat=0
split_feature=3 10 11 8
split_gain=1310.77 957.842 1263.03 1919.84
threshold=0.059678203777255391 0.043930244169660432 0.10235268173226379 0.52202901033072635
decision_type=2 2 2 2
left_child=-1 -2 -3 -4
right_child=1 2 3 -5
leaf_value=0.18778806070486706 -0.18111387054125469 -0.11457269850899192 0.32538536047935473 -0.023851423158365141
leaf_weight=14.999999999999998 11.999999999999998 17 10.000000000000002 17
leaf_count=15 12 17 10 17
internal_value=0.0217479 -0.0227272 0.0204692 0.105496
internal_weight=71 56 44 27
internal_count=71 56 44 27
is_linear=0
shrinkage=0.02


Tree=45
num_leaves=5
num_cat=0
split_feature=12 7 11 7
split_gain=801.389 1591.95 2028.36 661.359
threshold=0.010705322708273984 0.42814421889100912 0.056947007018710374 0.557614169440941
decision_type=2 2 2 2
left_child=-1 2 -2 -3
right_child=1 3 -4 -5
leaf_value=-0.16678735335667927 -0.053397871812184639 -0.19050883395331247 0.27032853811979296 -0.0072253486845228407
leaf_weight=11.999999999999998 15.000000000000002 13.999999999999998 15.999999999999998 18
leaf_count=12 15 14 16 18
internal_value=-0.0169912 0.0115414 0.113687 -0.0874119
internal_weight=75 63 31 32
internal_count=75 63 31 32
is_linear=0
shrinkage=0.02


Tree=46
num_leaves=6
num_cat=0
split_feature=10 10 9 5 5
split_gain=1009.53 1837.43 652.208 318.258 428.874
threshold=0.037659148944315206 0.072423862406889319 0.42496365334002262 0.3494657075570573 0.21533868939151415
decision_type=2 2 2 2 2
left_child=2 -2 -1 4 -3
right_child=1 3 -4 -5 -6
leaf_value=-0.024122242331504812 0.20807548791170122 0.0043714127540588369 -0.25254425621032717 0.022054030150175093 -0.16984417658585771
leaf_weight=10.000000000000002 15.999999999999998 10.000000000000002 9.9999999999999982 15.999999999999998 12.999999999999998
leaf_count=10 16 10 10 16 13
internal_value=-0.0166514 0.0275966 -0.138333 -0.046446 -0.0940983
internal_weight=75 55 20 39 23
internal_count=75 55 20 39 23
is_linear=0
shrinkage=0.02


Tree=47
num_leaves=6
num_cat=0
split_feature=10 10 9 2 10
split_gain=969.555 1764.67 626.38 313.072 521.367
threshold=0.037659148944315206 0.072423862406889319 0.42496365334002262 0.23861386138613863 0.098692611439457054
decision_type=2 2 2 2 2
left_child=2 -2 -1 4 -3
right_child=1 3 -4 -5 -6
leaf_value=-0.023639797568321221 0.20391398102045061 0.0066767683896151436 -0.24749337291717532 0.022422592788934707 -0.18394780298074084
leaf_weight=10.000000000000002 15.999999999999998 11.000000000000002 9.9999999999999982 15.999999999999998 11.999999999999998
leaf_count=10 16 11 10 16 12
internal_value=-0.0163183 0.0270447 -0.135567 -0.0455171 -0.0927795
internal_weight=75 55 20 39 23
internal_count=75 55 20 39 23
is_linear=0
shrinkage=0.02


Tree=48
num_leaves=6
num_cat=0
split_feature=10 10 9 12 4
split_gain=931.161 1694.79 601.576 277.376 264.633
threshold=0.037659148944315206 0.072423862406889319 0.42496365334002262 0.15570470989763202 0.2005600814663952
decision_type=2 2 2 2 2
left_child=2 -2 -1 4 -3
right_child=1 3 -4 -5 -6
leaf_value=-0.023166999459266653 0.19983570039272308 -0.07165345621109008 -0.24254350662231447 -0.13543717241287231 0.049250653982162475
leaf_weight=10.000000000000002 15.999999999999998 15.000000000000002 9.9999999999999982 9.9999999999999982 13.999999999999998
leaf_count=10 16 15 10 10 14
internal_value=-0.015992 0.0265038 -0.132855 -0.0446068 -0.013286
internal_weight=75 55 20 39 29
internal_count=75 55 20 39 29
is_linear=0
shrinkage=0.02


Tree=49
num_leaves=5
num_cat=0
split_feature=12 8 11 8
split_gain=707.845 1481.82 1876.36 613.369
threshold=0.010705322708273984 0.42878151086087274 0.056947007018710374 0.55804393241026562
decision_type=2 2 2 2
left_child=-1 2 -2 -3
right_child=1 3 -4 -5
leaf_value=-0.15645442883173624 -0.051009517510732003 -0.18361169849123277 0.26035042859613894 -0.0071031991640726723
leaf_weight=11.999999999999998 15.000000000000002 13.999999999999998 15.999999999999998 18
leaf_count=12 15 14 16 18
internal_value=-0.0156721 0.0111435 0.109692 -0.0843257
internal_weight=75 63 31 32
internal_count=75 63 31 32
is_linear=0
shrinkage=0.02


Tree=50
num_leaves=5
num_cat=0
split_feature=3 9 9 11
split_gain=1194.97 1877.9 699.057 629.682
threshold=0.079452054794520541 0.45651035051814498 0.42496365334002262 0.11387382231217148
decision_type=2 2 2 2
left_child=1 -1 -2 -4
right_child=2 -3 3 -5
leaf_value=-0.044625346213579171 -0.21301310368559578 0.29483723640441895 -0.11752128516926486 0.052210835615793871
leaf_weight=16.000000000000004 10.999999999999998 10.999999999999998 17 18
leaf_count=16 11 11 17 18
internal_value=-0.0119453 0.0936742 -0.0739394 -0.0302305
internal_weight=73 27 46 35
internal_count=73 27 46 35
is_linear=0
shrinkage=0.02


Tree=51
num_leaves=6
num_cat=0
split_feature=0 7 5 12 0
split_gain=1106.52 1795.92 620.475 577.577 347.604
threshold=0.27461525572619705 0.37180010438408978 0.17709541477408589 0.044389070984592653 0.31966272834021664
decision_type=2 2 2 2 2
left_child=1 3 -2 -1 -4
right_child=2 -3 4 -5 -6
leaf_value=0.074100118219852421 0.0043953173955281581 0.24304356098175051 -0.24914697360992424 -0.12491070849554879 -0.082388792991638177
leaf_weight=10.000000000000002 14.999999999999998 13.999999999999998 10.000000000000002 13.999999999999998 9.9999999999999982
leaf_count=10 15 14 10 14 10
internal_value=-0.0117064 0.0630227 -0.0928408 -0.0419895 -0.165768
internal_weight=73 38 35 24 20
internal_count=73 38 35 24 20
is_linear=0
shrinkage=0.02


Tree=52
num_leaves=5
num_cat=0
split_feature=3 11 7 7
split_gain=1107.57 1657.27 561.222 960.978
threshold=0.079452054794520541 0.24414404955362942 0.42814421889100912 0.34177246109808729
decision_type=2 2 2 2
left_child=1 -1 3 -2
right_child=2 -3 -4 -5
leaf_value=0.26539755165576928 -0.1076708891118566 -0.049937257846196501 -0.16239788013346054 0.12960478219118984
leaf_weight=12.000000000000002 18.000000000000004 14.999999999999998 17 10.999999999999998
leaf_count=12 18 15 17 11
internal_value=-0.0114723 0.0902115 -0.0711562 -0.0176698
internal_weight=73 27 46 29
internal_count=73 27 46 29
is_linear=0
shrinkage=0.02


Tree=53
num_leaves=5
num_cat=0
split_feature=3 9 9 11
split_gain=1063.71 1793.28 655.111 587.401
threshold=0.079452054794520541 0.45651035051814498 0.42496365334002262 0.11387382231217148
decision_type=2 2 2 2
left_child=1 -1 -2 -4
right_child=2 -3 3 -5
leaf_value=-0.046740246564149851 -0.20436447246508166 0.28498559854247357 -0.11172962665557862 0.052204959260092838
leaf_weight=16.000000000000004 10.999999999999998 10.999999999999998 17 18
leaf_count=16 11 11 17 18
internal_value=-0.0112428 0.0884073 -0.0697331 -0.0274204
internal_weight=73 27 46 35
internal_count=73 27 46 35
is_linear=0
shrinkage=0.02


Tree=54
num_leaves=5
num_cat=0
split_feature=3 9 9 11
split_gain=1021.59 1722.26 629.169 564.14
threshold=0.079452054794520541 0.45651035051814498 0.42496365334002262 0.11387382231217148
decision_type=2 2 2 2
left_child=1 -1 -2 -4
right_child=2 -3 3 -5
leaf_value=-0.04580543935298919 -0.20027718441052869 0.27928588498722423 -0.10949503758374382 0.051160859796735972
leaf_weight=16.000000000000004 10.999999999999998 10.999999999999998 17 18
leaf_count=16 11 11 17 18
internal_value=-0.011018 0.0866392 -0.0683385 -0.026872
internal_weight=73 27 46 35
internal_count=73 27 46 35
is_linear=0
shrinkage=0.02


Tree=55
num_leaves=6
num_cat=0
split_feature=11 0 0 11 6
split_gain=887.969 1077.99 1412.14 491.08 182.114
threshold=0.11387382231217148 0.28390472209139606 0.23497058125938805 0.060054392703970789 0.55843577114450949
decision_type=2 2 2 2 2
left_child=3 2 -2 -1 -3
right_child=1 4 -4 -5 -6
leaf_value=-0.039727820072855261 -0.026537504673004142 -0.12648550343513484 0.30957448863983156 -0.22323267555236817 -0.0057827377319335941
leaf_weight=14.000000000000002 10.000000000000002 10.000000000000002 9.9999999999999982 9.9999999999999982 9.9999999999999982
leaf_count=14 10 10 10 10 10
internal_value=-0.020013 0.0376922 0.141518 -0.116188 -0.0661341
internal_weight=64 40 20 24 20
internal_count=64 40 20 24 20
is_linear=0
shrinkage=0.02


Tree=56
num_leaves=6
num_cat=0
split_feature=10 10 9 7 2
split_gain=841.272 987.871 1230.05 585.19 462.241
threshold=0.027998932422943303 0.098692611439457054 0.42496365334002262 0.48114289528852622 0.23861386138613863
decision_type=2 2 2 2 2
left_child=-1 2 -2 -4 -3
right_child=1 4 3 -5 -6
leaf_value=-0.18811468863487243 -0.10535080945491791 -0.18510813648050475 0.24882422740642834 0.045321275711059573 0.0027704606056213376
leaf_weight=9.9999999999999982 9.9999999999999982 11.000000000000002 13.000000000000002 9.9999999999999982 9.9999999999999982
leaf_count=10 10 11 13 10 10
internal_value=-0.0196127 0.0115914 0.0798309 0.160345 -0.0956421
internal_weight=64 54 33 23 21
internal_count=64 54 33 23 21
is_linear=0
shrinkage=0.02


Tree=57
num_leaves=5
num_cat=0
split_feature=11 0 11 5
split_gain=847.68 1030.17 472.926 263.561
threshold=0.11387382231217148 0.27461525572619705 0.060054392703970789 0.17709541477408589
decision_type=2 2 2 2
left_child=2 -2 -1 -3
right_child=1 3 -4 -5
leaf_value=-0.038154714192662913 0.1493699680434333 0.021184067726135247 -0.21823585939407347 -0.11784028808275858
leaf_weight=14.000000000000002 18 10.000000000000002 9.9999999999999982 11.999999999999998
leaf_count=14 18 10 10 12
internal_value=-0.0192204 0.0371604 -0.113189 -0.0546474
internal_weight=64 40 24 22
internal_count=64 40 24 22
is_linear=0
shrinkage=0.02


end of trees

feature_importances:
Kurtosis=36
SD=31
Skewness=31
RiseTime_mean=27
PAMP_mean=26
HarmonicRatio=25
FallTime_mean=22
FFT_BandPower_0.5_5Hz=20
PPI_std=13
PPI_mean=12
PW50_mean=9
RMS=8
Mean=6

parameters:
[boosting: gbdt]
[objective: regression]
[metric: rmse]
[tree_learner: serial]
[device_type: cpu]
[data_sample_strategy: bagging]
[data: ]
[valid: ]
[num_iterations: 1000]
[learning_rate: 0.02]
[num_leaves: 41]
[num_threads: 0]
[seed: 42]
[deterministic: 0]
[force_col_wise: 0]
[force_row_wise: 0]
[histogram_pool_size: -1]
[max_depth: -1]
[min_data_in_leaf: 10]
[min_sum_hessian_in_leaf: 0.001]
[bagging_fraction: 0.8]
[pos_bagging_fraction: 1]
[neg_bagging_fraction: 1]
[bagging_freq: 5]
[bagging_seed: 400]
[bagging_by_query: 0]
[feature_fraction: 0.8]
[feature_fraction_bynode: 1]
[feature_fraction_seed: 30056]
[extra_trees: 0]
[extra_seed: 12879]
[early_stopping_round: 0]
[early_stopping_min_delta: 0]
[first_metric_only: 0]
[max_delta_step: 0]
[lambda_l1: 0]
[lambda_l2: 0]
[linear_lambda: 0]
[min_gain_to_split: 0]
[drop_rate: 0.1]
[max_drop: 50]
[skip_drop: 0.5]
[xgboost_dart_mode: 0]
[uniform_drop: 0]
[drop_seed: 17869]
[top_rate: 0.2]
[other_rate: 0.1]
[min_data_per_group: 100]
[max_cat_threshold: 32]
[cat_l2: 10]
[cat_smooth: 10]
[max_cat_to_onehot: 4]
[top_k: 20]
[monotone_constraints: ]
[monotone_constraints_method: basic]
[monotone_penalty: 0]
[feature_contri: ]
[forcedsplits_filename: ]
[refit_decay_rate: 0.9]
[cegb_tradeoff: 1]
[cegb_penalty_split: 0]
[cegb_penalty_feature_lazy: ]
[cegb_penalty_feature_coupled: ]
[path_smooth: 0]
[interaction_constraints: ]
[verbosity: -1]
[saved_feature_importance_type: 0]
[use_quantized_grad: 0]
[num_grad_quant_bins: 4]
[quant_train_renew_leaf: 0]
[stochastic_rounding: 1]
[linear_tree: 0]
[max_bin: 255]
[max_bin_by_feature: ]
[min_data_in_bin: 3]
[bin_construct_sample_cnt: 200000]
[data_random_seed: 175]
[is_enable_sparse: 1]
[enable_bundle: 1]
[use_missing: 1]
[zero_as_missing: 0]
[feature_pre_filter: 1]
[pre_partition: 0]
[two_round: 0]
[header: 0]
[label_column: ]
[weight_column: ]
[group_column: ]
[ignore_column: ]
[categorical_feature: ]
[forcedbins_filename: ]
[precise_float_parser: 0]
[parser_config_file: ]
[objective_seed: 16083]
[num_class: 1]
[is_unbalance: 0]
[scale_pos_weight: 1]
[sigmoid: 1]
[boost_from_average: 1]
[reg_sqrt: 0]
[alpha: 0.9]
[fair_c: 1]
[poisson_max_delta_step: 0.7]
[tweedie_variance_power: 1.5]
[lambdarank_truncation_level: 30]
[lambdarank_norm: 1]
[label_gain: ]
[lambdarank_position_bias_regularization: 0]
[eval_at: ]
[multi_error_top_k: 1]
[auc_mu_weights: ]
[num_machines: 1]
[local_listen_port: 12400]
[time_out: 120]
[machine_list_filename: ]
[machines: ]
[gpu_platform_id: -1]
[gpu_device_id: -1]
[gpu_use_dp: 0]
[num_gpu: 1]

end of parameters

pandas_categorical:[]
