tree
version=v4
num_class=1
num_tree_per_iteration=1
label_index=0
max_feature_idx=12
objective=regression
feature_names=PAMP_mean PW50_mean RiseTime_mean FallTime_mean PPI_mean PPI_std Mean SD RMS Skewness Kurtosis FFT_BandPower_0.5_5Hz HarmonicRatio
feature_infos=[-1.5278784061224677:32.002159008406167] [-1.7726425782213726:14.311384208845979] [-0.88768650169464536:0.84303756574024946] [-0.79310175434916796:5.0974043037426124] [-0.72196557876679446:1.3482546958168886] [-1.3721704893727531:2.060588503467077] [-24.828914085649611:9.131324139570177] [-1.6771399392656945:32.53710184851159] [-1.6781549804892311:32.507228323043982] [-2.5870620486453344:0.82941593183046236] [-0.76563290777610804:0.8608919514339155] [-1.0326155294744321:484.79204990826759] [-0.59575008031615007:3.6768518007028819]
tree_sizes=390 498 404 497 402 530 516 405 528 419 401 486 401 400 486 514 516 499 533 518 499 496 481 497 496 515 405 516 502 502 499 511 614 497 516 403 400 402 399 400 516 514 515 516 404 501 499 503 504 499 533 513 531 400 404 403 418 403 418 418 501 497 502 405 405 613 613 610 632 520 482 514 484 500 499 402 401 401 404 404 406 403 404 405 405 513 512 516 515 512 501 500 500 518 405 515 405 406 517 407 501 502 404 517 500 500 503 517 518 518 501 519 422 500 501 404 406 420 520 550 503 504 503 505 404 517 519 518 519 515 518 517 406 519 423 518 503 518 518 517 401 403 532 404 533 407 407 407 408 407 502 503 506 518 502 404 405 403 403 486 406 406 535 503 501 501 405 503 483 407 404 600 485 406 504 406 487 407 535 487 619 503 619 488 488 534 488 486 520 406 408 406 408 520 409 523 524 524 524 504 533 507 509 509 519 490 409 617 490 491 506 509 506 509 509 501 502 506 422 538 507 508 507 508 504 491 491 623 504 504 408 406 492 541 494 492 503 620 508 618 488 492 624 491 624 638 642 508 622 492 523 507 493 508 510 407 506 408 507 408 508 508 506 509 509 508 495 506 521 508 523 491 487 505 489 493 620 510 492 510 508 510 509 492 510 604 608 606 606 606 510 491 510 510 491 502 620 508 509 508 490 508 490 491 492 522 491 490 641 488 509 506 621 508 504 509 507 509 509 510 506 639 623 505 623 490 623 521 622 539 492 492 490 491 492 491 491 490 602 489 489 490 608 504 489 526 520 524 526 510 626 491 625 626 589 503 621 488 490 491 620 493 491 489 623 491 492 487 488 490 493 504 494 491 493 620 622 633 623 622 508 508 489 506 509 508 490 506 492 637 509 509 491 525 509 506 506 507 489 622 591 591 507 591 620 509 488 509 488 604 620 634 628 633 634 494 493 492 539 495 505 502 526 522 506 506 619 521 504 504 500 494 491 493 505 603 639 509 626 510 488 507 505 506 506 623 604 621 607 637 494 494 493 493 493

Tree=0
num_leaves=3
num_cat=0
split_feature=1 1
split_gain=3960.24 1258.28
threshold=-0.63447401217882626 1.0000000180025095e-35
decision_type=2 2
left_child=-1 -2
right_child=1 -3
leaf_value=129.08623152565897 128.83767895877961 128.64105304623473
leaf_weight=17 25 27
leaf_count=17 25 27
internal_value=128.822 128.735
internal_weight=69 52
internal_count=69 52
is_linear=0
shrinkage=1


Tree=1
num_leaves=4
num_cat=0
split_feature=1 6 11
split_gain=3804.21 1217 2284.71
threshold=-0.63447401217882626 -0.23871441135200358 -0.42388342988135547
decision_type=2 2 2
left_child=-1 -2 -3
right_child=1 2 -4
leaf_value=0.25313925913202828 -0.22896392710724769 -0.19844313352004342 0.12498479578507508
leaf_weight=17 17 15.999999999999998 19
leaf_count=17 17 16 19
internal_value=-0.00567767 -0.0906527 -0.0229551
internal_weight=69 52 35
internal_count=69 52 35
is_linear=0
shrinkage=0.02


Tree=2
num_leaves=3
num_cat=0
split_feature=1 1
split_gain=3654.46 1191.98
threshold=-0.63447401217882626 1.0000000180025095e-35
decision_type=2 2
left_child=-1 -2
right_child=1 -3
leaf_value=0.24810607896213643 0.01063201020913295 -0.18073860764943367
leaf_weight=17 25 27
leaf_count=17 25 27
internal_value=-0.00556496 -0.0888513
internal_weight=69 52
internal_count=69 52
is_linear=0
shrinkage=0.02


Tree=3
num_leaves=4
num_cat=0
split_feature=1 6 11
split_gain=3510.49 1176.29 2171.45
threshold=-0.63447401217882626 -0.23871441135200358 -0.42388342988135547
decision_type=2 2 2
left_child=-1 -2 -3
right_child=1 2 -4
leaf_value=0.24317296808923197 -0.223056046893025 -0.19161979059254899 0.12368937814422927
leaf_weight=17 17 15.999999999999998 19
leaf_count=17 17 16 19
internal_value=-0.00545025 -0.08708 -0.0205302
internal_weight=69 52 35
internal_count=69 52 35
is_linear=0
shrinkage=0.02


Tree=4
num_leaves=3
num_cat=0
split_feature=9 10
split_gain=3941.64 4849.29
threshold=-0.1144763759933199 -0.32762316585947088
decision_type=2 2
left_child=-1 -2
right_child=1 -3
leaf_value=-0.18791277256512554 0.37685806504815639 -0.063612429798885997
leaf_weight=28 17 24
leaf_count=28 17 24
internal_value=-0.00534205 0.119446
internal_weight=69 41
internal_count=69 41
is_linear=0
shrinkage=0.02


Tree=5
num_leaves=4
num_cat=0
split_feature=9 4 3
split_gain=4646.64 3481.24 912.659
threshold=0.071348461346022449 -0.24174517501053336 -0.52809736996326662
decision_type=2 2 2
left_child=2 -2 -1
right_child=1 -3 -4
leaf_value=-0.03425700863696033 0.40401666856364687 -0.019134420593332799 -0.23709950413869979
leaf_weight=15.999999999999998 15.000000000000002 15.999999999999998 20
leaf_count=16 15 16 20
internal_value=0.00699478 0.186193 -0.147347
internal_weight=67 31 36
internal_count=67 31 36
is_linear=0
shrinkage=0.02


Tree=6
num_leaves=4
num_cat=0
split_feature=9 12 3
split_gain=4464.29 3733.9 418.914
threshold=-0.051588594068468087 -0.47307058525340501 -0.49162364824133592
decision_type=2 2 2
left_child=2 -2 -1
right_child=1 -3 -4
leaf_value=-0.085489157919852163 0.38686899097809874 -0.026885357352451501 -0.23146925714280869
leaf_weight=14.999999999999998 15.999999999999998 19 17
leaf_count=15 16 19 17
internal_value=0.00685648 0.162766 -0.163583
internal_weight=67 35 32
internal_count=67 35 32
is_linear=0
shrinkage=0.02


Tree=7
num_leaves=3
num_cat=0
split_feature=1 12
split_gain=2724.75 625.984
threshold=-0.63447401217882626 -0.25138254743199268
decision_type=2 2
left_child=-1 -2
right_child=1 -3
leaf_value=0.21649025207066405 -0.0031806003270934825 -0.14634743048515156
leaf_weight=18 26 23
leaf_count=18 26 23
internal_value=0.00671884 -0.0705833
internal_weight=67 49
internal_count=67 49
is_linear=0
shrinkage=0.02


Tree=8
num_leaves=4
num_cat=0
split_feature=9 2 3
split_gain=4298.97 4191.28 818.26
threshold=0.071348461346022449 -0.1862187925448964 -0.52809736996326662
decision_type=2 2 2
left_child=2 -2 -1
right_child=1 -3 -4
leaf_value=-0.034760654002242944 0.41797692952566579 -0.046217745164906752 -0.22685711030343278
leaf_weight=15.999999999999998 15.000000000000002 15.999999999999998 20
leaf_count=16 15 16 20
internal_value=0.00658527 0.17895 -0.141869
internal_weight=67 31 36
internal_count=67 31 36
is_linear=0
shrinkage=0.02


Tree=9
num_leaves=3
num_cat=0
split_feature=12 6
split_gain=2518.88 863.569
threshold=-0.47307058525340501 -0.23871441135200358
decision_type=2 2
left_child=-1 -2
right_child=1 -3
leaf_value=0.14658250403772924 -0.21807541976701347 -0.023180857179484843
leaf_weight=29 14.999999999999998 23
leaf_count=29 15 23
internal_value=0.00645506 -0.100536
internal_weight=67 38
internal_count=67 38
is_linear=0
shrinkage=0.02


Tree=10
num_leaves=3
num_cat=0
split_feature=9 4
split_gain=3504.22 5302.36
threshold=-0.1144763759933199 -0.33281629337728497
decision_type=2 2
left_child=-1 -2
right_child=1 -3
leaf_value=-0.16317634530903138 0.38074539785556372 -0.072335581359032272
leaf_weight=29 18 24
leaf_count=29 18 24
internal_value=0.00556642 0.122238
internal_weight=71 42
internal_count=71 42
is_linear=0
shrinkage=0.02


Tree=11
num_leaves=4
num_cat=0
split_feature=1 10 2
split_gain=3154.65 2512.96 443.099
threshold=-0.25111209138042295 -0.48270111365740198 1.0000000180025095e-35
decision_type=2 2 2
left_child=1 -1 -2
right_child=2 -3 -4
leaf_value=-0.039801703273204335 -0.20255968453242765 0.29419852703653698 -0.059709638943329701
leaf_weight=17 17 19 18
leaf_count=17 17 19 18
internal_value=0.00545805 0.136747 -0.12953
internal_weight=71 36 35
internal_count=71 36 35
is_linear=0
shrinkage=0.02


Tree=12
num_leaves=3
num_cat=0
split_feature=9 4
split_gain=3290.39 5033.52
threshold=-0.1144763759933199 -0.33281629337728497
decision_type=2 2
left_child=-1 -2
right_child=1 -3
leaf_value=-0.15816541475528703 0.37027358084423101 -0.071168794394528709
leaf_weight=29 18 24
leaf_count=29 18 24
internal_value=0.00534698 0.118403
internal_weight=71 42
internal_count=71 42
is_linear=0
shrinkage=0.02


Tree=13
num_leaves=3
num_cat=0
split_feature=9 4
split_gain=3160.66 4835.26
threshold=-0.1144763759933199 -0.33281629337728497
decision_type=2 2
left_child=-1 -2
right_child=1 -3
leaf_value=-0.15501297474317124 0.3629090232348573 -0.069751324416196192
leaf_weight=29 18 24
leaf_count=29 18 24
internal_value=0.00524288 0.116049
internal_weight=71 42
internal_count=71 42
is_linear=0
shrinkage=0.02


Tree=14
num_leaves=4
num_cat=0
split_feature=1 10 2
split_gain=2815.28 2378.58 418.15
threshold=-0.25111209138042295 -0.48270111365740198 1.0000000180025095e-35
decision_type=2 2 2
left_child=1 -1 -2
right_child=2 -3 -4
leaf_value=-0.042573898605435909 -0.19331260519766666 0.28235684679440798 -0.054577165572024182
leaf_weight=17 17 19 18
leaf_count=17 17 19 18
internal_value=0.00514079 0.129169 -0.122379
internal_weight=71 36 35
internal_count=71 36 35
is_linear=0
shrinkage=0.02


Tree=15
num_leaves=4
num_cat=0
split_feature=0 10 11
split_gain=3036.5 2424.51 912.12
threshold=0.10420086586566488 -0.26748857984006963 0.42275567062231095
decision_type=2 2 2
left_child=1 -1 -2
right_child=2 -3 -4
leaf_value=0.23659298600193637 -0.25198255914726003 -0.081970885920998285 -0.040761677230919259
leaf_weight=26 14.999999999999998 14.999999999999998 18
leaf_count=26 15 15 18
internal_value=0.00524418 0.120081 -0.137303
internal_weight=74 41 33
internal_count=74 41 33
is_linear=0
shrinkage=0.02


Tree=16
num_leaves=4
num_cat=0
split_feature=0 10 11
split_gain=2916.85 2328.96 876.217
threshold=0.10420086586566488 -0.26748857984006963 0.42275567062231095
decision_type=2 2 2
left_child=1 -1 -2
right_child=2 -3 -4
leaf_value=0.23187925394924203 -0.24697628624391871 -0.080342326606346298 -0.039950948156704559
leaf_weight=26 14.999999999999998 14.999999999999998 18
leaf_count=26 15 15 18
internal_value=0.00513394 0.117686 -0.134576
internal_weight=74 41 33
internal_count=74 41 33
is_linear=0
shrinkage=0.02


Tree=17
num_leaves=4
num_cat=0
split_feature=0 9 11
split_gain=2801.91 2365.67 841.728
threshold=0.10420086586566488 -0.23584750286543141 0.42275567062231095
decision_type=2 2 2
left_child=1 -1 -2
right_child=2 -3 -4
leaf_value=-0.064891168625034079 -0.24206947044031513 0.24282339610499462 -0.039156341842524908
leaf_weight=17 14.999999999999998 24 18
leaf_count=17 15 24 18
internal_value=0.00502599 0.115338 -0.131903
internal_weight=74 41 33
internal_count=74 41 33
is_linear=0
shrinkage=0.02


Tree=18
num_leaves=4
num_cat=0
split_feature=1 10 12
split_gain=2836.66 2834.36 282.822
threshold=1.0000000180025095e-35 -0.51247860925292488 -0.1539788803477655
decision_type=2 2 2
left_child=1 -1 -2
right_child=2 -3 -4
leaf_value=-0.10047254176613707 -0.081154165941735953 0.23468502475766678 -0.2029883010813732
leaf_weight=15.999999999999998 16.000000000000004 27 14.999999999999998
leaf_count=16 16 27 15
internal_value=0.00492106 0.109985 -0.140634
internal_weight=74 43 31
internal_count=74 43 31
is_linear=0
shrinkage=0.02


Tree=19
num_leaves=4
num_cat=0
split_feature=1 0 5
split_gain=2724.88 2466.54 950.098
threshold=1.0000000180025095e-35 1.0000000180025095e-35 0.44851003329012734
decision_type=2 2 2
left_child=1 -1 -2
right_child=2 -3 -4
leaf_value=0.22995619650088051 -0.25166269192632457 -0.079185916833710249 -0.030107633104975915
leaf_weight=26 15.000000000000002 17 15.999999999999998
leaf_count=26 15 17 16
internal_value=0.00481698 0.107791 -0.13784
internal_weight=74 43 31
internal_count=74 43 31
is_linear=0
shrinkage=0.02


Tree=20
num_leaves=4
num_cat=0
split_feature=9 1 6
split_gain=2018.36 3213.32 523.486
threshold=-0.1144763759933199 -0.25111209138042295 -0.49170487201433999
decision_type=2 2 2
left_child=2 -2 -1
right_child=1 -3 -4
leaf_value=-0.17195070606193796 0.26885575038978299 -0.080882601309876428 -0.012060562576378248
leaf_weight=14.999999999999998 25 18 18
leaf_count=15 25 18 18
internal_value=0.0323726 0.122559 -0.0850982
internal_weight=76 43 33
internal_count=76 43 33
is_linear=0
shrinkage=0.02


Tree=21
num_leaves=4
num_cat=0
split_feature=10 10 11
split_gain=2551.49 3808 2436.49
threshold=-0.55225596673836319 -0.26748857984006963 0.1423200010461397
decision_type=2 2 2
left_child=-1 2 -2
right_child=1 -3 -4
leaf_value=-0.20108816997894391 0.38671815174060625 -0.093850466672944832 0.052777742391441292
leaf_weight=14.999999999999998 18 26 17
leaf_count=15 18 26 17
internal_value=0.0317236 0.0892406 0.225188
internal_weight=76 61 35
internal_count=76 61 35
is_linear=0
shrinkage=0.02


Tree=22
num_leaves=4
num_cat=0
split_feature=0 9 1
split_gain=2206 2473.14 631.538
threshold=0.10420086586566488 0.087598091234302594 -0.25111209138042295
decision_type=2 2 2
left_child=1 -1 -2
right_child=2 -3 -4
leaf_value=-0.0021558188527693481 0.0061831130200659321 0.31533756509858957 -0.16126016466327361
leaf_weight=23 17 17 19
leaf_count=23 17 17 19
internal_value=0.0310924 0.133179 -0.0823362
internal_weight=76 40 36
internal_count=76 40 36
is_linear=0
shrinkage=0.02


Tree=23
num_leaves=4
num_cat=0
split_feature=10 10 11
split_gain=2424.37 3649.28 2296.19
threshold=-0.55225596673836319 -0.26748857984006963 0.1423200010461397
decision_type=2 2 2
left_child=-1 2 -2
right_child=1 -3 -4
leaf_value=-0.19646218319602363 0.376438628797373 -0.092690387763282797 0.052242544687282261
leaf_weight=14.999999999999998 18 26 17
leaf_count=15 18 26 17
internal_value=0.0304742 0.0865412 0.219626
internal_weight=76 61 35
internal_count=76 61 35
is_linear=0
shrinkage=0.02


Tree=24
num_leaves=4
num_cat=0
split_feature=10 10 11
split_gain=2329 3505.53 2205.71
threshold=-0.55225596673836319 -0.26748857984006963 0.1423200010461397
decision_type=2 2 2
left_child=-1 2 -2
right_child=1 -3 -4
leaf_value=-0.19255896533561859 0.36895145443921584 -0.090843680524963069 0.051203804016113276
leaf_weight=14.999999999999998 18 26 17
leaf_count=15 18 26 17
internal_value=0.0298679 0.0848214 0.215259
internal_weight=76 61 35
internal_count=76 61 35
is_linear=0
shrinkage=0.02


Tree=25
num_leaves=4
num_cat=0
split_feature=10 11 11
split_gain=1454.84 2441.01 3085.82
threshold=-0.55225596673836319 -0.42388342988135547 0.33511216691237578
decision_type=2 2 2
left_child=-1 -2 -3
right_child=1 2 -4
leaf_value=-0.20944367820063964 -0.13781857853391732 0.33458970517906922 -0.052791417922762873
leaf_weight=14.999999999999998 25 14.999999999999998 18
leaf_count=15 25 15 18
internal_value=-0.03457 0.0109042 0.123709
internal_weight=73 58 33
internal_count=73 58 33
is_linear=0
shrinkage=0.02


Tree=26
num_leaves=3
num_cat=0
split_feature=11 9
split_gain=1249.11 2001.43
threshold=-0.49727853434883601 -0.051588594068468087
decision_type=2 2
left_child=-1 -2
right_child=1 -3
leaf_value=-0.14484484421339069 -0.084536728005567593 0.17884081126297288
leaf_weight=26 27 20
leaf_count=26 27 20
internal_value=-0.0338809 0.0276381
internal_weight=73 47
internal_count=73 47
is_linear=0
shrinkage=0.02


Tree=27
num_leaves=4
num_cat=0
split_feature=10 11 11
split_gain=1380.02 2265.34 2945.47
threshold=-0.55225596673836319 -0.42388342988135547 0.33511216691237578
decision_type=2 2 2
left_child=-1 -2 -3
right_child=1 2 -4
leaf_value=-0.20352313000634809 -0.13218783346305329 0.3257844847480193 -0.052679256470822493
leaf_weight=14.999999999999998 25 14.999999999999998 18
leaf_count=15 25 15 18
internal_value=-0.0332047 0.0110832 0.119754
internal_weight=73 58 33
internal_count=73 58 33
is_linear=0
shrinkage=0.02


Tree=28
num_leaves=4
num_cat=0
split_feature=10 10 2
split_gain=1325.76 1926.51 1056.18
threshold=-0.55225596673836319 -0.14432547871069515 -0.22214442849013585
decision_type=2 2 2
left_child=-1 2 -2
right_child=1 -3 -4
leaf_value=-0.19947962614084713 0.21494277836983663 -0.13618190288004292 -0.0016042918060462511
leaf_weight=14.999999999999998 17 22 19
leaf_count=15 17 22 19
internal_value=-0.0325429 0.0108651 0.100911
internal_weight=73 58 36
internal_count=73 58 36
is_linear=0
shrinkage=0.02


Tree=29
num_leaves=4
num_cat=0
split_feature=10 10 2
split_gain=1273.61 1850.59 1014.61
threshold=-0.55225596673836319 -0.14432547871069515 -0.22214442849013585
decision_type=2 2 2
left_child=-1 2 -2
right_child=1 -3 -4
leaf_value=-0.19551645149458324 0.21066906231885763 -0.13347058468274942 -0.0015723702420738978
leaf_weight=14.999999999999998 17 22 19
leaf_count=15 17 22 19
internal_value=-0.0318959 0.010649 0.0989033
internal_weight=73 58 36
internal_count=73 58 36
is_linear=0
shrinkage=0.02


Tree=30
num_leaves=4
num_cat=0
split_feature=9 4 3
split_gain=2717.88 5097.67 799.343
threshold=-0.1144763759933199 -0.33281629337728497 -0.34082760499722936
decision_type=2 2 2
left_child=2 -2 -1
right_child=1 -3 -4
leaf_value=-0.030079015238368093 0.41071376156333267 -0.058066857511571833 -0.21663005633660923
leaf_weight=20 14.999999999999998 24 17
leaf_count=20 15 24 17
internal_value=0.00640479 0.122772 -0.116198
internal_weight=76 39 37
internal_count=76 39 37
is_linear=0
shrinkage=0.02


Tree=31
num_leaves=4
num_cat=0
split_feature=9 4 6
split_gain=2610.96 4897.08 739.98
threshold=-0.1144763759933199 -0.33281629337728497 -0.113479596014556
decision_type=2 2 2
left_child=2 -2 -1
right_child=1 -3 -4
leaf_value=-0.19167707115553001 0.40255386832534079 -0.056910339821423739 -0.011111192555160996
leaf_weight=21 14.999999999999998 24 15.999999999999998
leaf_count=21 15 24 16
internal_value=0.0062779 0.120333 -0.113889
internal_weight=76 39 37
internal_count=76 39 37
is_linear=0
shrinkage=0.02


Tree=32
num_leaves=5
num_cat=0
split_feature=1 2 12 0
split_gain=2059.22 1072.72 1512.21 687.866
threshold=1.0000000180025095e-35 -0.53288806787049203 -0.30518064137912099 0.28123708391833213
decision_type=2 2 2 2
left_child=1 -1 -3 -2
right_child=3 2 -4 -5
leaf_value=-0.04181057624935363 -0.026227910502856923 0.30185243154993119 0.018053010473188184 -0.21781601036127832
leaf_weight=15.999999999999998 15.000000000000002 15 15 14.999999999999998
leaf_count=16 15 15 15 15
internal_value=0.00615452 0.0901827 0.160551 -0.122494
internal_weight=76 46 30 30
internal_count=76 46 30 30
is_linear=0
shrinkage=0.02


Tree=33
num_leaves=4
num_cat=0
split_feature=9 4 3
split_gain=2474.4 4577.63 762.532
threshold=-0.1144763759933199 -0.33281629337728497 -0.34082760499722936
decision_type=2 2 2
left_child=2 -2 -1
right_child=1 -3 -4
leaf_value=-0.026850150734630984 0.38992460179802602 -0.054300318647222401 -0.20903836707622683
leaf_weight=20 14.999999999999998 24 17
leaf_count=20 15 24 17
internal_value=0.00603127 0.117065 -0.11095
internal_weight=76 39 37
internal_count=76 39 37
is_linear=0
shrinkage=0.02


Tree=34
num_leaves=4
num_cat=0
split_feature=9 4 10
split_gain=2377.05 4397.51 709.079
threshold=-0.1144763759933199 -0.33281629337728497 -0.55225596673836319
decision_type=2 2 2
left_child=2 -2 -1
right_child=1 -3 -4
leaf_value=-0.21433502383579484 0.38217774230123353 -0.053218818621022075 -0.036016838712390191
leaf_weight=14.999999999999998 14.999999999999998 24 22
leaf_count=15 15 24 22
internal_value=0.00591169 0.114739 -0.108745
internal_weight=76 39 37
internal_count=76 39 37
is_linear=0
shrinkage=0.02


Tree=35
num_leaves=3
num_cat=0
split_feature=12 2
split_gain=2078.84 1265.78
threshold=-0.47307058525340501 -0.16270542011358399
decision_type=2 2
left_child=-1 -2
right_child=1 -3
leaf_value=0.18486336865489414 -0.15439049865325652 0.047917435152250686
leaf_weight=24 22 28
leaf_count=24 22 28
internal_value=0.0322491 -0.0411886
internal_weight=74 50
internal_count=74 50
is_linear=0
shrinkage=0.02


Tree=36
num_leaves=3
num_cat=0
split_feature=0 11
split_gain=2026.99 2654.53
threshold=0.33565488771860935 -0.49727853434883601
decision_type=2 2
left_child=1 -1
right_child=-2 -3
leaf_value=-0.041558866310879523 -0.11912465698491488 0.24940448715748539
leaf_weight=25 24 25
leaf_count=25 24 25
internal_value=0.0316062 0.10409
internal_weight=74 50
internal_count=74 50
is_linear=0
shrinkage=0.02


Tree=37
num_leaves=3
num_cat=0
split_feature=12 2
split_gain=1952.65 1213.8
threshold=-0.47307058525340501 -0.16270542011358399
decision_type=2 2
left_child=-1 -2
right_child=1 -3
leaf_value=0.17888616063288137 -0.15105113888218394 0.047058769621458767
leaf_weight=24 22 28
leaf_count=24 22 28
internal_value=0.0309754 -0.0401972
internal_weight=74 50
internal_count=74 50
is_linear=0
shrinkage=0.02


Tree=38
num_leaves=3
num_cat=0
split_feature=0 11
split_gain=1936.7 2515.19
threshold=0.33565488771860935 -0.49727853434883601
decision_type=2 2
left_child=1 -1
right_child=-2 -3
leaf_value=-0.040562255752989017 -0.11697607551867537 0.24265968492781498
leaf_weight=25 24 25
leaf_count=25 24 25
internal_value=0.0303579 0.10121
internal_weight=74 50
internal_count=74 50
is_linear=0
shrinkage=0.02


Tree=39
num_leaves=3
num_cat=0
split_feature=0 7
split_gain=1860.31 1903.73
threshold=0.33565488771860935 -0.59621289411762879
decision_type=2 2
left_child=1 -1
right_child=-2 -3
leaf_value=-0.039896850370174076 -0.11464626254382471 0.20830309772406605
leaf_weight=22 24 28
leaf_count=22 24 28
internal_value=0.029752 0.0991935
internal_weight=74 50
internal_count=74 50
is_linear=0
shrinkage=0.02


Tree=40
num_leaves=4
num_cat=0
split_feature=9 3 0
split_gain=1959.84 2657.93 922.718
threshold=0.071348461346022449 -0.11924974553650149 -0.13028873230322988
decision_type=2 2 2
left_child=2 -2 -1
right_child=1 -3 -4
leaf_value=-0.19871466684025646 0.32980568996328397 -0.025461965839900267 0.0042064544400073822
leaf_weight=14.999999999999998 14.999999999999998 19 22
leaf_count=15 15 19 22
internal_value=0.0222801 0.131723 -0.0783188
internal_weight=71 34 37
internal_count=71 34 37
is_linear=0
shrinkage=0.02


Tree=41
num_leaves=4
num_cat=0
split_feature=9 3 7
split_gain=1882.71 2553.38 886.431
threshold=0.071348461346022449 -0.11924974553650149 -0.15843058804273183
decision_type=2 2 2
left_child=2 -2 -1
right_child=1 -3 -4
leaf_value=-0.19476668964158619 0.3232532531536178 -0.024955394264915224 0.0041227027888481437
leaf_weight=14.999999999999998 14.999999999999998 19 22
leaf_count=15 15 19 22
internal_value=0.021837 0.129105 -0.0767619
internal_weight=71 34 37
internal_count=71 34 37
is_linear=0
shrinkage=0.02


Tree=42
num_leaves=4
num_cat=0
split_feature=9 3 0
split_gain=1808.62 2452.95 851.572
threshold=0.071348461346022449 -0.11924974553650149 -0.13028873230322988
decision_type=2 2 2
left_child=2 -2 -1
right_child=1 -3 -4
leaf_value=-0.19089715626066095 0.31683100283540638 -0.02445889780970768 0.0040406238503450723
leaf_weight=14.999999999999998 14.999999999999998 19 22
leaf_count=15 15 19 22
internal_value=0.0214027 0.126539 -0.0752358
internal_weight=71 34 37
internal_count=71 34 37
is_linear=0
shrinkage=0.02


Tree=43
num_leaves=4
num_cat=0
split_feature=9 3 7
split_gain=1737.44 2356.46 818.084
threshold=0.071348461346022449 -0.11924974553650149 -0.15843058804273183
decision_type=2 2 2
left_child=2 -2 -1
right_child=1 -3 -4
leaf_value=-0.18710449566114817 0.31053634987761647 -0.023972278046982449 0.0039601756534560235
leaf_weight=14.999999999999998 14.999999999999998 19 22
leaf_count=15 15 19 22
internal_value=0.0209771 0.124024 -0.0737401
internal_weight=71 34 37
internal_count=71 34 37
is_linear=0
shrinkage=0.02


Tree=44
num_leaves=3
num_cat=0
split_feature=11 10
split_gain=1349.99 1734.58
threshold=-0.49727853434883601 -0.48270111365740198
decision_type=2 2
left_child=-1 -2
right_child=1 -3
leaf_value=-0.10510339336477832 -0.061111201491966763 0.18227869685434361
leaf_weight=23 20 28
leaf_count=23 20 28
internal_value=0.0205599 0.0809084
internal_weight=71 48
internal_count=71 48
is_linear=0
shrinkage=0.02


Tree=45
num_leaves=4
num_cat=0
split_feature=6 6 12
split_gain=701.003 2038.27 587.799
threshold=-0.23871441135200358 0.79818138647798487 -0.47307058525340501
decision_type=2 2 2
left_child=2 -2 -1
right_child=1 -3 -4
leaf_value=0.0062139490672520224 0.16817200618395708 -0.11807300056706475 -0.15796402701532652
leaf_weight=15.999999999999998 22 18 19
leaf_count=16 22 18 19
internal_value=-0.0177841 0.0393387 -0.0830504
internal_weight=75 40 35
internal_count=75 40 35
is_linear=0
shrinkage=0.02


Tree=46
num_leaves=4
num_cat=0
split_feature=10 10 1
split_gain=1354.97 2872.74 164.822
threshold=-0.48270111365740198 -0.32204948651079407 0.1585916453897139
decision_type=2 2 2
left_child=-1 -2 -3
right_child=1 2 -4
leaf_value=-0.13737065282832103 0.25310525966666592 -0.016830648996972092 -0.10679522264728229
leaf_weight=25 17 14.999999999999998 18
leaf_count=25 17 15 18
internal_value=-0.0174306 0.042654 -0.066137
internal_weight=75 50 33
internal_count=75 50 33
is_linear=0
shrinkage=0.02


Tree=47
num_leaves=4
num_cat=0
split_feature=10 10 2
split_gain=1301.53 2759.67 716.765
threshold=-0.48270111365740198 -0.32204948651079407 1.0000000180025095e-35
decision_type=2 2 2
left_child=-1 -2 -3
right_child=1 2 -4
leaf_value=-0.13463418751877113 0.24807275710747256 -0.16645840480627605 0.020214420303455372
leaf_weight=25 17 14.999999999999998 18
leaf_count=25 17 15 18
internal_value=-0.0170828 0.0418045 -0.064823
internal_weight=75 50 33
internal_count=75 50 33
is_linear=0
shrinkage=0.02


Tree=48
num_leaves=4
num_cat=0
split_feature=10 10 11
split_gain=1250.21 2651.03 176.676
threshold=-0.48270111365740198 -0.32204948651079407 -0.42388342988135547
decision_type=2 2 2
left_child=-1 -2 -3
right_child=1 2 -4
leaf_value=-0.13195222891184438 0.24314032035961486 -0.10825742412728874 -0.015514204842703683
leaf_weight=25 17 17 15.999999999999998
leaf_count=25 17 17 16
internal_value=-0.0167414 0.0409724 -0.0635342
internal_weight=75 50 33
internal_count=75 50 33
is_linear=0
shrinkage=0.02


Tree=49
num_leaves=4
num_cat=0
split_feature=6 6 12
split_gain=642.595 1863.9 591.392
threshold=-0.23871441135200358 0.79818138647798487 -0.47307058525340501
decision_type=2 2 2
left_child=2 -2 -1
right_child=1 -3 -4
leaf_value=0.010617208954710397 0.16148104890978715 -0.11224527353410563 -0.15404347939016932
leaf_weight=15.999999999999998 22 18 19
leaf_count=16 22 18 19
internal_value=-0.0164075 0.0382816 -0.0788972
internal_weight=75 40 35
internal_count=75 40 35
is_linear=0
shrinkage=0.02


Tree=50
num_leaves=4
num_cat=0
split_feature=1 9 10
split_gain=1614.98 1401.98 1229.35
threshold=0.1585916453897139 -0.23584750286543141 -0.33757740025502886
decision_type=2 2 2
left_child=1 -1 -3
right_child=-2 2 -4
leaf_value=-0.097341585040832901 -0.14285251060804999 0.24729349399867814 -0.00064128269422922702
leaf_weight=15.999999999999998 25 16.999999999999996 15.000000000000002
leaf_count=16 25 17 15
internal_value=-0.0128011 0.0550486 0.131372
internal_weight=73 48 32
internal_count=73 48 32
is_linear=0
shrinkage=0.02


Tree=51
num_leaves=4
num_cat=0
split_feature=9 4 9
split_gain=1523.67 1729.39 410.333
threshold=-0.23584750286543141 -0.33281629337728497 0.37302661808779941
decision_type=2 2 2
left_child=-1 -2 -3
right_child=1 2 -4
leaf_value=-0.14279431180835264 0.20674298329247953 0.035797477194805007 -0.10933671259731981
leaf_weight=24 18 15.000000000000002 15.999999999999998
leaf_count=24 18 15 16
internal_value=-0.0125455 0.05137 -0.0391569
internal_weight=73 49 31
internal_count=73 49 31
is_linear=0
shrinkage=0.02


Tree=52
num_leaves=4
num_cat=0
split_feature=1 11 11
split_gain=1524.63 1370.59 1883.51
threshold=0.1585916453897139 0.33511216691237578 -0.42388342988135547
decision_type=2 2 2
left_child=1 2 -1
right_child=-2 -3 -4
leaf_value=-0.034145696463174384 -0.13865634907764268 -0.097042040769357865 0.27260464481442986
leaf_weight=14.999999999999995 25 15.999999999999998 17.000000000000004
leaf_count=15 25 16 17
internal_value=-0.0122943 0.0536292 0.129095
internal_weight=73 48 32
internal_count=73 48 32
is_linear=0
shrinkage=0.02


Tree=53
num_leaves=3
num_cat=0
split_feature=9 10
split_gain=1453.9 1691
threshold=-0.23584750286543141 -0.26748857984006963
decision_type=2 2
left_child=-1 -2
right_child=1 -3
leaf_value=-0.13928143267809603 0.15193062132575758 -0.084992417475623555
leaf_weight=24 28 21
leaf_count=24 28 21
internal_value=-0.0120489 0.0503851
internal_weight=73 49
internal_count=73 49
is_linear=0
shrinkage=0.02


Tree=54
num_leaves=3
num_cat=0
split_feature=9 10
split_gain=1396.53 1624.31
threshold=-0.23584750286543141 -0.26748857984006963
decision_type=2 2
left_child=-1 -2
right_child=1 -3
leaf_value=-0.13650736434825722 0.14890282262898849 -0.083300629068889895
leaf_weight=24 28 21
leaf_count=24 28 21
internal_value=-0.0118099 0.0493793
internal_weight=73 49
internal_count=73 49
is_linear=0
shrinkage=0.02


Tree=55
num_leaves=3
num_cat=0
split_feature=11 11
split_gain=881.084 1682.31
threshold=-0.49727853434883601 0.1423200010461397
decision_type=2 2
left_child=-1 -2
right_child=1 -3
leaf_value=-0.11505872067574149 0.16728015612606978 -0.091480251384611744
leaf_weight=24 20 20
leaf_count=24 20 20
internal_value=-0.0194904 0.0379446
internal_weight=64 40
internal_count=64 40
is_linear=0
shrinkage=0.02


Tree=56
num_leaves=3
num_cat=0
split_feature=10 0
split_gain=905.779 1442.52
threshold=-0.50952541324307721 0.28123708391833213
decision_type=2 2
left_child=-1 -2
right_child=1 -3
leaf_value=-0.14894346220846871 0.11688097530412504 -0.10501465414293963
leaf_weight=15.999999999999998 28 20
leaf_count=16 28 20
internal_value=-0.0191019 0.0243568
internal_weight=64 48
internal_count=64 48
is_linear=0
shrinkage=0.02


Tree=57
num_leaves=3
num_cat=0
split_feature=11 11
split_gain=863.378 1602.54
threshold=-0.49727853434883601 0.1423200010461397
decision_type=2 2
left_child=-1 -2
right_child=1 -3
leaf_value=-0.11332833279217923 0.16435988076290681 -0.088190811036238034
leaf_weight=24 20 20
leaf_count=24 20 20
internal_value=-0.0187241 0.0381296
internal_weight=64 40
internal_count=64 40
is_linear=0
shrinkage=0.02


Tree=58
num_leaves=3
num_cat=0
split_feature=10 0
split_gain=880.003 1379.38
threshold=-0.50952541324307721 0.28123708391833213
decision_type=2 2
left_child=-1 -2
right_child=1 -3
leaf_value=-0.14633264725993139 0.11495981956291879 -0.10202487756956868
leaf_weight=15.999999999999998 28 20
leaf_count=16 28 20
internal_value=-0.0183508 0.0244838
internal_weight=64 48
internal_count=64 48
is_linear=0
shrinkage=0.02


Tree=59
num_leaves=3
num_cat=0
split_feature=10 0
split_gain=845.339 1324.99
threshold=-0.50952541324307721 0.28123708391833213
decision_type=2 2
left_child=-1 -2
right_child=1 -3
leaf_value=-0.14342416964702726 0.11266880618295635 -0.09999452647878164
leaf_weight=15.999999999999998 28 20
leaf_count=16 28 20
internal_value=-0.0179879 0.0239938
internal_weight=64 48
internal_count=64 48
is_linear=0
shrinkage=0.02


Tree=60
num_leaves=4
num_cat=0
split_feature=0 11 12
split_gain=1191.56 3042.33 721.891
threshold=0.10420086586566488 -0.49727853434883601 -0.18081165315348824
decision_type=2 2 2
left_child=1 -1 -2
right_child=2 -3 -4
leaf_value=-0.055893198742586025 -0.14807067494117776 0.30564394749839852 0.030873827237134784
leaf_weight=22 19 15.999999999999998 17
leaf_count=22 19 16 17
internal_value=0.0186696 0.0966831 -0.0636623
internal_weight=74 38 36
internal_count=74 38 36
is_linear=0
shrinkage=0.02


Tree=61
num_leaves=4
num_cat=0
split_feature=0 8 12
split_gain=1144.64 1610 693.468
threshold=0.10420086586566488 -0.93595251920796552 -0.18081165315348824
decision_type=2 2 2
left_child=1 -1 -2
right_child=2 -3 -4
leaf_value=-0.066092238236736781 -0.14512476723855702 0.19958474290770883 0.030259959349158212
leaf_weight=14.999999999999998 19 23 17
leaf_count=15 19 23 17
internal_value=0.0182993 0.0947615 -0.0623944
internal_weight=74 38 36
internal_count=74 38 36
is_linear=0
shrinkage=0.02


Tree=62
num_leaves=4
num_cat=0
split_feature=0 11 2
split_gain=1099.47 2863.54 667.956
threshold=0.10420086586566488 -0.49727853434883601 1.0000000180025095e-35
decision_type=2 2 2
left_child=1 -1 -2
right_child=2 -3 -4
leaf_value=-0.055147552727574135 -0.14234656179138502 0.29560213199313384 0.029780154228210447
leaf_weight=22 19 15.999999999999998 17
leaf_count=22 19 16 17
internal_value=0.0179333 0.0928723 -0.0611518
internal_weight=74 38 36
internal_count=74 38 36
is_linear=0
shrinkage=0.02


Tree=63
num_leaves=3
num_cat=0
split_feature=10 10
split_gain=1278.17 2307.17
threshold=-0.26748857984006963 -0.48270111365740198
decision_type=2 2
left_child=1 -1
right_child=-2 -3
leaf_value=-0.059110791724481623 -0.088736136205680008 0.22361204584955652
leaf_weight=23 28 23
leaf_count=23 28 23
internal_value=0.0175775 0.0823857
internal_weight=74 46
internal_count=74 46
is_linear=0
shrinkage=0.02


Tree=64
num_leaves=3
num_cat=0
split_feature=10 10
split_gain=1227.74 2216.22
threshold=-0.26748857984006963 -0.48270111365740198
decision_type=2 2
left_child=1 -1
right_child=-2 -3
leaf_value=-0.057933691538773577 -0.086967732320900923 0.21915916046538911
leaf_weight=23 28 23
leaf_count=23 28 23
internal_value=0.0172269 0.0807442
internal_weight=74 46
internal_count=74 46
is_linear=0
shrinkage=0.02


Tree=65
num_leaves=5
num_cat=0
split_feature=10 10 11 2
split_gain=2047.71 2102.46 1406.83 540.436
threshold=-0.55225596673836319 -0.26748857984006963 0.1423200010461397 0.042783723131067111
decision_type=2 2 2 2
left_child=-1 2 -2 -3
right_child=1 3 -4 -5
leaf_value=-0.20229210427088767 0.2866588710623178 -0.14880451148341162 0.029396709531371357 0.015135518393901565
leaf_weight=15.999999999999998 17 15.999999999999998 17 15.999999999999998
leaf_count=16 17 16 17 16
internal_value=-5.15517e-06 0.0492357 0.15855 -0.0669804
internal_weight=82 66 34 32
internal_count=82 66 34 32
is_linear=0
shrinkage=0.02


Tree=66
num_leaves=5
num_cat=0
split_feature=10 10 11 2
split_gain=1967.12 2019.7 1351.41 519.18
threshold=-0.55225596673836319 -0.26748857984006963 0.1423200010461397 0.042783723131067111
decision_type=2 2 2 2
left_child=-1 2 -2 -3
right_child=1 3 -4 -5
leaf_value=-0.19827138432804842 0.28095921608439661 -0.14584691263689017 0.028812213696931536 0.014834692937246761
leaf_weight=15.999999999999998 17 15.999999999999998 17 15.999999999999998
leaf_count=16 17 16 17 16
internal_value=-4.56243e-06 0.0482571 0.155399 -0.0656479
internal_weight=82 66 34 32
internal_count=82 66 34 32
is_linear=0
shrinkage=0.02


Tree=67
num_leaves=5
num_cat=0
split_feature=10 10 11 2
split_gain=1889.7 1940.2 1298.18 498.759
threshold=-0.55225596673836319 -0.26748857984006963 0.1423200010461397 0.042783723131067111
decision_type=2 2 2 2
left_child=-1 2 -2 -3
right_child=1 3 -4 -5
leaf_value=-0.1943305926589492 0.27537289686370314 -0.14294808707298329 0.028239340280231673 0.014539838014922526
leaf_weight=15.999999999999998 17 15.999999999999998 17 15.999999999999998
leaf_count=16 17 16 17 16
internal_value=-3.97194e-06 0.047298 0.15231 -0.0643418
internal_weight=82 66 34 32
internal_count=82 66 34 32
is_linear=0
shrinkage=0.02


Tree=68
num_leaves=5
num_cat=0
split_feature=10 10 12 2
split_gain=1815.33 1863.83 1192.76 479.142
threshold=-0.55225596673836319 -0.26748857984006963 -0.37740406472193178 0.042783723131067111
decision_type=2 2 2 2
left_child=-1 2 -2 -3
right_child=1 3 -4 -5
leaf_value=-0.19046811838327726 0.2820169371800707 -0.14010688374871794 0.043459968317241568 0.014250846708783451
leaf_weight=15.999999999999998 14.999999999999998 15.999999999999998 19 15.999999999999998
leaf_count=16 15 16 19 16
internal_value=-3.38314e-06 0.0463579 0.149283 -0.0630618
internal_weight=82 66 34 32
internal_count=82 66 34 32
is_linear=0
shrinkage=0.02


Tree=69
num_leaves=4
num_cat=0
split_feature=11 11 7
split_gain=709.83 1465.36 173.725
threshold=-0.49727853434883601 0.1423200010461397 0.68268243857450395
decision_type=2 2 2
left_child=-1 -2 -3
right_child=1 2 -4
leaf_value=-0.081575084513192508 0.16295417900209302 -0.095995885599527903 -0.0012806088583809986
leaf_weight=28 23 15.000000000000002 15.999999999999998
leaf_count=28 23 15 16
internal_value=-2.11955e-06 0.0423306 -0.0473362
internal_weight=82 54 31
internal_count=82 54 31
is_linear=0
shrinkage=0.02


Tree=70
num_leaves=4
num_cat=0
split_feature=10 10 6
split_gain=1338.59 2600.52 1705.55
threshold=-0.52925602069156941 -0.14432547871069515 -0.51596575007167089
decision_type=2 2 2
left_child=-1 2 -2
right_child=1 -3 -4
leaf_value=-0.14669205671165422 0.020410938063217081 -0.13424823186784515 0.29193816279838092
leaf_weight=17 19 19 18
leaf_count=17 19 19 18
internal_value=0.0081991 0.0554329 0.15299
internal_weight=73 56 37
internal_count=73 56 37
is_linear=0
shrinkage=0.02


Tree=71
num_leaves=4
num_cat=0
split_feature=3 10 1
split_gain=1348.66 1447.78 806.919
threshold=0.17866240295655236 -0.48270111365740198 -0.15087058919697974
decision_type=2 2 2
left_child=1 -1 -3
right_child=-2 2 -4
leaf_value=-0.053636966920903813 -0.14743693853679457 0.2531884890044761 0.045519228518403912
leaf_weight=26 17 15.000000000000002 14.999999999999998
leaf_count=26 17 15 15
internal_value=0.00803543 0.0554467 0.149916
internal_weight=73 56 30
internal_count=73 56 30
is_linear=0
shrinkage=0.02


Tree=72
num_leaves=4
num_cat=0
split_feature=10 10 11
split_gain=1259.71 2468.4 1875.61
threshold=-0.52925602069156941 -0.14432547871069515 0.1423200010461397
decision_type=2 2 2
left_child=-1 2 -2
right_child=1 -3 -4
leaf_value=-0.14237978489078276 0.27952852073593515 -0.13109941822071974 -0.0057329107725132278
leaf_weight=17 20 19 17
leaf_count=17 20 19 17
internal_value=0.00787684 0.0536986 0.148746
internal_weight=73 56 37
internal_count=73 56 37
is_linear=0
shrinkage=0.02


Tree=73
num_leaves=4
num_cat=0
split_feature=3 9 1
split_gain=1283.08 978.195 547.011
threshold=0.17866240295655236 0.087598091234302594 -0.42808956749345556
decision_type=2 2 2
left_child=1 2 -1
right_child=-2 -3 -4
leaf_value=-0.10029395174506485 -0.14392689901485778 0.16573582587550528 0.057367800445918223
leaf_weight=14.999999999999998 17 20 21
leaf_count=15 17 20 21
internal_value=0.00771768 0.0539628 -0.00836504
internal_weight=73 56 36
internal_count=73 56 36
is_linear=0
shrinkage=0.02


Tree=74
num_leaves=4
num_cat=0
split_feature=3 9 1
split_gain=1232.55 939.665 525.478
threshold=0.17866240295655236 0.087598091234302594 -0.42808956749345556
decision_type=2 2 2
left_child=1 2 -1
right_child=-2 -3 -4
leaf_value=-0.09830135875979798 -0.14106519482986271 0.16243761086345312 0.056225880310998705
leaf_weight=14.999999999999998 17 20 21
leaf_count=15 17 20 21
internal_value=0.0075622 0.0528879 -0.00819902
internal_weight=73 56 36
internal_count=73 56 36
is_linear=0
shrinkage=0.02


Tree=75
num_leaves=3
num_cat=0
split_feature=3 11
split_gain=1009.78 2123.49
threshold=-0.11924974553650149 0.1423200010461397
decision_type=2 2
left_child=1 -1
right_child=-2 -3
leaf_value=0.20912750681083037 -0.067369945245919771 -0.056653107729825111
leaf_weight=25 29 23
leaf_count=25 29 23
internal_value=0.0256284 0.0818797
internal_weight=77 48
internal_count=77 48
is_linear=0
shrinkage=0.02


Tree=76
num_leaves=3
num_cat=0
split_feature=3 11
split_gain=969.933 2039.75
threshold=-0.11924974553650149 0.1423200010461397
decision_type=2 2
left_child=1 -1
right_child=-2 -3
leaf_value=0.20496161973808863 -0.066027176888128328 -0.055524950233888835
leaf_weight=25 29 23
leaf_count=25 29 23
internal_value=0.025117 0.0802476
internal_weight=77 48
internal_count=77 48
is_linear=0
shrinkage=0.02


Tree=77
num_leaves=3
num_cat=0
split_feature=3 11
split_gain=931.657 1959.32
threshold=-0.11924974553650149 0.1423200010461397
decision_type=2 2
left_child=1 -1
right_child=-2 -3
leaf_value=0.20087872170832055 -0.064711171855631563 -0.054419258580063322
leaf_weight=25 29 23
leaf_count=25 29 23
internal_value=0.0246158 0.078648
internal_weight=77 48
internal_count=77 48
is_linear=0
shrinkage=0.02


Tree=78
num_leaves=3
num_cat=0
split_feature=11 11
split_gain=837.373 1512.31
threshold=0.33511216691237578 -0.49727853434883601
decision_type=2 2
left_child=1 -1
right_child=-2 -3
leaf_value=-0.040863439337353862 -0.079881342309632453 0.16856863472809572
leaf_weight=27 22 28
leaf_count=27 22 28
internal_value=0.0241245 0.0658327
internal_weight=77 55
internal_count=77 55
is_linear=0
shrinkage=0.02


Tree=79
num_leaves=3
num_cat=0
split_feature=11 11
split_gain=804.343 1452.65
threshold=0.33511216691237578 -0.49727853434883601
decision_type=2 2
left_child=1 -1
right_child=-2 -3
leaf_value=-0.040049184881893032 -0.078290943452136011 0.16520925999536207
leaf_weight=27 22 28
leaf_count=27 22 28
internal_value=0.0236422 0.0645199
internal_weight=77 55
internal_count=77 55
is_linear=0
shrinkage=0.02


Tree=80
num_leaves=3
num_cat=0
split_feature=10 10
split_gain=618.795 2006.65
threshold=-0.26748857984006963 -0.44497125211398131
decision_type=2 2
left_child=1 -1
right_child=-2 -3
leaf_value=-0.064903343049362572 -0.077132647495052137 0.19882889685939201
leaf_weight=27 24 20
leaf_count=27 24 20
internal_value=0.00526981 0.0474645
internal_weight=71 47
internal_count=71 47
is_linear=0
shrinkage=0.02


Tree=81
num_leaves=3
num_cat=0
split_feature=9 0
split_gain=984.279 937.612
threshold=-0.23584750286543141 0.10420086586566488
decision_type=2 2
left_child=-1 -2
right_child=1 -3
leaf_value=-0.086906862700112775 0.16050113542102523 -0.025939716062934149
leaf_weight=28 21 22
leaf_count=28 21 22
internal_value=0.00516489 0.0652275
internal_weight=71 43
internal_count=71 43
is_linear=0
shrinkage=0.02


Tree=82
num_leaves=3
num_cat=0
split_feature=10 10
split_gain=596.01 1913.12
threshold=-0.26748857984006963 -0.44497125211398131
decision_type=2 2
left_child=1 -1
right_child=-2 -3
leaf_value=-0.063243841086806404 -0.075808646558973306 0.19426819331610379
leaf_weight=27 24 20
leaf_count=27 24 20
internal_value=0.0050618 0.0464731
internal_weight=71 47
internal_count=71 47
is_linear=0
shrinkage=0.02


Tree=83
num_leaves=3
num_cat=0
split_feature=9 10
split_gain=938.674 1003.87
threshold=-0.23584750286543141 -0.26748857984006963
decision_type=2 2
left_child=-1 -2
right_child=1 -3
leaf_value=-0.084951630113812113 0.14156792677225283 -0.055617271783756229
leaf_weight=28 26 17
leaf_count=28 26 17
internal_value=0.00496099 0.0636164
internal_weight=71 43
internal_count=71 43
is_linear=0
shrinkage=0.02


Tree=84
num_leaves=3
num_cat=0
split_feature=10 10
split_gain=552.781 1820.99
threshold=-0.26748857984006963 -0.44497125211398131
decision_type=2 2
left_child=1 -1
right_child=-2 -3
leaf_value=-0.062296948239372228 -0.073020628510174421 0.1889372466452679
leaf_weight=27 24 20
leaf_count=27 24 20
internal_value=0.00486068 0.0447429
internal_weight=71 47
internal_count=71 47
is_linear=0
shrinkage=0.02


Tree=85
num_leaves=4
num_cat=0
split_feature=9 10 8
split_gain=901.602 859.09 176.25
threshold=0.071348461346022449 -0.26748857984006963 0.28692169439105536
decision_type=2 2 2
left_child=2 -2 -1
right_child=1 -3 -4
leaf_value=0.004386965268031116 0.21270017434351193 0.0055997860653800259 -0.08199574559752705
leaf_weight=21 15.999999999999998 15.999999999999998 17
leaf_count=21 16 16 17
internal_value=0.0314846 0.109552 -0.0343192
internal_weight=70 32 38
internal_count=70 32 38
is_linear=0
shrinkage=0.02


Tree=86
num_leaves=4
num_cat=0
split_feature=0 0 1
split_gain=1090.46 554.25 259.561
threshold=0.10420086586566488 -0.67486508892392161 -0.25111209138042295
decision_type=2 2 2
left_child=1 -1 -2
right_child=2 -3 -4
leaf_value=0.03533454118512612 0.014152895175151944 0.19725374082600847 -0.093629595794487944
leaf_weight=18 15.999999999999998 15.999999999999998 20
leaf_count=18 16 16 20
internal_value=0.0308594 0.111945 -0.0457644
internal_weight=70 34 36
internal_count=70 34 36
is_linear=0
shrinkage=0.02


Tree=87
num_leaves=4
num_cat=0
split_feature=0 9 1
split_gain=1047.53 1256.75 249.344
threshold=0.10420086586566488 0.071348461346022449 -0.25111209138042295
decision_type=2 2 2
left_child=1 -1 -2
right_child=2 -3 -4
leaf_value=-0.0049722686261761909 0.013871594571178742 0.23810540018614773 -0.091766321623503275
leaf_weight=18 15.999999999999998 15.999999999999998 20
leaf_count=18 16 16 20
internal_value=0.0302472 0.109721 -0.0448524
internal_weight=70 34 36
internal_count=70 34 36
is_linear=0
shrinkage=0.02


Tree=88
num_leaves=4
num_cat=0
split_feature=0 9 1
split_gain=1006.26 1207.31 239.529
threshold=0.10420086586566488 0.071348461346022449 -0.25111209138042295
decision_type=2 2 2
left_child=1 -1 -2
right_child=2 -3 -4
leaf_value=-0.0048733743119634973 0.01359588747439177 0.23337286637691051 -0.089940125455903769
leaf_weight=18 15.999999999999998 15.999999999999998 20
leaf_count=18 16 16 20
internal_value=0.0296461 0.107539 -0.0439585
internal_weight=70 34 36
internal_count=70 34 36
is_linear=0
shrinkage=0.02


Tree=89
num_leaves=4
num_cat=0
split_feature=0 9 1
split_gain=966.62 1159.82 230.1
threshold=0.10420086586566488 0.071348461346022449 -0.25111209138042295
decision_type=2 2 2
left_child=1 -1 -2
right_child=2 -3 -4
leaf_value=-0.0047764439872615243 0.013325658673825472 0.22873440226782923 -0.088150270447802201
leaf_weight=18 15.999999999999998 15.999999999999998 20
leaf_count=18 16 16 20
internal_value=0.029057 0.105401 -0.0430825
internal_weight=70 34 36
internal_count=70 34 36
is_linear=0
shrinkage=0.02


Tree=90
num_leaves=4
num_cat=0
split_feature=9 11 6
split_gain=952.665 921.663 1216.39
threshold=-0.23584750286543141 -0.58439477960089137 -0.55481148959067361
decision_type=2 2 2
left_child=-1 -2 -3
right_child=1 2 -4
leaf_value=-0.095604223814723333 -0.065444094726393884 -0.0208607609619368 0.22245347160002144
leaf_weight=28 18 14.999999999999998 18
leaf_count=28 18 15 18
internal_value=-0.00204307 0.0493713 0.112067
internal_weight=79 51 33
internal_count=79 51 33
is_linear=0
shrinkage=0.02


Tree=91
num_leaves=4
num_cat=0
split_feature=9 11 6
split_gain=915.076 885.36 1168.52
threshold=-0.23584750286543141 -0.58439477960089137 -0.55481148959067361
decision_type=2 2 2
left_child=-1 -2 -3
right_child=1 2 -4
leaf_value=-0.0936989417025203 -0.064142444805545692 -0.020446311669633878 0.21802898140902016
leaf_weight=28 18 14.999999999999998 18
leaf_count=28 18 15 18
internal_value=-0.00200168 0.0483876 0.109836
internal_weight=79 51 33
internal_count=79 51 33
is_linear=0
shrinkage=0.02


Tree=92
num_leaves=4
num_cat=0
split_feature=9 11 11
split_gain=878.97 850.487 925.46
threshold=-0.23584750286543141 -0.58439477960089137 0.1423200010461397
decision_type=2 2 2
left_child=-1 -2 -3
right_child=1 2 -4
leaf_value=-0.091831628724773587 -0.062866680424516361 0.20994687759388261 -0.0015442759650094165
leaf_weight=28 18 17 15.999999999999998
leaf_count=28 18 17 16
internal_value=-0.00196115 0.0474235 0.10765
internal_weight=79 51 33
internal_count=79 51 33
is_linear=0
shrinkage=0.02


Tree=93
num_leaves=4
num_cat=0
split_feature=10 10 12
split_gain=845.201 1608.43 1065.4
threshold=-0.55225596673836319 -0.26748857984006963 -0.47307058525340501
decision_type=2 2 2
left_child=-1 2 -2
right_child=1 -3 -4
leaf_value=-0.13655571072306857 0.24470078885160537 -0.087375467967283238 0.026286306445954609
leaf_weight=14.999999999999998 14.999999999999998 27 22
leaf_count=15 15 27 22
internal_value=-0.00192108 0.0297665 0.115308
internal_weight=79 64 37
internal_count=79 64 37
is_linear=0
shrinkage=0.02


Tree=94
num_leaves=3
num_cat=0
split_feature=9 10
split_gain=825.865 825.427
threshold=-0.23584750286543141 -0.32204948651079407
decision_type=2 2
left_child=-1 -2
right_child=1 -3
leaf_value=-0.08899509467264087 0.12166850674196363 -0.039221501320724168
leaf_weight=28 27 24
leaf_count=28 27 24
internal_value=-0.00188096 0.0459878
internal_weight=79 51
internal_count=79 51
is_linear=0
shrinkage=0.02


Tree=95
num_leaves=4
num_cat=0
split_feature=9 4 0
split_gain=613.558 1233.28 547.84
threshold=-0.1144763759933199 -0.24174517501053336 -0.13028873230322988
decision_type=2 2 2
left_child=2 -2 -1
right_child=1 -3 -4
leaf_value=-0.15796094876638847 0.16316001312508768 -0.06186311597507712 0.0098471280281117422
leaf_weight=16.000000000000004 18 21 14.999999999999998
leaf_count=16 18 21 15
internal_value=-0.0106219 0.0420942 -0.0769286
internal_weight=70 39 31
internal_count=70 39 31
is_linear=0
shrinkage=0.02


Tree=96
num_leaves=3
num_cat=0
split_feature=10 10
split_gain=618.724 1278.35
threshold=-0.26748857984006963 -0.44497125211398131
decision_type=2 2
left_child=1 -1
right_child=-2 -3
leaf_value=-0.06023672786491046 -0.085298867172860574 0.15882448316244555
leaf_weight=24 27 19
leaf_count=24 27 19
internal_value=-0.0104102 0.0366553
internal_weight=70 43
internal_count=70 43
is_linear=0
shrinkage=0.02


Tree=97
num_leaves=3
num_cat=0
split_feature=10 10
split_gain=594.323 1227.98
threshold=-0.26748857984006963 -0.44497125211398131
decision_type=2 2
left_child=1 -1
right_child=-2 -3
leaf_value=-0.059036992813047036 -0.083599186093164982 0.15566462386965127
leaf_weight=24 27 19
leaf_count=24 27 19
internal_value=-0.0102016 0.0359258
internal_weight=70 43
internal_count=70 43
is_linear=0
shrinkage=0.02


Tree=98
num_leaves=4
num_cat=0
split_feature=9 4 0
split_gain=583.958 1166.08 521.66
threshold=-0.1144763759933199 -0.24174517501053336 -0.13028873230322988
decision_type=2 2 2
left_child=2 -2 -1
right_child=1 -3 -4
leaf_value=-0.15375898065033902 0.15915140001813352 -0.059654774253402272 0.0099859912190216268
leaf_weight=16.000000000000004 18 21 14.999999999999998
leaf_count=16 18 21 15
internal_value=-0.00999724 0.0414303 -0.0746859
internal_weight=70 39 31
internal_count=70 39 31
is_linear=0
shrinkage=0.02


Tree=99
num_leaves=3
num_cat=0
split_feature=10 10
split_gain=563.204 1173.43
threshold=-0.26748857984006963 -0.44497125211398131
decision_type=2 2
left_child=1 -1
right_child=-2 -3
leaf_value=-0.057723877261783081 -0.081248933226419989 0.15215459184496813
leaf_weight=24 27 19
leaf_count=24 27 19
internal_value=-0.00979799 0.0351046
internal_weight=70 43
internal_count=70 43
is_linear=0
shrinkage=0.02


Tree=100
num_leaves=4
num_cat=0
split_feature=0 11 2
split_gain=1150.36 1778.25 109.749
threshold=0.10420086586566488 -0.49727853434883601 -0.13193699224807476
decision_type=2 2 2
left_child=1 -1 -2
right_child=2 -3 -4
leaf_value=-0.029698398231920612 -0.10653198813834384 0.24201298745752078 -0.033121405950984596
leaf_weight=22 17 17 15.999999999999998
leaf_count=22 17 17 16
internal_value=0.0155497 0.0890048 -0.071207
internal_weight=72 39 33
internal_count=72 39 33
is_linear=0
shrinkage=0.02


Tree=101
num_leaves=4
num_cat=0
split_feature=0 11 1
split_gain=1105.08 1708.25 111.631
threshold=0.10420086586566488 -0.49727853434883601 -0.25111209138042295
decision_type=2 2 2
left_child=1 -1 -2
right_child=2 -3 -4
leaf_value=-0.029107117998114537 -0.029028321449330312 0.23720103574775114 -0.10330410243397918
leaf_weight=22 14.999999999999998 17 18
leaf_count=22 15 17 18
internal_value=0.0152391 0.0872345 -0.0697925
internal_weight=72 39 33
internal_count=72 39 33
is_linear=0
shrinkage=0.02


Tree=102
num_leaves=3
num_cat=0
split_feature=11 11
split_gain=1075.75 1812.81
threshold=0.33511216691237578 -0.49727853434883601
decision_type=2 2
left_child=1 -1
right_child=-2 -3
leaf_value=-0.052257139947679311 -0.10519260548867321 0.18582750869462214
leaf_weight=26 21 25
leaf_count=26 21 25
internal_value=0.0149347 0.0645471
internal_weight=72 51
internal_count=72 51
is_linear=0
shrinkage=0.02


Tree=103
num_leaves=4
num_cat=0
split_feature=0 3 1
split_gain=1044.19 1470.42 108.13
threshold=0.10420086586566488 1.0000000180025095e-35 -0.25111209138042295
decision_type=2 2 2
left_child=1 -1 -2
right_child=2 -3 -4
leaf_value=0.18144549247140213 -0.02790350996105876 -0.070342713823381642 -0.10099901971237435
leaf_weight=24 14.999999999999998 14.999999999999998 18
leaf_count=24 15 15 18
internal_value=0.0146357 0.0846205 -0.0680189
internal_weight=72 39 33
internal_count=72 39 33
is_linear=0
shrinkage=0.02


Tree=104
num_leaves=4
num_cat=0
split_feature=11 11 5
split_gain=1011.07 1756.32 711.801
threshold=0.33511216691237578 -0.36099303986450065 -0.25479377099916722
decision_type=2 2 2
left_child=1 2 -1
right_child=-2 -3 -4
leaf_value=-0.1232108943825526 -0.10211816921053339 0.22778859210990327 0.060521920338975195
leaf_weight=14.999999999999998 21 17 19
leaf_count=15 21 17 19
internal_value=0.0143409 0.0624397 -0.0206016
internal_weight=72 51 34
internal_count=72 51 34
is_linear=0
shrinkage=0.02


Tree=105
num_leaves=4
num_cat=0
split_feature=10 12 2
split_gain=998.96 774.72 1366.41
threshold=-0.55225596673836319 -0.35225200883817215 0.042783723131067111
decision_type=2 2 2
left_child=-1 -2 -3
right_child=1 2 -4
leaf_value=-0.1660925664964891 0.11339391681255322 -0.15722896081614868 0.082001060615659385
leaf_weight=14.999999999999998 21 19 19
leaf_count=15 21 19 19
internal_value=-0.0209209 0.0161719 -0.0376602
internal_weight=74 59 38
internal_count=74 59 38
is_linear=0
shrinkage=0.02


Tree=106
num_leaves=4
num_cat=0
split_feature=10 12 2
split_gain=959.655 744.181 1312.59
threshold=-0.55225596673836319 -0.35225200883817215 0.042783723131067111
decision_type=2 2 2
left_child=-1 -2 -3
right_child=1 2 -4
leaf_value=-0.16279271252107935 0.11113678733319468 -0.15410084265064819 0.080369626470885344
leaf_weight=14.999999999999998 21 19 19
leaf_count=15 21 19 19
internal_value=-0.0205054 0.0158497 -0.0369099
internal_weight=74 59 38
internal_count=74 59 38
is_linear=0
shrinkage=0.02


Tree=107
num_leaves=4
num_cat=0
split_feature=11 10 11
split_gain=923.168 1489.56 2025.06
threshold=-0.49727853434883601 -0.52925602069156941 0.1423200010461397
decision_type=2 2 2
left_child=-1 -2 -3
right_child=1 2 -4
leaf_value=-0.12180604095775557 -0.13728693387366289 0.27512158182283114 -0.031494997532213506
leaf_weight=24 14.999999999999998 14.999999999999998 20
leaf_count=24 15 15 20
internal_value=-0.0200981 0.0288274 0.100265
internal_weight=74 50 35
internal_count=74 50 35
is_linear=0
shrinkage=0.02


Tree=108
num_leaves=4
num_cat=0
split_feature=10 11 11
split_gain=891.657 1524.29 1944.52
threshold=-0.55225596673836319 -0.49727853434883601 0.1423200010461397
decision_type=2 2 2
left_child=-1 -2 -3
right_child=1 2 -4
leaf_value=-0.15685137268723243 -0.11151077634586401 0.26965558989947996 -0.027725219297183065
leaf_weight=14.999999999999998 23 14.999999999999998 21
leaf_count=15 23 15 21
internal_value=-0.0196971 0.0153451 0.0965318
internal_weight=74 59 36
internal_count=74 59 36
is_linear=0
shrinkage=0.02


Tree=109
num_leaves=4
num_cat=0
split_feature=10 11 11
split_gain=856.593 1464.25 1868.03
threshold=-0.55225596673836319 -0.49727853434883601 0.1423200010461397
decision_type=2 2 2
left_child=-1 -2 -3
right_child=1 2 -4
leaf_value=-0.15373511996490277 -0.10929021628388079 0.26429819811258887 -0.027173342885564288
leaf_weight=14.999999999999998 23 14.999999999999998 21
leaf_count=15 23 15 21
internal_value=-0.0193044 0.0150413 0.0946134
internal_weight=74 59 36
internal_count=74 59 36
is_linear=0
shrinkage=0.02


Tree=110
num_leaves=4
num_cat=0
split_feature=5 5 1
split_gain=659.559 707.07 752.831
threshold=-0.72654601883961256 0.61378477915395158 -0.15087058919697974
decision_type=2 2 2
left_child=-1 2 -2
right_child=1 -3 -4
leaf_value=0.081405157262121719 -0.023925376337860262 0.048591941525199397 -0.20712174716748688
leaf_weight=17 19 15.999999999999998 17
leaf_count=17 19 16 17
internal_value=-0.0263733 -0.0617356 -0.110824
internal_weight=69 52 36
internal_count=69 52 36
is_linear=0
shrinkage=0.02


Tree=111
num_leaves=4
num_cat=0
split_feature=5 5 12
split_gain=633.595 679.255 425.022
threshold=-0.72654601883961256 0.61378477915395158 -0.35225200883817215
decision_type=2 2 2
left_child=-1 2 -2
right_child=1 -3 -4
leaf_value=0.079786574101587487 -0.046643421566901509 0.047626139438300394 -0.18519942563513053
leaf_weight=17 20 15.999999999999998 15.999999999999998
leaf_count=17 20 16 16
internal_value=-0.0258482 -0.0605079 -0.108622
internal_weight=69 52 36
internal_count=69 52 36
is_linear=0
shrinkage=0.02


Tree=112
num_leaves=3
num_cat=0
split_feature=1 2
split_gain=380.173 366.216
threshold=-0.63447401217882626 -0.16270542011358399
decision_type=2 2
left_child=-1 -2
right_child=1 -3
leaf_value=0.05979737305493088 -0.10875406900382141 -0.0031726338926869164
leaf_weight=15.999999999999998 24 29
leaf_count=16 24 29
internal_value=-0.0253337 -0.0511355
internal_weight=69 53
internal_count=69 53
is_linear=0
shrinkage=0.02


Tree=113
num_leaves=4
num_cat=0
split_feature=5 5 1
split_gain=606.984 649.47 706.399
threshold=-0.72654601883961256 0.61378477915395158 -0.15087058919697974
decision_type=2 2 2
left_child=-1 2 -2
right_child=1 -3 -4
leaf_value=0.078562283404389324 -0.021631536958105272 0.046979615334768472 -0.1990805004354109
leaf_weight=17 19 15.999999999999998 17
leaf_count=17 19 16 17
internal_value=-0.0248285 -0.0587537 -0.105802
internal_weight=69 52 36
internal_count=69 52 36
is_linear=0
shrinkage=0.02


Tree=114
num_leaves=4
num_cat=0
split_feature=5 5 1
split_gain=583.09 623.922 678.569
threshold=-0.72654601883961256 0.61378477915395158 -0.15087058919697974
decision_type=2 2 2
left_child=-1 2 -2
right_child=1 -3 -4
leaf_value=0.077000224409047621 -0.021201168704407376 0.046045858067755373 -0.19512217535610088
leaf_weight=17 19 15.999999999999998 17
leaf_count=17 19 16 17
internal_value=-0.0243341 -0.0575853 -0.103699
internal_weight=69 52 36
internal_count=69 52 36
is_linear=0
shrinkage=0.02


Tree=115
num_leaves=3
num_cat=0
split_feature=9 9
split_gain=1059.44 353.88
threshold=0.071348461346022449 -0.32223589299058669
decision_type=2 2
left_child=1 -1
right_child=-2 -3
leaf_value=-0.0021332326733688421 0.10079156887080661 -0.1199036481118327
leaf_weight=22 29 19
leaf_count=22 29 19
internal_value=0.00844123 -0.0569174
internal_weight=70 41
internal_count=70 41
is_linear=0
shrinkage=0.02


Tree=116
num_leaves=3
num_cat=0
split_feature=9 3
split_gain=1017.67 554.587
threshold=0.071348461346022449 -0.34082760499722936
decision_type=2 2
left_child=1 -1
right_child=-2 -3
leaf_value=0.0092667914262581693 0.098782662034444385 -0.13861132382029326
leaf_weight=23 29 18
leaf_count=23 29 18
internal_value=0.00827066 -0.0557859
internal_weight=70 41
internal_count=70 41
is_linear=0
shrinkage=0.02


Tree=117
num_leaves=3
num_cat=0
split_feature=10 1
split_gain=991.181 859.817
threshold=-0.55225596673836319 -0.25111209138042295
decision_type=2 2
left_child=-1 -2
right_child=1 -3
leaf_value=-0.12963431269485759 0.13484034378690074 -0.024923142715008395
leaf_weight=15.999999999999998 25 29
leaf_count=16 25 29
internal_value=0.00810438 0.049117
internal_weight=70 54
internal_count=70 54
is_linear=0
shrinkage=0.02


Tree=118
num_leaves=4
num_cat=0
split_feature=12 2 8
split_gain=734.739 458.848 855.491
threshold=1.0000000180025095e-35 -0.53288806787049203 0.24481816541489446
decision_type=2 2 2
left_child=1 -1 -3
right_child=-2 2 -4
leaf_value=-0.02512135697834527 -0.094190295916884687 0.20457567556014911 -0.0084962573588289181
leaf_weight=20 20 15.000000000000002 14.999999999999998
leaf_count=20 20 15 15
internal_value=0.00794058 0.0489393 0.098299
internal_weight=70 50 30
internal_count=70 50 30
is_linear=0
shrinkage=0.02


Tree=119
num_leaves=4
num_cat=0
split_feature=10 12 2
split_gain=938.371 1322.51 1250.26
threshold=-0.55225596673836319 -0.47307058525340501 -0.16270542011358399
decision_type=2 2 2
left_child=-1 -2 -3
right_child=1 2 -4
leaf_value=-0.12623587353629354 0.19961969159404683 -0.14368905786882369 0.08640470868603313
leaf_weight=15.999999999999998 15.999999999999998 16.999999999999996 21.000000000000004
leaf_count=16 16 17 21
internal_value=0.00778225 0.0476882 -0.0165864
internal_weight=70 54 38
internal_count=70 54 38
is_linear=0
shrinkage=0.02


Tree=120
num_leaves=4
num_cat=0
split_feature=9 9 7
split_gain=469.105 416.39 189.586
threshold=0.17650626276179157 -0.60633936603972804 -0.063350070663161631
decision_type=2 2 2
left_child=1 -1 -3
right_child=-2 2 -4
leaf_value=0.048646790965503416 0.072206059822897697 -0.029291426930206494 -0.13014347019574499
leaf_weight=14.999999999999998 24 15 15
leaf_count=15 24 15 15
internal_value=0.00094451 -0.0370931 -0.0800487
internal_weight=69 45 30
internal_count=69 45 30
is_linear=0
shrinkage=0.02


Tree=121
num_leaves=4
num_cat=0
split_feature=10 12 2
split_gain=874.233 552.624 807.82
threshold=-0.51247860925292488 -0.35225200883817215 0.042783723131067111
decision_type=2 2 2
left_child=-1 -2 -3
right_child=1 2 -4
leaf_value=-0.12313059550279762 0.13486902939645867 -0.11437112719807406 0.079209940552118413
leaf_weight=17 17 14.999999999999998 20
leaf_count=17 17 15 20
internal_value=0.000923922 0.0416771 -0.00378588
internal_weight=69 52 35
internal_count=69 52 35
is_linear=0
shrinkage=0.02


Tree=122
num_leaves=4
num_cat=0
split_feature=10 9 8
split_gain=839.803 482.597 563.81
threshold=-0.51247860925292488 0.26440124583086239 1.0000000180025095e-35
decision_type=2 2 2
left_child=-1 2 -2
right_child=1 -3 -4
leaf_value=-0.12068238665485939 0.16214791137210571 -0.039247495304227498 -0.00351668370480569
leaf_weight=17 18 19 14.999999999999998
leaf_count=17 18 19 15
internal_value=0.000904187 0.0408474 0.0870023
internal_weight=69 52 33
internal_count=69 52 33
is_linear=0
shrinkage=0.02


Tree=123
num_leaves=4
num_cat=0
split_feature=9 9 7
split_gain=437.539 409.877 174.015
threshold=0.17650626276179157 -0.60633936603972804 -0.063350070663161631
decision_type=2 2 2
left_child=1 -1 -3
right_child=-2 2 -4
leaf_value=0.049212947618092917 0.069707530410457949 -0.029817300000727569 -0.12647143060797889
leaf_weight=14.999999999999998 24 15 15
leaf_count=15 24 15 15
internal_value=0.000884329 -0.0358502 -0.0784704
internal_weight=69 45 30
internal_count=69 45 30
is_linear=0
shrinkage=0.02


Tree=124
num_leaves=3
num_cat=0
split_feature=10 9
split_gain=802.311 712.308
threshold=-0.48270111365740198 0.26440124583086239
decision_type=2 2
left_child=-1 -2
right_child=1 -3
leaf_value=-0.089374261282354706 0.1222416800046822 -0.039853504527925819
leaf_weight=25 25 19
leaf_count=25 25 19
internal_value=0.000864982 0.052269
internal_weight=69 44
internal_count=69 44
is_linear=0
shrinkage=0.02


Tree=125
num_leaves=4
num_cat=0
split_feature=12 11 9
split_gain=932.934 1210.45 499.03
threshold=1.0000000180025095e-35 0.33511216691237578 0.087598091234302594
decision_type=2 2 2
left_child=1 2 -1
right_child=-2 -3 -4
leaf_value=0.077089789561088487 -0.074160683175702125 -0.040871589717580308 0.2409779918430657
leaf_weight=15.000000000000002 23 20 14.999999999999998
leaf_count=15 23 20 15
internal_value=0.0310013 0.0794672 0.159629
internal_weight=73 50 30
internal_count=73 50 30
is_linear=0
shrinkage=0.02


Tree=126
num_leaves=4
num_cat=0
split_feature=12 11 2
split_gain=896.204 1162.85 408.736
threshold=1.0000000180025095e-35 0.33511216691237578 -0.48721618275762674
decision_type=2 2 2
left_child=1 2 -1
right_child=-2 -3 -4
leaf_value=0.081610174163287821 -0.072683891790769839 -0.040058224379126699 0.23013838477482071
leaf_weight=15.000000000000002 23 20 14.999999999999998
leaf_count=15 23 20 15
internal_value=0.0303863 0.0778889 0.156459
internal_weight=73 50 30
internal_count=73 50 30
is_linear=0
shrinkage=0.02


Tree=127
num_leaves=4
num_cat=0
split_feature=12 11 9
split_gain=860.92 1117.12 473.692
threshold=1.0000000180025095e-35 0.33511216691237578 0.087598091234302594
decision_type=2 2 2
left_child=1 2 -1
right_child=-2 -3 -4
leaf_value=0.072953177319457177 -0.071236506602464819 -0.039261047069113049 0.23260169292917315
leaf_weight=15.000000000000002 23 20 14.999999999999998
leaf_count=15 23 20 15
internal_value=0.0297834 0.0763419 0.153351
internal_weight=73 50 30
internal_count=73 50 30
is_linear=0
shrinkage=0.02


Tree=128
num_leaves=4
num_cat=0
split_feature=12 11 9
split_gain=827.026 1073.18 455.026
threshold=1.0000000180025095e-35 0.33511216691237578 0.087598091234302594
decision_type=2 2 2
left_child=1 2 -1
right_child=-2 -3 -4
leaf_value=0.071503781514451983 -0.069817942349941695 -0.038479733253592871 0.22798046749159201
leaf_weight=15.000000000000002 23 20 14.999999999999998
leaf_count=15 23 20 15
internal_value=0.0291925 0.0748257 0.150306
internal_weight=73 50 30
internal_count=73 50 30
is_linear=0
shrinkage=0.02


Tree=129
num_leaves=4
num_cat=0
split_feature=5 12 0
split_gain=798.573 408.723 530.767
threshold=-0.4739618994708808 0.20090817547276876 -0.19229202164659839
decision_type=2 2 2
left_child=-1 2 -2
right_child=1 -3 -4
leaf_value=0.13977260779335862 0.1123574343823498 -0.095144368284237321 -0.038604040310393627
leaf_weight=19 15.999999999999998 15.999999999999998 22
leaf_count=19 16 16 22
internal_value=0.0286134 -0.0106473 0.0250343
internal_weight=73 54 38
internal_count=73 54 38
is_linear=0
shrinkage=0.02


Tree=130
num_leaves=4
num_cat=0
split_feature=3 5 9
split_gain=591.214 788.004 390.448
threshold=-0.56587748219879475 0.23879603469724731 0.087598091234302594
decision_type=2 2 2
left_child=-1 2 -2
right_child=1 -3 -4
leaf_value=0.10388310407468787 -0.16402608751461201 0.067191601104645934 -0.019641533505837649
leaf_weight=19 15.000000000000002 21 14.999999999999998
leaf_count=19 15 21 15
internal_value=0.00893765 -0.0265291 -0.0922054
internal_weight=70 51 30
internal_count=70 51 30
is_linear=0
shrinkage=0.02


Tree=131
num_leaves=4
num_cat=0
split_feature=3 5 9
split_gain=567.941 756.997 375.07
threshold=-0.56587748219879475 0.23879603469724731 0.087598091234302594
decision_type=2 2 2
left_child=-1 2 -2
right_child=1 -3 -4
leaf_value=0.10181632181736811 -0.16076728858695125 0.065854136830822557 -0.019251307304331802
leaf_weight=19 15.000000000000002 21 14.999999999999998
leaf_count=19 15 21 15
internal_value=0.00875796 -0.0260031 -0.0903748
internal_weight=70 51 30
internal_count=70 51 30
is_linear=0
shrinkage=0.02


Tree=132
num_leaves=3
num_cat=0
split_feature=3 5
split_gain=545.636 298.322
threshold=-0.43067375003108882 0.089117231454246978
decision_type=2 2
left_child=-1 -2
right_child=1 -3
leaf_value=0.076843645835686411 -0.087623175204609313 0.018843559919490445
leaf_weight=28 22 20
leaf_count=28 22 20
internal_value=0.00858188 -0.0369529
internal_weight=70 42
internal_count=70 42
is_linear=0
shrinkage=0.02


Tree=133
num_leaves=4
num_cat=0
split_feature=3 5 9
split_gain=529.461 713.134 362.633
threshold=-0.56587748219879475 0.23879603469724731 0.087598091234302594
decision_type=2 2 2
left_child=-1 2 -2
right_child=1 -3 -4
leaf_value=0.098261827848344585 -0.15684474275601618 0.064003283739337141 -0.017704662613521351
leaf_weight=19 15.000000000000002 21 14.999999999999998
leaf_count=19 15 21 15
internal_value=0.00841047 -0.0251512 -0.0876311
internal_weight=70 51 30
internal_count=70 51 30
is_linear=0
shrinkage=0.02


Tree=134
num_leaves=3
num_cat=0
split_feature=3 10
split_gain=511.257 283.901
threshold=-0.43067375003108882 -0.32762316585947088
decision_type=2 2
left_child=-1 -2
right_child=1 -3
leaf_value=0.074318510035178836 -0.10184129449891748 0.0049430210026287945
leaf_weight=28 15.999999999999998 26
leaf_count=28 16 26
internal_value=0.00824134 -0.0358345
internal_weight=70 42
internal_count=70 42
is_linear=0
shrinkage=0.02


Tree=135
num_leaves=4
num_cat=0
split_feature=9 12 9
split_gain=964.509 1100.23 673.436
threshold=-0.1144763759933199 -0.47307058525340501 -0.60633936603972804
decision_type=2 2 2
left_child=2 -2 -1
right_child=1 -3 -4
leaf_value=0.0055693299880880398 0.18289066627325604 -0.031609187107890041 -0.1713562049913169
leaf_weight=14.999999999999998 14.999999999999998 26 20
leaf_count=15 15 26 20
internal_value=-0.0186795 0.0470718 -0.0956742
internal_weight=76 41 35
internal_count=76 41 35
is_linear=0
shrinkage=0.02


Tree=136
num_leaves=4
num_cat=0
split_feature=10 12 4
split_gain=897.422 1628.48 891.351
threshold=-0.55225596673836319 -0.47307058525340501 -0.13127650758375725
decision_type=2 2 2
left_child=-1 -2 -3
right_child=1 2 -4
leaf_value=-0.15636517941557021 0.18149157333095173 -0.15132355804842804 0.029992667346361621
leaf_weight=14.999999999999998 17 19 25
leaf_count=15 17 19 25
internal_value=-0.0183058 0.0158108 -0.0484232
internal_weight=76 61 44
internal_count=76 61 44
is_linear=0
shrinkage=0.02


Tree=137
num_leaves=4
num_cat=0
split_feature=9 12 9
split_gain=894.892 1018.97 646.636
threshold=-0.1144763759933199 -0.47307058525340501 -0.60633936603972804
decision_type=2 2 2
left_child=2 -2 -1
right_child=1 -3 -4
leaf_value=0.0070903884180334234 0.17609877976360699 -0.030326522556758016 -0.16626852498125672
leaf_weight=14.999999999999998 14.999999999999998 26 20
leaf_count=15 15 26 20
internal_value=-0.0179417 0.045391 -0.0921063
internal_weight=76 41 35
internal_count=76 41 35
is_linear=0
shrinkage=0.02


Tree=138
num_leaves=4
num_cat=0
split_feature=9 12 9
split_gain=859.637 978.873 621.175
threshold=-0.1144763759933199 -0.47307058525340501 -0.60633936603972804
decision_type=2 2 2
left_child=2 -2 -1
right_child=1 -3 -4
leaf_value=0.006949520616341901 0.17260012303164465 -0.029722317443496876 -0.16295970093551559
leaf_weight=14.999999999999998 14.999999999999998 26 20
leaf_count=15 15 26 20
internal_value=-0.0175827 0.0444893 -0.0902721
internal_weight=76 41 35
internal_count=76 41 35
is_linear=0
shrinkage=0.02


Tree=139
num_leaves=4
num_cat=0
split_feature=9 4 5
split_gain=829.416 463.427 219.82
threshold=0.087598091234302594 -0.4711795759317956 0.089117231454246978
decision_type=2 2 2
left_child=1 -1 -3
right_child=-2 2 -4
leaf_value=0.014197248771176701 0.066707057494068481 -0.17031305147322595 -0.061290697261987138
leaf_weight=17 29 15.000000000000002 14.999999999999998
leaf_count=17 29 15 15
internal_value=-0.0172309 -0.0690965 -0.116253
internal_weight=76 47 30
internal_count=76 47 30
is_linear=0
shrinkage=0.02


Tree=140
num_leaves=3
num_cat=0
split_feature=3 6
split_gain=726.317 681.41
threshold=-0.11924974553650149 -0.55481148959067361
decision_type=2 2
left_child=1 -1
right_child=-2 -3
leaf_value=-0.014464453356298385 -0.06207120566570451 0.13650457253401307
leaf_weight=22 27 26
leaf_count=22 27 26
internal_value=0.020732 0.0673826
internal_weight=75 48
internal_count=75 48
is_linear=0
shrinkage=0.02


Tree=141
num_leaves=3
num_cat=0
split_feature=3 0
split_gain=697.656 521.459
threshold=-0.11924974553650149 0.10420086586566488
decision_type=2 2
left_child=1 -1
right_child=-2 -3
leaf_value=0.1265016073650784 -0.060834364855311462 -0.0055748895498422477
leaf_weight=26 27 22
leaf_count=26 27 22
internal_value=0.0203179 0.0660392
internal_weight=75 48
internal_count=75 48
is_linear=0
shrinkage=0.02


Tree=142
num_leaves=4
num_cat=0
split_feature=3 10 10
split_gain=670.126 652.377 676.129
threshold=-0.11924974553650149 -0.26748857984006963 -0.49598845155535554
decision_type=2 2 2
left_child=1 2 -1
right_child=-2 -3 -4
leaf_value=0.031232206755580166 -0.059622165520582693 -0.04434195246917523 0.2130741449697128
leaf_weight=17.999999999999996 27 14.999999999999998 15.000000000000002
leaf_count=18 27 15 15
internal_value=0.0199121 0.0647226 0.114342
internal_weight=75 48 33
internal_count=75 48 33
is_linear=0
shrinkage=0.02


Tree=143
num_leaves=3
num_cat=0
split_feature=3 6
split_gain=643.727 659.426
threshold=-0.11924974553650149 -0.55481148959067361
decision_type=2 2
left_child=1 -1
right_child=-2 -3
leaf_value=-0.017068379141086904 -0.058434123632212849 0.13143704487446167
leaf_weight=22 27 26
leaf_count=22 27 26
internal_value=0.0195171 0.0634365
internal_weight=75 48
internal_count=75 48
is_linear=0
shrinkage=0.02


Tree=144
num_leaves=4
num_cat=0
split_feature=3 10 10
split_gain=618.325 635.704 645.256
threshold=-0.11924974553650149 -0.26748857984006963 -0.49598845155535554
decision_type=2 2 2
left_child=1 2 -1
right_child=-2 -3 -4
leaf_value=0.029965927581102152 -0.057269753978701099 -0.04548223211275821 0.20760642095906842
leaf_weight=17.999999999999996 27 14.999999999999998 15.000000000000002
leaf_count=18 27 15 15
internal_value=0.0191271 0.0621717 0.111155
internal_weight=75 48 33
internal_count=75 48 33
is_linear=0
shrinkage=0.02


Tree=145
num_leaves=3
num_cat=0
split_feature=4 6
split_gain=529.489 691.253
threshold=-0.043650513760484615 -0.55481148959067361
decision_type=2 2
left_child=1 -1
right_child=-2 -3
leaf_value=-0.031233840252640501 -0.078421125030104732 0.11766859411161183
leaf_weight=27 23 23
leaf_count=27 23 23
internal_value=0.000768529 0.0373195
internal_weight=73 50
internal_count=73 50
is_linear=0
shrinkage=0.02


Tree=146
num_leaves=3
num_cat=0
split_feature=10 10
split_gain=517.724 932.182
threshold=-0.26748857984006963 -0.48270111365740198
decision_type=2 2
left_child=1 -1
right_child=-2 -3
leaf_value=-0.039586032951015163 -0.07067277593174201 0.13918232117783969
leaf_weight=26 26 21
leaf_count=26 26 21
internal_value=0.000752285 0.0403726
internal_weight=73 47
internal_count=73 47
is_linear=0
shrinkage=0.02


Tree=147
num_leaves=3
num_cat=0
split_feature=4 11
split_gain=505.312 644.431
threshold=-0.043650513760484615 0.1423200010461397
decision_type=2 2
left_child=1 -1
right_child=-2 -3
leaf_value=0.099959074237592704 -0.076623054649922764 -0.044388575300372025
leaf_weight=28 23 22
leaf_count=28 23 22
internal_value=0.000736934 0.0364444
internal_weight=73 50
internal_count=73 50
is_linear=0
shrinkage=0.02


Tree=148
num_leaves=3
num_cat=0
split_feature=10 10
split_gain=492.179 896.402
threshold=-0.26748857984006963 -0.48270111365740198
decision_type=2 2
left_child=1 -1
right_child=-2 -3
leaf_value=-0.039055595448190678 -0.068919448167428204 0.13624735592665832
leaf_weight=26 26 21
leaf_count=26 26 21
internal_value=0.000720528 0.0393518
internal_weight=73 47
internal_count=73 47
is_linear=0
shrinkage=0.02


Tree=149
num_leaves=3
num_cat=0
split_feature=4 11
split_gain=482.258 618.069
threshold=-0.043650513760484615 0.1423200010461397
decision_type=2 2
left_child=1 -1
right_child=-2 -3
leaf_value=0.097792448030247808 -0.074868175085488847 -0.043571010968264406
leaf_weight=28 23 22
leaf_count=28 23 22
internal_value=0.000705795 0.0355898
internal_weight=73 50
internal_count=73 50
is_linear=0
shrinkage=0.02


Tree=150
num_leaves=4
num_cat=0
split_feature=12 2 6
split_gain=522.249 763.926 715.928
threshold=-0.47307058525340501 -0.16270542011358399 0.34088327429428777
decision_type=2 2 2
left_child=-1 -2 -3
right_child=1 2 -4
leaf_value=0.070089205006391805 -0.13884415291990909 -0.081681312030514347 0.1048173441758472
leaf_weight=27 19 14.999999999999998 18
leaf_count=27 19 15 18
internal_value=-0.00109608 -0.0381596 0.0199941
internal_weight=79 52 33
internal_count=79 52 33
is_linear=0
shrinkage=0.02


Tree=151
num_leaves=4
num_cat=0
split_feature=12 2 3
split_gain=501.659 733.821 232.573
threshold=-0.47307058525340501 -0.16270542011358399 -0.11924974553650149
decision_type=2 2 2
left_child=-1 -2 -3
right_child=1 2 -4
leaf_value=0.068692595685979976 -0.13608181254401883 0.07413782291530821 -0.031756885531766893
leaf_weight=27 19 15.999999999999998 17
leaf_count=27 19 16 17
internal_value=-0.0010748 -0.0374009 0.0195944
internal_weight=79 52 33
internal_count=79 52 33
is_linear=0
shrinkage=0.02


Tree=152
num_leaves=4
num_cat=0
split_feature=12 6 11
split_gain=481.874 728.046 438.264
threshold=-0.47307058525340501 -0.49170487201433999 -0.42388342988135547
decision_type=2 2 2
left_child=-1 -2 -3
right_child=1 2 -4
leaf_value=0.067323813398825733 -0.15369936065168571 -0.052262158735993484 0.085469457447877401
leaf_weight=27 14.999999999999998 20 17
leaf_count=27 15 20 17
internal_value=-0.00105343 -0.0366565 0.0110258
internal_weight=79 52 37
internal_count=79 52 37
is_linear=0
shrinkage=0.02


Tree=153
num_leaves=4
num_cat=0
split_feature=12 6 5
split_gain=462.879 699.405 699.599
threshold=-0.47307058525340501 -0.49170487201433999 0.20352886656602584
decision_type=2 2 2
left_child=-1 -2 -3
right_child=1 2 -4
leaf_value=0.065982306900939383 -0.15064573212175181 -0.088455014080734723 0.086589062356553378
leaf_weight=27 14.999999999999998 15.999999999999998 21
leaf_count=27 15 16 21
internal_value=-0.00103321 -0.035928 0.010806
internal_weight=79 52 37
internal_count=79 52 37
is_linear=0
shrinkage=0.02


Tree=154
num_leaves=4
num_cat=0
split_feature=12 2 6
split_gain=444.645 677.387 672.794
threshold=-0.47307058525340501 -0.16270542011358399 0.34088327429428777
decision_type=2 2 2
left_child=-1 -2 -3
right_child=1 2 -4
leaf_value=0.064667529853067715 -0.13002726709655441 -0.079022182565651189 0.10177020226867653
leaf_weight=27 19 14.999999999999998 18
leaf_count=27 19 15 18
internal_value=-0.00101422 -0.0352153 0.019541
internal_weight=79 52 33
internal_count=79 52 33
is_linear=0
shrinkage=0.02


Tree=155
num_leaves=3
num_cat=0
split_feature=10 1
split_gain=1380.41 762.778
threshold=-0.61722551174468954 0.27678940714238609
decision_type=2 2
left_child=-1 -2
right_child=1 -3
leaf_value=-0.08202205452471148 -0.15557772379198509 -0.11748808472440513
leaf_weight=18 24 36
leaf_count=18 24 36
internal_value=-0.121336 -0.132966
internal_weight=78 60
internal_count=78 60
is_linear=0
shrinkage=0.005


Tree=156
num_leaves=3
num_cat=0
split_feature=10 1
split_gain=1366.61 755.211
threshold=-0.61722551174468954 0.27678940714238609
decision_type=2 2
left_child=-1 -2
right_child=1 -3
leaf_value=-0.081614209644043631 -0.15480306126764698 -0.11690227191534069
leaf_weight=18 24 36
leaf_count=18 24 36
internal_value=-0.120732 -0.132303
internal_weight=78 60
internal_count=78 60
is_linear=0
shrinkage=0.005


Tree=157
num_leaves=3
num_cat=0
split_feature=10 1
split_gain=1352.96 747.718
threshold=-0.61722551174468954 0.27678940714238609
decision_type=2 2
left_child=-1 -2
right_child=1 -3
leaf_value=-0.08120839277025084 -0.15403225815642421 -0.11631937930458471
leaf_weight=18 24 36
leaf_count=18 24 36
internal_value=-0.12013 -0.131644
internal_weight=78 60
internal_count=78 60
is_linear=0
shrinkage=0.005


Tree=158
num_leaves=3
num_cat=0
split_feature=10 1
split_gain=1339.44 740.3
threshold=-0.61722551174468954 0.27678940714238609
decision_type=2 2
left_child=-1 -2
right_child=1 -3
leaf_value=-0.080804594682725078 -0.15326529308968065 -0.11573939341917593
leaf_weight=18 24 36
leaf_count=18 24 36
internal_value=-0.119532 -0.130988
internal_weight=78 60
internal_count=78 60
is_linear=0
shrinkage=0.005


Tree=159
num_leaves=4
num_cat=0
split_feature=10 4 4
split_gain=1326.05 726.428 25.0564
threshold=-0.61722551174468954 -0.37595524418258869 0.33943235667202926
decision_type=2 2 2
left_child=-1 -2 -3
right_child=1 2 -4
leaf_value=-0.080402803789844823 -0.15903830121135154 -0.12523881394399236 -0.11112928941916515
leaf_weight=18 17 22 21
leaf_count=18 17 22 21
internal_value=-0.118937 -0.130335 -0.118634
internal_weight=78 60 43
internal_count=78 60 43
is_linear=0
shrinkage=0.005


Tree=160
num_leaves=3
num_cat=0
split_feature=1 9
split_gain=1147.18 306.761
threshold=-0.32580627761068576 -0.093044776169049506
decision_type=2 2
left_child=-1 -2
right_child=1 -3
leaf_value=-0.14521992145237586 -0.089745079969567987 -0.11526462836459114
leaf_weight=24 27 27
leaf_count=24 27 27
internal_value=-0.115961 -0.102704
internal_weight=78 54
internal_count=78 54
is_linear=0
shrinkage=0.005


Tree=161
num_leaves=3
num_cat=0
split_feature=1 9
split_gain=1135.77 303.692
threshold=-0.32580627761068576 -0.093044776169049506
decision_type=2 2
left_child=-1 -2
right_child=1 -3
leaf_value=-0.14449683569278954 -0.089298010470682407 -0.11469043161596318
leaf_weight=24 27 27
leaf_count=24 27 27
internal_value=-0.115384 -0.102192
internal_weight=78 54
internal_count=78 54
is_linear=0
shrinkage=0.005


Tree=162
num_leaves=4
num_cat=0
split_feature=1 5 2
split_gain=1124.48 100.248 17.8559
threshold=-0.32580627761068576 -0.88493697273380856 -0.33097026000308766
decision_type=2 2 2
left_child=-1 -2 -3
right_child=1 2 -4
leaf_value=-0.14377734896553007 -0.11409232820783341 -0.10355265074218348 -0.090888173115717882
leaf_weight=24 15.999999999999998 14.999999999999995 23.000000000000004
leaf_count=24 16 15 23
internal_value=-0.114809 -0.101683 -0.0961591
internal_weight=78 54 38
internal_count=78 54 38
is_linear=0
shrinkage=0.005


Tree=163
num_leaves=4
num_cat=0
split_feature=10 1 2
split_gain=1216.44 596.348 56.5152
threshold=-0.61722551174468954 -0.32580627761068576 -0.38083159623156909
decision_type=2 2 2
left_child=-1 -2 -3
right_child=1 2 -4
leaf_value=-0.078597409163470036 -0.14703528425812182 -0.12255905239787324 -0.10493896717399492
leaf_weight=19 22 14.999999999999998 22
leaf_count=19 22 15 22
internal_value=-0.114238 -0.125555 -0.112407
internal_weight=78 59 37
internal_count=78 59 37
is_linear=0
shrinkage=0.005


Tree=164
num_leaves=4
num_cat=0
split_feature=10 1 10
split_gain=1204.35 590.378 10.2036
threshold=-0.61722551174468954 -0.32580627761068576 -0.4868155544287463
decision_type=2 2 2
left_child=-1 -2 -3
right_child=1 2 -4
leaf_value=-0.078206478588244047 -0.14630343545076532 -0.10399254668573413 -0.11728804131819738
leaf_weight=19 22 15.999999999999998 21
leaf_count=19 22 16 21
internal_value=-0.11367 -0.12493 -0.111848
internal_weight=78 59 37
internal_count=78 59 37
is_linear=0
shrinkage=0.005


Tree=165
num_leaves=4
num_cat=0
split_feature=10 4 10
split_gain=1363.9 722.469 34.327
threshold=-0.61722551174468954 -0.37595524418258869 -0.50055234860270892
decision_type=2 2 2
left_child=-1 -2 -3
right_child=1 2 -4
leaf_value=-0.07408412623779935 -0.14895414651329839 -0.10153656776377697 -0.11603617619245479
leaf_weight=19 20 14.999999999999998 35
leaf_count=19 20 15 35
internal_value=-0.112419 -0.122697 -0.111908
internal_weight=89 70 50
internal_count=89 70 50
is_linear=0
shrinkage=0.005


Tree=166
num_leaves=3
num_cat=0
split_feature=1 10
split_gain=1396.83 655.08
threshold=-0.32580627761068576 -0.57128700425812762
decision_type=2 2
left_child=-1 -2
right_child=1 -3
leaf_value=-0.14308749385263728 -0.075933855238003958 -0.11077811009112357
leaf_weight=26 22 41
leaf_count=26 22 41
internal_value=-0.11186 -0.0987578
internal_weight=89 63
internal_count=89 63
is_linear=0
shrinkage=0.005


Tree=167
num_leaves=4
num_cat=0
split_feature=10 4 10
split_gain=1338.92 710.233 33.8534
threshold=-0.61722551174468954 -0.37595524418258869 -0.50055234860270892
decision_type=2 2 2
left_child=-1 -2 -3
right_child=1 2 -4
leaf_value=-0.07332038489935909 -0.14751727792161021 -0.10050677918440458 -0.11488232400682236
leaf_weight=19 20 14.999999999999998 35
leaf_count=19 20 15 35
internal_value=-0.111302 -0.121485 -0.110789
internal_weight=89 70 50
internal_count=89 70 50
is_linear=0
shrinkage=0.005


Tree=168
num_leaves=4
num_cat=0
split_feature=1 9 1
split_gain=1372.62 186.761 249.79
threshold=-0.32580627761068576 0.029456897469209334 1.178793027349289
decision_type=2 2 2
left_child=-1 2 -2
right_child=1 -3 -4
leaf_value=-0.14170352205006098 -0.076978246821692922 -0.11103749216450334 -0.10305715737839088
leaf_weight=26 20 21 22
leaf_count=26 20 21 22
internal_value=-0.110748 -0.097761 -0.0908628
internal_weight=89 63 42
internal_count=89 63 42
is_linear=0
shrinkage=0.005


Tree=169
num_leaves=3
num_cat=0
split_feature=1 10
split_gain=1358.93 638.824
threshold=-0.32580627761068576 -0.58128405298313013
decision_type=2 2
left_child=-1 -2
right_child=1 -3
leaf_value=-0.14099771919835116 -0.073087601021154594 -0.10831701145924438
leaf_weight=26 20 43
leaf_count=26 20 43
internal_value=-0.110197 -0.0972745
internal_weight=89 63
internal_count=89 63
is_linear=0
shrinkage=0.005


Tree=170
num_leaves=3
num_cat=0
split_feature=1 10
split_gain=1262.69 667.007
threshold=-0.32580627761068576 -0.58128405298313013
decision_type=2 2
left_child=-1 -2
right_child=1 -3
leaf_value=-0.1402061121754101 -0.072874462017838232 -0.1097547161492118
leaf_weight=27 19 41
leaf_count=27 19 41
internal_value=-0.111405 -0.098225
internal_weight=87 60
internal_count=87 60
is_linear=0
shrinkage=0.005


Tree=171
num_leaves=5
num_cat=0
split_feature=10 4 10 4
split_gain=1053.21 538.134 98.9486 3.63462
threshold=-0.61722551174468954 -0.37595524418258869 -0.50055234860270892 0.33943235667202926
decision_type=2 2 2 2
left_child=-1 -2 -3 -4
right_child=1 2 3 -5
leaf_value=-0.077082518233054578 -0.14561703746081792 -0.097795847204347322 -0.12197400504378911 -0.10863310277067273
leaf_weight=19 17 14.999999999999998 21 14.999999999999998
leaf_count=19 17 15 21 15
internal_value=-0.11085 -0.120151 -0.111384 -0.116745
internal_weight=87 68 51 36
internal_count=87 68 51 36
is_linear=0
shrinkage=0.005


Tree=172
num_leaves=4
num_cat=0
split_feature=10 3 9
split_gain=1042.76 516.673 3.74266
threshold=-0.61722551174468954 0.19453824165248232 -0.049764485319909006
decision_type=2 2 2
left_child=-1 -2 -3
right_child=1 2 -4
leaf_value=-0.076699123682151898 -0.14040397398072668 -0.10219555543931148 -0.113450025646712
leaf_weight=19 22 18 28
leaf_count=19 22 18 28
internal_value=-0.110299 -0.119554 -0.109288
internal_weight=87 68 46
internal_count=87 68 46
is_linear=0
shrinkage=0.005


Tree=173
num_leaves=3
num_cat=0
split_feature=1 10
split_gain=1236.62 649.244
threshold=-0.32580627761068576 -0.58128405298313013
decision_type=2 2
left_child=-1 -2
right_child=1 -3
leaf_value=-0.13824815422846382 -0.071700821971394005 -0.10808380026016792
leaf_weight=27 19 41
leaf_count=27 19 41
internal_value=-0.10975 -0.0967093
internal_weight=87 60
internal_count=87 60
is_linear=0
shrinkage=0.005


Tree=174
num_leaves=4
num_cat=0
split_feature=1 9 9
split_gain=1224.32 249.87 219.516
threshold=-0.32580627761068576 -0.093044776169049506 -0.52101750462541585
decision_type=2 2 2
left_child=-1 2 -2
right_child=1 -3 -4
leaf_value=-0.13755946430332985 -0.10039065449443085 -0.10780234818780972 -0.072345980259410123
leaf_weight=27 14.999999999999998 28 17
leaf_count=27 15 28 17
internal_value=-0.109203 -0.0962273 -0.0857793
internal_weight=87 60 32
internal_count=87 60 32
is_linear=0
shrinkage=0.005


Tree=175
num_leaves=3
num_cat=0
split_feature=1 9
split_gain=1007.45 302.978
threshold=-0.32580627761068576 -0.093044776169049506
decision_type=2 2
left_child=-1 -2
right_child=1 -3
leaf_value=-0.1334187234825347 -0.082292755428458403 -0.10676282163192369
leaf_weight=25 29 28
leaf_count=25 29 28
internal_value=-0.106511 -0.0944878
internal_weight=82 57
internal_count=82 57
is_linear=0
shrinkage=0.005


Tree=176
num_leaves=4
num_cat=0
split_feature=10 3 2
split_gain=1028.69 452.413 60.0444
threshold=-0.61431157162776862 0.19453824165248232 -0.40526902047377744
decision_type=2 2 2
left_child=-1 -2 -3
right_child=1 2 -4
leaf_value=-0.075036318584641007 -0.13949436566983048 -0.11392266586957224 -0.097980573015063202
leaf_weight=21 17 25 19
leaf_count=21 17 25 19
internal_value=-0.105981 -0.116485 -0.107288
internal_weight=82 61 44
internal_count=82 61 44
is_linear=0
shrinkage=0.005


Tree=177
num_leaves=3
num_cat=0
split_feature=1 9
split_gain=991.638 298.567
threshold=-0.32580627761068576 -0.093044776169049506
decision_type=2 2
left_child=-1 -2
right_child=1 -3
leaf_value=-0.13214713803325515 -0.081423672023917398 -0.10570823974880883
leaf_weight=25 29 28
leaf_count=25 29 28
internal_value=-0.105453 -0.0935259
internal_weight=82 57
internal_count=82 57
is_linear=0
shrinkage=0.005


Tree=178
num_leaves=4
num_cat=0
split_feature=10 4 2
split_gain=1013.53 403.409 81.1779
threshold=-0.61431157162776862 -0.33311586942454396 -0.40526902047377744
decision_type=2 2 2
left_child=-1 -2 -3
right_child=1 2 -4
leaf_value=-0.074215912570320591 -0.13913927406664717 -0.11549214953467959 -0.09862649727693365
leaf_weight=21 14.999999999999998 22.999999999999996 23.000000000000004
leaf_count=21 15 23 23
internal_value=-0.104928 -0.115354 -0.107302
internal_weight=82 61 46
internal_count=82 61 46
is_linear=0
shrinkage=0.005


Tree=179
num_leaves=4
num_cat=0
split_feature=10 1 2
split_gain=1003.46 510.875 38.4823
threshold=-0.61431157162776862 -0.32580627761068576 -0.40526902047377744
decision_type=2 2 2
left_child=-1 -2 -3
right_child=1 2 -4
leaf_value=-0.073846592021779428 -0.13484696185427011 -0.11122810921473809 -0.096378561037158528
leaf_weight=21 22 17 22
leaf_count=21 22 17 22
internal_value=-0.104406 -0.11478 -0.103132
internal_weight=82 61 39
internal_count=82 61 39
is_linear=0
shrinkage=0.005


Tree=180
num_leaves=5
num_cat=0
split_feature=10 4 10 10
split_gain=1038.07 513.941 91.2041 4.33403
threshold=-0.61431157162776862 -0.37595524418258869 -0.49129047462193948 -0.31173349497769859
decision_type=2 2 2 2
left_child=-1 -2 -3 -4
right_child=1 2 3 -5
leaf_value=-0.073449766548516232 -0.14006726475710365 -0.094340507999950682 -0.11744389866272249 -0.10483277551876087
leaf_weight=19 18 14.999999999999998 21.999999999999996 16.000000000000004
leaf_count=19 18 15 22 16
internal_value=-0.107081 -0.115957 -0.107511 -0.112436
internal_weight=90 71 53 38
internal_count=90 71 53 38
is_linear=0
shrinkage=0.005


Tree=181
num_leaves=4
num_cat=0
split_feature=1 9 1
split_gain=1281.83 230.628 271.008
threshold=-0.32580627761068576 -0.049764485319909006 1.178793027349289
decision_type=2 2 2
left_child=-1 2 -2
right_child=1 -3 -4
leaf_value=-0.13498225303731354 -0.067980682005793408 -0.10518384673058766 -0.097409961211119639
leaf_weight=28 15.999999999999998 27 19
leaf_count=28 16 27 19
internal_value=-0.106548 -0.0935024 -0.0842028
internal_weight=90 62 35
internal_count=90 62 35
is_linear=0
shrinkage=0.005


Tree=182
num_leaves=5
num_cat=0
split_feature=10 4 10 10
split_gain=1021.11 505.438 90.0523 4.73375
threshold=-0.61431157162776862 -0.37595524418258869 -0.49129047462193948 -0.31173349497769859
decision_type=2 2 2 2
left_child=-1 -2 -3 -4
right_child=1 2 3 -5
leaf_value=-0.072665013418147698 -0.13872850465511088 -0.093374436864789745 -0.11631762396695929 -0.10377340891346425
leaf_weight=19 18 14.999999999999998 21.999999999999996 16.000000000000004
leaf_count=19 18 15 22 16
internal_value=-0.106018 -0.114822 -0.106447 -0.111335
internal_weight=90 71 53 38
internal_count=90 71 53 38
is_linear=0
shrinkage=0.005


Tree=183
num_leaves=4
num_cat=0
split_feature=1 10 2
split_gain=1261.7 658.608 12.5628
threshold=-0.32580627761068576 -0.57128700425812762 -0.40526902047377744
decision_type=2 2 2
left_child=-1 -2 -3
right_child=1 2 -4
leaf_value=-0.13369904996661527 -0.068177146674388664 -0.10993765121668725 -0.098016907489137939
leaf_weight=28 20 20 22
leaf_count=28 20 20 22
internal_value=-0.105491 -0.0925488 -0.103953
internal_weight=90 62 42
internal_count=90 62 42
is_linear=0
shrinkage=0.005


Tree=184
num_leaves=4
num_cat=0
split_feature=1 10 2
split_gain=1249.09 652.05 12.4198
threshold=-0.32580627761068576 -0.57128700425812762 -0.40526902047377744
decision_type=2 2 2
left_child=-1 -2 -3
right_child=1 2 -4
leaf_value=-0.13303293289238871 -0.067837956983651679 -0.10939069764531073 -0.097529040289140917
leaf_weight=28 20 20 22
leaf_count=28 20 20 22
internal_value=-0.104966 -0.0920884 -0.103436
internal_weight=90 62 42
internal_count=90 62 42
is_linear=0
shrinkage=0.005


Tree=185
num_leaves=4
num_cat=0
split_feature=3 10 2
split_gain=908.651 501.029 29.5158
threshold=0.19453824165248232 -0.61431157162776862 -0.40526902047377744
decision_type=2 2 2
left_child=-1 -2 -3
right_child=1 2 -4
leaf_value=-0.13174582877716459 -0.068999165007786717 -0.1079967506817931 -0.095436932145200673
leaf_weight=23 15.999999999999998 25.999999999999996 22.000000000000004
leaf_count=23 16 26 22
internal_value=-0.104289 -0.094224 -0.102461
internal_weight=87 64 48
internal_count=87 64 48
is_linear=0
shrinkage=0.005


Tree=186
num_leaves=4
num_cat=0
split_feature=1 10 2
split_gain=945.615 562.505 21.0358
threshold=-0.32580627761068576 -0.57128700425812762 -0.40526902047377744
decision_type=2 2 2
left_child=-1 -2 -3
right_child=1 2 -4
leaf_value=-0.12811234046555922 -0.067862116671398853 -0.10900815167352165 -0.096224501424245684
leaf_weight=28 18 19 22
leaf_count=28 18 19 22
internal_value=-0.10377 -0.0920122 -0.102412
internal_weight=87 59 41
internal_count=87 59 41
is_linear=0
shrinkage=0.005


Tree=187
num_leaves=4
num_cat=0
split_feature=1 1 4
split_gain=936.153 136.179 107.297
threshold=-0.32580627761068576 2.107453261068946 0.037716480503982956
decision_type=2 2 2
left_child=-1 2 -2
right_child=1 -3 -4
leaf_value=-0.12747405710593662 -0.075080392742683855 -0.10428279866171146 -0.093653664733424319
leaf_weight=28 18 18 23
leaf_count=28 18 18 23
internal_value=-0.103254 -0.0915545 -0.0857142
internal_weight=87 59 41
internal_count=87 59 41
is_linear=0
shrinkage=0.005


Tree=188
num_leaves=4
num_cat=0
split_feature=1 9 9
split_gain=926.786 184.681 215.328
threshold=-0.32580627761068576 -0.093044776169049506 -0.52101750462541585
decision_type=2 2 2
left_child=-1 2 -2
right_child=1 -3 -4
leaf_value=-0.12683895616768942 -0.095041875779998938 -0.1011106199895784 -0.066991918734367328
leaf_weight=28 16.000000000000004 28 14.999999999999998
leaf_count=28 16 28 15
internal_value=-0.10274 -0.0910992 -0.0817444
internal_weight=87 59 31
internal_count=87 59 31
is_linear=0
shrinkage=0.005


Tree=189
num_leaves=3
num_cat=0
split_feature=1 10
split_gain=917.516 552.905
threshold=-0.32580627761068576 -0.57128700425812762
decision_type=2 2
left_child=-1 -2
right_child=1 -3
leaf_value=-0.12620701830582262 -0.066712055785879909 -0.10095350735378961
leaf_weight=28 18 41
leaf_count=28 18 41
internal_value=-0.102228 -0.090646
internal_weight=87 59
internal_count=87 59
is_linear=0
shrinkage=0.005


Tree=190
num_leaves=3
num_cat=0
split_feature=1 10
split_gain=1367.39 503.576
threshold=-0.32580627761068576 -0.57128700425812762
decision_type=2 2
left_child=-1 -2
right_child=1 -3
leaf_value=-0.13313414478681951 -0.067900245313960786 -0.099684023843907912
leaf_weight=25 21 36
leaf_count=25 21 36
internal_value=-0.101997 -0.0881224
internal_weight=82 57
internal_count=82 57
is_linear=0
shrinkage=0.005


Tree=191
num_leaves=3
num_cat=0
split_feature=1 10
split_gain=1353.8 498.526
threshold=-0.32580627761068576 -0.57128700425812762
decision_type=2 2
left_child=-1 -2
right_child=1 -3
leaf_value=-0.13247112532535871 -0.06756235240195034 -0.099186984838871409
leaf_weight=25 21 36
leaf_count=25 21 36
internal_value=-0.101489 -0.0876833
internal_weight=82 57
internal_count=82 57
is_linear=0
shrinkage=0.005


Tree=192
num_leaves=3
num_cat=0
split_feature=1 10
split_gain=1340.34 493.527
threshold=-0.32580627761068576 -0.57128700425812762
decision_type=2 2
left_child=-1 -2
right_child=1 -3
leaf_value=-0.13181140762876228 -0.067226142205333253 -0.098692422415080805
leaf_weight=25 21 36
leaf_count=25 21 36
internal_value=-0.100983 -0.0872464
internal_weight=82 57
internal_count=82 57
is_linear=0
shrinkage=0.005


Tree=193
num_leaves=4
num_cat=0
split_feature=1 9 1
split_gain=1327.02 244.949 120.275
threshold=-0.32580627761068576 -0.093044776169049506 1.6811252815700066
decision_type=2 2 2
left_child=-1 2 -2
right_child=1 -3 -4
leaf_value=-0.13115497763888292 -0.065783169373222011 -0.098694557138786457 -0.087477332361486568
leaf_weight=25 16.000000000000004 26 14.999999999999998
leaf_count=25 16 26 15
internal_value=-0.10048 -0.0868116 -0.0765439
internal_weight=82 57 31
internal_count=82 57 31
is_linear=0
shrinkage=0.005


Tree=194
num_leaves=3
num_cat=0
split_feature=1 10
split_gain=1313.78 486.286
threshold=-0.32580627761068576 -0.57128700425812762
decision_type=2 2
left_child=-1 -2
right_child=1 -3
leaf_value=-0.13050181483842463 -0.066510005562226346 -0.097740438294873014
leaf_weight=25 21 36
leaf_count=25 21 36
internal_value=-0.0999803 -0.0863799
internal_weight=82 57
internal_count=82 57
is_linear=0
shrinkage=0.005


Tree=195
num_leaves=4
num_cat=0
split_feature=1 10 9
split_gain=922.128 439.801 30.28
threshold=-0.32580627761068576 -0.58128405298313013 -0.049764485319909006
decision_type=2 2 2
left_child=-1 -2 -3
right_child=1 2 -4
leaf_value=-0.12186531534596878 -0.062060954822516584 -0.085399188869046849 -0.098962484678899135
leaf_weight=26 15.999999999999998 14.999999999999998 25
leaf_count=26 16 15 25
internal_value=-0.0968922 -0.0850921 -0.0941144
internal_weight=82 56 40
internal_count=82 56 40
is_linear=0
shrinkage=0.005


Tree=196
num_leaves=4
num_cat=0
split_feature=1 10 9
split_gain=912.912 435.408 29.9488
threshold=-0.32580627761068576 -0.58128405298313013 -0.049764485319909006
decision_type=2 2 2
left_child=-1 -2 -3
right_child=1 2 -4
leaf_value=-0.1212583235671237 -0.061752577716519375 -0.084975021532829237 -0.098469645359601621
leaf_weight=26 15.999999999999998 14.999999999999998 25
leaf_count=26 16 15 25
internal_value=-0.0964101 -0.0846689 -0.0936462
internal_weight=82 56 40
internal_count=82 56 40
is_linear=0
shrinkage=0.005


Tree=197
num_leaves=4
num_cat=0
split_feature=1 10 9
split_gain=903.787 431.059 29.621
threshold=-0.32580627761068576 -0.58128405298313013 -0.049764485319909006
decision_type=2 2 2
left_child=-1 -2 -3
right_child=1 2 -4
leaf_value=-0.12065435522817559 -0.061445731820527066 -0.084552959543190254 -0.097979257667207137
leaf_weight=26 15.999999999999998 14.999999999999998 25
leaf_count=26 16 15 25
internal_value=-0.0959304 -0.0842479 -0.0931803
internal_weight=82 56 40
internal_count=82 56 40
is_linear=0
shrinkage=0.005


Tree=198
num_leaves=4
num_cat=0
split_feature=1 10 9
split_gain=894.753 426.753 29.2966
threshold=-0.32580627761068576 -0.58128405298313013 -0.049764485319909006
decision_type=2 2 2
left_child=-1 -2 -3
right_child=1 2 -4
leaf_value=-0.12005339425185631 -0.061140412099613163 -0.084132993426543998 -0.097491314192692122
leaf_weight=26 15.999999999999998 14.999999999999998 25
leaf_count=26 16 15 25
internal_value=-0.095453 -0.0838289 -0.0927167
internal_weight=82 56 40
internal_count=82 56 40
is_linear=0
shrinkage=0.005


Tree=199
num_leaves=4
num_cat=0
split_feature=1 10 5
split_gain=885.81 422.49 23.4145
threshold=-0.32580627761068576 -0.58128405298313013 -0.88493697273380856
decision_type=2 2 2
left_child=-1 -2 -3
right_child=1 2 -4
leaf_value=-0.11945542675325239 -0.060836609076268922 -0.098822382247250373 -0.08643704310801234
leaf_weight=26 15.999999999999998 18 22
leaf_count=26 16 18 22
internal_value=-0.0949781 -0.083412 -0.0922555
internal_weight=82 56 40
internal_count=82 56 40
is_linear=0
shrinkage=0.005


Tree=200
num_leaves=4
num_cat=0
split_feature=9 4 3
split_gain=626.445 214.431 6.0096
threshold=-0.16397105033186041 -0.24024729477423784 0.9169296095959858
decision_type=2 2 2
left_child=2 -2 -1
right_child=1 -3 -4
leaf_value=-0.078500879299566603 -0.12018534186660058 -0.095217045087618551 -0.068735025358496252
leaf_weight=15.999999999999998 14.999999999999998 34 15.999999999999998
leaf_count=16 15 34 16
internal_value=-0.0916609 -0.1031 -0.0738629
internal_weight=81 49 32
internal_count=81 49 32
is_linear=0
shrinkage=0.005


Tree=201
num_leaves=4
num_cat=0
split_feature=10 1 12
split_gain=797.695 319.569 47.3369
threshold=-0.61722551174468954 -0.32580627761068576 -0.20935492591039323
decision_type=2 2 2
left_child=-1 -2 -3
right_child=1 2 -4
leaf_value=-0.061156966119839992 -0.11643759365895347 -0.081809222890723551 -0.096333927286082283
leaf_weight=18 21 15.999999999999998 26
leaf_count=18 21 16 26
internal_value=-0.0912049 -0.0996716 -0.09102
internal_weight=81 63 42
internal_count=81 63 42
is_linear=0
shrinkage=0.005


Tree=202
num_leaves=4
num_cat=0
split_feature=10 1 12
split_gain=789.749 316.376 46.8369
threshold=-0.61722551174468954 -0.32580627761068576 -0.20935492591039323
decision_type=2 2 2
left_child=-1 -2 -3
right_child=1 2 -4
leaf_value=-0.060852871257297235 -0.11585816464717918 -0.081402719065269316 -0.095854103044531805
leaf_weight=18 21 15.999999999999998 26
leaf_count=18 21 16 26
internal_value=-0.0907512 -0.0991756 -0.0905671
internal_weight=81 63 42
internal_count=81 63 42
is_linear=0
shrinkage=0.005


Tree=203
num_leaves=4
num_cat=0
split_feature=10 1 12
split_gain=781.883 313.215 46.3422
threshold=-0.61722551174468954 -0.32580627761068576 -0.20935492591039323
decision_type=2 2 2
left_child=-1 -2 -3
right_child=1 2 -4
leaf_value=-0.060550288311025713 -0.11528161903128238 -0.080998232320228708 -0.095376669200444117
leaf_weight=18 21 15.999999999999998 26
leaf_count=18 21 16 26
internal_value=-0.0902997 -0.0986822 -0.0901165
internal_weight=81 63 42
internal_count=81 63 42
is_linear=0
shrinkage=0.005


Tree=204
num_leaves=4
num_cat=0
